nep4_zbl 2 O Ga 
zbl 1 2
cutoff 6 4 418 127
n_max 8 6
basis_size 12 10
l_max 4 2 1
ANN 100 0
  2.1738114e+00
  1.9416634e+00
 -8.6518770e-01
 -2.4622139e-01
  1.4820093e+00
  1.7219879e-01
 -8.3806413e-01
 -1.1495188e-01
  4.3279910e-01
 -5.4567580e+00
 -2.5854580e+00
 -8.5118495e-02
 -3.1140857e+00
 -1.1510252e+00
 -1.0452170e+00
  9.6791431e-02
 -3.8665348e-01
  1.0673211e+00
  3.7752421e+00
  3.5431001e+00
  4.1576454e-01
  5.2535481e+00
  2.4836741e-01
  5.8805965e-02
 -1.0206851e-01
 -1.9619968e-02
  1.4470006e+00
 -6.2690771e-01
  4.0470390e+00
  1.7899147e+00
 -5.0137866e-01
  1.7190470e+00
 -5.3029747e+00
 -1.8647314e+00
 -2.1355438e+00
 -4.5359473e+00
  2.7802022e+00
 -2.0202231e+00
  1.9099592e-01
  1.0490493e-01
 -7.0831788e-01
 -5.2298608e+00
  2.1778477e-02
 -1.5458201e-01
 -3.0550316e-02
  2.4046862e+00
 -1.6660573e-01
 -5.5565357e-02
 -8.7049025e-01
  2.4612442e-01
  2.8941065e-01
  2.3520525e+00
 -1.2370089e-01
 -1.7053112e+00
  9.5889819e-01
 -3.6120322e-01
 -1.8796757e+00
 -1.1051607e+00
  8.9752632e-01
  6.8917972e-01
 -2.0582967e+00
 -3.0052945e-01
  1.1686379e-01
 -3.0323730e+00
  2.7135339e-01
 -2.2707720e+00
  2.5330741e+00
 -3.0964448e+00
 -8.0660951e-01
  9.4047898e-01
 -3.0822551e+00
 -9.6761890e-02
  9.0027954e-03
 -3.4352980e+00
  2.2545700e+00
 -3.1061667e-01
 -1.5845141e+00
 -2.9885731e+00
  1.9476165e-01
 -9.8811603e-01
 -3.0108156e+00
  1.6603307e+00
 -1.9052835e-01
 -2.3980820e-01
 -3.1201148e+00
 -3.5793104e-03
 -1.2523030e+00
  3.4049523e+00
 -2.8715202e-01
 -3.7526071e+00
 -8.6570650e-01
  9.6903219e+00
  2.7593415e+00
  6.2215118e+00
  2.0040591e+00
 -4.5442758e+00
  4.2181745e+00
 -1.2983466e+00
  4.3966778e-02
  4.5458314e-01
  4.3628417e-02
  8.7605633e-02
 -1.8725377e+00
 -1.3252443e-01
  1.7455053e-01
 -1.5782499e-01
 -2.6827333e+00
 -5.2541816e-01
 -1.3767960e+00
  1.4723123e-02
  5.3988070e+00
 -6.0642922e-01
 -4.8572340e+00
 -1.9898278e+00
  2.3403888e+00
 -3.4891763e+00
  4.0246591e-01
 -2.4443829e+00
 -1.0047921e-01
 -7.5474894e-01
  1.7487253e+00
 -2.3427907e-01
  3.2652152e+00
  1.2482774e+00
 -1.7343713e+00
  6.0311717e-01
  3.4556898e-01
  2.3873107e+00
 -5.0884175e+00
  3.7758166e-01
  1.2656437e+00
 -3.6007193e-01
 -4.2502239e-01
 -2.4478962e-01
  1.2042561e+00
  2.3864176e+00
  1.0614975e-01
 -3.7759695e+00
 -2.9818165e-01
  8.8854057e-01
 -2.9947998e-02
  3.8630929e+00
  1.2533956e+00
 -2.1188053e-01
  1.8755800e+00
  1.4185770e+00
  1.3527963e-01
  7.9580340e+00
  1.3488217e-01
 -1.1412089e-02
 -6.2277976e-02
  4.2612152e+00
  1.7462948e-01
 -1.2372726e+00
  4.0106740e+00
 -1.2888427e+01
 -2.5008645e+00
 -9.7389269e+00
  1.4208690e+00
  1.7026604e+01
 -4.3491035e+00
 -9.7412205e+00
  1.9534526e+00
  6.7773156e+00
 -1.9401414e+00
 -1.0497850e+00
 -4.3080521e+00
  1.1548592e+00
 -4.0889513e-01
  1.6069809e+01
 -9.9069571e-01
 -4.3577685e+00
 -3.3562124e+00
 -1.4005771e-01
  2.4537891e-01
  5.2147059e+00
 -2.8227239e+00
 -1.0124914e+01
 -8.8815947e+00
 -3.9529331e+00
 -1.7209251e+01
 -8.5478210e+00
  1.5840510e+00
  1.4339206e+00
 -6.7244658e+00
 -5.2704233e-01
 -4.1666498e+00
 -7.5861921e+00
 -7.1816077e+00
 -7.4119449e-01
  8.4536362e-01
 -9.4078407e+00
 -2.1063949e-01
  4.0938847e-02
  6.3420385e-02
  2.3128111e+00
 -2.3838830e+00
 -6.2283654e-02
  4.6455663e-02
 -2.2491233e-02
 -3.1304441e-02
 -1.9192189e+00
  5.0777382e-01
 -1.5217921e-01
  7.4392742e-01
  2.5863677e-01
  1.4802595e+00
 -7.6526058e-01
  1.6631395e-01
  1.1022980e-01
  7.6065886e-01
  5.0841827e-02
 -1.2247403e+00
  2.4292753e+00
 -1.4641778e+00
  4.2861681e+00
 -1.4468963e-01
  2.3175726e+00
  3.9788377e-02
 -3.7053639e-01
 -1.3072537e+00
 -1.4480843e-02
 -9.4089407e-01
 -3.0563770e-02
 -3.3884530e+00
  1.0388005e+00
 -8.3361410e-02
  1.9905671e-02
  2.1863352e-01
 -1.7022775e+00
  1.5152638e+00
  1.4384115e+00
  8.9109957e-01
 -3.8142679e+00
  1.3589611e+00
 -2.0717523e+00
 -1.0320602e-02
  4.2449603e+00
 -2.6637325e+00
  3.4940116e+00
  3.3198333e+00
 -1.9364658e-01
 -1.6204331e+00
  8.4331781e-02
  2.8664646e+00
  3.8894491e+00
 -3.1745434e-01
 -2.3053573e-02
  4.5548358e+00
 -1.2909435e+00
 -7.4800767e-02
  1.4962451e-02
  3.1597161e+00
  2.3315299e-01
  5.8164686e-02
 -4.3558121e-01
 -1.5369383e+00
  2.8449128e+00
  1.5052041e+00
  1.3855091e+00
  1.8279580e-02
  1.3563052e+00
 -3.6327314e+00
 -1.7508727e+00
 -3.2924709e+00
 -3.7888834e-01
 -4.9065519e-02
  6.6950262e-01
 -9.5831114e-01
 -1.0438947e-01
  1.9643950e-01
 -1.7717065e-01
  6.1369807e-01
 -9.0092458e-03
 -7.5838335e-02
  4.5714684e+00
 -1.9362494e+00
  1.8096375e-01
 -1.1057564e-01
  4.7760792e+00
 -8.9988726e-01
 -6.3335545e-02
  4.4233936e-01
 -4.6680417e+00
 -3.8901042e-02
  5.6146374e+00
 -1.4138356e+00
 -6.9150957e-03
 -4.1224423e-01
  4.1394362e+00
  6.4385962e-01
  9.9593312e-01
  2.5955575e+00
 -1.7632762e+00
  6.4845353e-02
  3.1635553e-01
  4.5867294e-02
  4.0878320e+00
 -1.0516624e-01
  2.1506803e-01
  1.8395838e+00
  4.3686468e-02
  3.7613325e-04
 -1.1469254e+00
 -5.6410539e-03
 -1.1984726e-01
  1.7916244e-01
  1.6533535e-02
  4.1378666e-02
 -2.6507929e-02
  3.8252227e-02
  9.8863609e-02
 -2.8747585e-02
 -1.3644496e-02
  9.3950694e-03
  1.5195838e-01
 -5.4166265e-02
  1.0663557e-01
 -1.3024826e-01
  4.1104928e-02
  2.5737345e-02
  7.9731248e-02
  1.5574794e-03
  9.8667629e-02
 -1.4282508e-01
  9.3109019e-02
 -3.9295509e-02
 -6.9903687e-02
  6.5120816e+00
  5.8723893e-03
 -2.3024333e-01
  2.6602139e+00
  3.1391907e-02
  1.4251601e-02
 -4.1487847e-02
 -1.1464346e-01
  2.3106283e-03
 -2.7700317e+00
 -6.1472058e-02
 -4.0468603e-04
 -6.0653504e-02
  3.5341565e-02
  4.9076237e-02
  5.7932004e-02
 -4.8772469e-02
  1.6553914e-02
 -7.3349610e-02
 -3.3232752e-02
  2.7799651e-02
 -7.1151502e-02
 -1.8274474e-01
 -5.2815683e-02
  7.8229867e-02
 -2.7736638e+00
  5.5851960e+00
  1.5619832e-01
 -7.2098859e-02
  3.4035845e+00
  1.8703003e+00
 -1.2287662e+00
 -1.1355220e+00
 -6.3440978e-04
 -1.4640373e+00
 -6.9164872e-01
 -5.1105875e-01
  2.5411110e+00
 -1.2271148e-01
 -2.2450898e+00
  3.7073466e-01
 -1.2985744e-03
  1.5661002e+00
  2.8225109e-01
 -1.3834760e+00
 -9.4963002e-01
 -7.6043290e-01
  4.4449112e-01
 -4.3114243e+00
 -1.5674168e+00
 -4.3471682e-01
  4.2483088e-01
  1.9078590e-01
 -2.9191634e-02
  1.5748630e-01
  2.2857237e-01
 -1.5654814e-01
  3.5509298e+00
 -4.5269999e-01
 -1.9794649e+00
  3.5614641e+00
  5.1371637e-03
 -3.2917300e-01
 -7.3932070e-01
 -1.6522767e-01
 -1.1489666e-01
  3.1095857e-02
  6.3101864e-01
  1.3628432e-01
 -6.1830211e-02
  4.1973835e-01
 -2.4221653e-01
  3.0816710e-01
 -3.0987397e-01
  7.0173591e-02
 -2.7273750e-04
 -1.0862019e-01
 -9.6538831e-03
 -3.0742237e-02
 -7.7339443e-03
 -1.6876929e-01
  2.8560499e-02
  7.1487314e-01
 -2.8910527e-01
  7.2094491e-03
  3.7063304e-02
  2.2491802e-01
  3.0586148e-02
  2.2484381e-01
 -7.1639270e-02
  5.5736683e-02
  1.6352905e-01
 -7.9078088e-03
 -2.3861697e-01
 -1.5610518e-01
 -1.7230159e-02
 -1.6908194e-01
  8.6123809e-02
  2.8036034e-02
 -4.1625953e+00
 -5.2743383e-02
 -9.3612418e-02
  1.6250576e-01
  3.5550293e-02
  5.6946322e-02
 -1.6606902e-01
  1.7704468e-02
 -1.1078898e-01
  1.7922772e-01
 -6.4677373e-03
 -1.6868280e-01
 -9.0564495e-01
 -7.6243885e-02
  9.9081430e-04
  2.2236245e-02
 -2.7519280e-02
  2.5717306e+00
  6.9008730e-02
  1.2338846e-01
  4.0135596e-02
  2.6344067e-01
  7.2898082e-02
  9.4213240e-02
 -5.9431769e-02
 -2.7531713e-02
  1.3853273e-02
 -4.0126320e-02
  2.3838334e-01
  2.1280378e-02
  1.8611186e+00
  1.6849291e-01
  4.4248797e-02
 -1.1050396e-01
 -4.7184677e+00
  1.1398590e-02
  1.6087459e+00
 -6.8332598e-02
 -1.3931568e-02
 -2.7198303e-02
 -3.1934267e-01
 -3.3810467e-01
  1.8529413e-02
 -1.2534417e-01
  7.4862950e-02
  1.9298684e-02
  4.3910787e-02
  2.3310571e+00
 -9.0770930e-02
  2.5644878e-02
  1.6638296e+00
  7.5758897e-02
 -1.0119741e-01
  1.8527901e-01
 -2.8855753e+00
 -1.3939375e-01
 -1.7260784e-02
  8.2973897e-02
 -1.5244754e-04
 -1.5548170e-01
 -5.9859361e-02
 -7.6755453e-03
 -1.5345491e-01
 -1.2867323e-01
 -7.8842831e-01
  2.6303418e-02
  4.8824924e-01
  1.0690637e-02
  2.7712086e-02
  4.3595310e-02
  3.8691697e-01
 -1.0644786e-01
 -3.3022645e-01
 -6.0243402e-02
 -6.8091132e-02
 -1.5548505e+00
  3.0883608e+00
 -1.2932228e-01
 -3.7381623e-02
 -3.0521901e-02
 -1.1296222e-01
  1.9667538e-02
 -1.2798113e+00
  1.0169214e-01
  3.9066389e-02
  3.3546094e-02
 -2.4980946e+00
 -3.5027191e-02
  2.3128417e-01
  8.6430743e-02
  5.3117973e-01
 -1.9726984e-03
 -1.5918292e-02
 -8.5916147e-02
 -9.3640149e-02
  1.5478146e-02
  2.5638907e+00
  3.6601443e-02
 -6.6541851e-02
 -1.4403941e-01
 -6.6192731e-02
 -9.9489458e-02
  5.4903816e-02
 -6.5484357e-01
  6.9421276e-02
 -2.3428670e-03
 -2.7209732e-01
 -1.8754848e+00
 -1.1237205e-02
  5.1944929e-01
  1.2193516e-01
  5.9129681e-02
  1.3936155e-02
 -7.4707031e-01
 -1.0806026e-02
 -4.1512653e-02
  1.5953948e-01
  4.8902269e-02
  4.4944879e-01
  1.4046499e-01
 -7.8160437e-03
 -2.4075115e+00
 -7.5789705e-02
  7.1762420e-02
 -5.3440779e-02
 -1.5081135e-02
  9.6532054e-02
  3.6993898e-02
 -2.1432881e-01
 -3.7734687e-02
  1.3846175e-01
 -1.8314898e-02
 -1.2649374e-01
 -1.1874415e-01
  6.9116932e-01
 -2.6551418e+00
  1.9937275e-01
 -2.8275983e+00
 -6.1626124e+00
 -1.2600426e-01
  1.6333753e-01
  2.5633402e+00
  1.0484515e+00
 -2.6475351e-02
  9.2878628e-01
  4.3290511e-02
 -2.1983902e+00
 -3.7451417e+00
  2.1949012e+00
 -4.5263395e+00
  3.1966522e-01
 -2.5826976e-01
 -7.2812562e+00
  7.2395545e-01
  1.7980957e-01
  2.1819377e+00
 -1.0666403e+00
  1.0245628e+00
 -5.4149848e-01
  2.5138395e-02
 -2.8529963e-01
 -1.7987978e-01
  2.9262033e-01
 -7.1210498e-01
 -1.9948483e+00
 -7.0123082e-01
 -5.0463575e-01
 -2.7188382e-01
  1.7942168e+00
 -2.9749055e+00
  1.3093705e+00
 -1.6572703e-01
  7.3588693e-01
  3.7858821e-02
  2.6234028e-01
 -1.7340741e-01
 -1.1889669e+00
 -3.9642284e+00
 -1.3231745e-01
 -9.7382650e-02
  5.3615585e-02
 -2.3699355e+00
 -1.3413939e-01
 -3.4645313e-01
  6.3066798e-01
 -1.8040228e+00
 -1.0321134e+00
 -7.8067762e-01
 -1.0504129e-01
 -1.9725516e+00
 -3.2947779e-01
 -1.1555479e-01
 -4.0216860e-01
  1.9104917e-01
 -1.0882168e+00
 -4.5961401e-01
 -2.9751723e+00
  1.7312279e+00
 -3.5998290e+00
 -3.0595980e+00
  2.7985930e+00
  2.4456284e+00
  1.6725971e+00
  4.0221468e-01
  9.8683825e-03
  3.0446177e+00
  8.5817403e-01
 -2.3417199e+00
  8.0818284e-01
  6.2895799e-01
 -6.6999120e-01
  6.6578221e-01
  1.5009410e+00
  4.5505479e-01
 -2.3007708e+00
  4.9799553e-01
 -1.2371285e+00
 -1.7787510e+00
  1.6413175e+00
  4.7619936e-01
  8.8033207e-02
 -3.4468937e-01
 -2.5361266e+00
 -3.2715578e+00
  2.7654442e-01
  1.2844558e-01
 -8.0377741e+00
  1.7448514e+00
 -4.9841857e+00
  5.4661345e-01
 -1.1035662e-01
 -8.7415256e-02
  1.0743130e-01
  1.0711803e+00
 -1.7675476e-01
  6.7811072e-02
 -1.5820313e-02
 -2.1942542e+00
  6.3786058e+00
  1.5129322e+00
  2.9605148e+00
 -3.1420621e-01
  3.3195488e+00
 -4.7855020e-02
 -2.9122355e+00
  2.4003545e-02
  2.2130513e+00
 -3.1261031e-02
  9.5242776e-02
 -9.2830849e-01
  6.9721431e-01
  2.3107681e+00
  2.4162409e+00
 -5.5276966e-01
 -1.6624191e+00
 -1.1224464e+00
  2.8002200e-01
  4.7599950e+00
  5.7665086e+00
 -1.9011285e-02
 -3.0762448e+00
  2.7655246e-02
  5.1533431e-01
  4.4954472e+00
  2.7969115e+00
  3.2868378e+00
 -6.5468526e-01
  1.2750446e-03
 -7.0092596e-02
  1.4441836e+00
 -1.6917949e+00
 -2.1820867e-01
 -9.3769288e-01
  2.6904919e+00
 -3.4846661e+00
  1.5581037e+00
  3.7972732e+00
  1.0224931e+00
 -3.2342215e+00
 -3.0859790e+00
 -1.4858406e+00
 -4.2563305e+00
 -1.4996025e-01
 -7.7062272e-02
 -3.7782919e+00
  1.1953754e-02
 -1.6902303e+00
  3.4303528e-01
 -1.5835981e-01
  2.2933304e+00
 -4.3753095e-02
 -9.9846609e-02
  2.0307139e-02
  8.0146950e-01
  8.2839596e-01
  5.8994013e-01
 -2.2181082e-01
  3.8572657e+00
 -7.5925812e-02
 -1.4887333e-01
 -3.0676093e+00
  1.5787455e-01
  3.2362826e-02
 -3.9984229e-01
 -1.0262603e+00
  2.5584549e-03
  3.6543052e+00
 -3.5760229e+00
  4.3855533e-02
  2.0603116e+00
 -2.4991295e+00
  1.4083518e+00
  1.4189638e+00
  3.2821891e-01
 -3.7793558e+00
  1.8467729e+00
 -1.9505333e+00
 -4.6700556e-02
 -2.7977476e+00
 -5.6169581e-02
 -2.2888346e-01
 -2.9797056e-01
  1.9711541e-01
  1.2712666e+00
  6.1136752e-01
  1.1627331e+00
  2.7510884e-01
 -8.8720191e-01
  2.7151335e-02
  2.1344624e-01
  2.9534817e+00
 -4.2766814e+00
  3.0246885e+00
  9.7503662e-02
 -4.8190948e-02
  1.4298130e+00
  1.1400530e-01
  2.7229015e-02
  2.6100678e+00
 -3.6274806e-02
  3.8183384e-02
 -1.9563775e-01
 -6.3039094e-02
  3.3926163e-02
 -5.0180101e-01
  4.2792805e-02
  1.3584669e-01
  7.5076687e-01
  4.7822922e-01
 -1.4849733e+00
  5.2534854e-01
  5.4714582e-03
 -6.7894176e-02
  4.8245842e-05
 -1.9113928e-01
 -4.7082324e+00
 -4.1011703e-01
  5.4693896e-02
  5.5941689e-01
  1.0513115e-01
  5.1619887e-02
  7.3723897e-02
  9.0871572e-01
 -2.5776497e-03
  9.7745962e-02
 -1.1606433e-03
  4.8240617e-02
 -2.1532495e+00
 -1.3935748e-01
  1.6612507e-01
 -2.4492728e-02
  1.6829035e-01
 -2.1203978e-02
  2.4672659e-01
  4.2562939e-02
 -6.8939045e-02
 -3.3378375e-01
  1.7336681e-01
 -1.9505784e-01
 -5.9810631e-02
 -3.4233918e+00
  4.3254085e-03
  2.4195122e-02
  1.3532049e-02
 -3.5402253e-03
 -1.6851667e-02
  2.5908196e-01
  8.3034433e-02
  2.5773916e-02
 -4.8294480e-04
 -2.7899396e-01
 -1.2702870e-01
  1.0897091e-02
  2.6866542e-02
 -5.0860070e-02
 -2.8405833e-01
  4.3306299e-02
 -1.7351886e-02
  1.5270624e-02
  3.3548030e-01
 -1.7984321e-02
 -4.5180502e-03
 -8.1219524e-02
 -1.3367139e-01
 -1.9637754e+00
  8.9700736e-02
 -5.3370308e-02
  2.4020059e-02
  1.1415470e-01
 -6.1817765e-01
  2.9043475e-01
  1.2808436e+00
 -3.3010408e-02
  2.4433044e-01
 -1.3138193e+00
 -1.6115708e-02
  8.7671608e-02
  1.0072535e-02
 -6.5343291e-04
  1.1176958e-01
  8.7880775e-02
  1.1136965e-03
  1.0669621e-02
  2.6021835e-01
  3.0195147e-02
  5.1135365e-02
  7.7383161e-02
 -9.0989973e-03
 -1.1965232e-01
 -1.1169999e-01
 -3.2673383e-01
  4.1603815e-02
 -8.4210577e-04
 -8.0549054e-02
  8.0143057e-02
  8.4757358e-03
 -4.3695323e-02
 -5.2586570e-04
 -3.6638279e+00
  3.1111723e-01
 -4.5677863e-02
  8.8428944e-02
  1.0361002e-01
 -4.1662402e-02
  2.0754199e-01
 -5.5911046e-02
  1.0554377e+00
 -1.0502283e-01
 -1.3805863e-02
 -1.8681271e-01
  1.5070500e-02
  2.6536310e-01
  4.8648748e+00
  2.3987836e-01
 -4.7627356e-02
 -6.9857046e-02
  4.0405443e-01
 -4.5488335e-02
 -2.7641010e+00
 -3.8861200e-01
 -2.5761259e+00
 -5.6733068e-02
 -2.9667622e-01
 -3.0368304e-02
 -5.9065742e+00
  5.3915489e-02
  7.0475936e-02
  8.9090198e-02
  1.4248789e-02
  8.3320439e-02
  8.1135355e-02
 -1.4110835e-01
 -1.3566266e-01
 -1.1888096e-02
  4.1057762e-02
  5.9510738e-02
  1.3680461e-01
  1.4859349e+00
  1.0824657e-01
 -1.9913545e-01
  2.7492745e-02
  5.9629709e-02
 -7.9917215e-02
 -5.3759426e-02
  2.3331452e-02
 -4.8011791e-02
  3.7396077e-02
  8.1454553e-02
  1.8401890e-01
 -1.1763288e-01
 -5.6718625e-03
 -5.8175717e-02
 -1.5280719e-01
  1.3275860e-01
  2.3102206e-01
  2.4733959e-01
  1.8396487e+00
 -1.5923733e-01
 -6.4398386e-02
 -1.1453977e+00
  9.5542848e-02
  5.2193832e-02
  1.5402612e-02
  9.5495343e-01
  7.3837005e-02
 -3.6156099e+00
  3.4525678e-01
  2.9731172e-01
  1.2099510e-01
  1.0196209e-01
  1.2098527e-01
  3.1768948e-01
 -4.6808541e-02
  1.2355900e-02
  3.9937407e-02
 -3.9914597e-02
 -5.3598624e-01
 -2.3233859e-01
 -1.5378751e-01
  2.0981258e-02
  4.9648544e-01
 -3.9333060e-02
  7.0385680e-02
 -7.5425243e-01
  5.5927552e-02
 -2.7727884e-01
  1.9274299e-01
 -2.0195385e-02
 -1.1321197e-01
 -5.2293912e-02
 -1.5123701e-01
 -6.0850885e-02
 -1.9971617e-02
 -8.0024831e-02
  2.3575728e-03
 -9.7800763e-03
  4.9622640e-02
 -5.2977669e-01
  2.9040581e-01
  3.0288437e-01
  5.1340038e-01
 -3.7547274e+00
  1.8030101e+00
  4.7716412e-01
  4.9888153e+00
 -9.1243023e-01
  7.2917652e-01
  9.9102908e-01
 -1.6997282e-01
 -4.8572259e+00
 -2.7835820e+00
 -1.2796062e-01
 -1.1616122e+00
  7.5075150e-01
  3.6708596e+00
  2.4619629e+00
 -2.3810294e+00
 -4.8082697e-01
 -5.4432112e-01
  1.5757000e+00
 -3.2733560e-02
 -5.2487593e+00
 -2.6991348e+00
 -3.4672695e-01
 -3.0639915e+00
 -1.4108555e+00
  2.0769916e+00
  2.4092664e-01
 -8.6393499e-01
  7.0779696e-02
  5.0564876e+00
 -1.2615165e-01
  1.4519098e+00
  5.5837693e+00
  3.2355516e+00
 -3.1914597e+00
  2.3312497e+00
 -8.4839118e-01
  1.3247447e+00
  1.1316609e+00
 -4.8010731e+00
  1.2024195e-01
 -8.1925160e-01
  4.0393624e+00
 -7.6522726e-01
  1.9999404e-02
 -1.9995971e-02
  3.9409885e-01
  3.9744567e-02
  3.1690270e-01
  8.5207976e-02
 -5.6267554e-01
  5.0417459e-01
 -4.6964571e-02
 -2.1500121e-01
  1.2086152e-01
  2.7217720e-02
 -6.7562610e-01
 -2.0547152e-02
 -4.3718514e-01
  1.0392899e-02
 -1.4644997e-01
 -1.2845765e+00
  2.5958213e-01
 -3.2420299e+00
  8.1063554e-02
 -2.3359513e+00
 -2.1017352e-01
 -1.9142051e+00
  1.1850998e-01
  2.7053492e+00
 -2.2501025e+00
 -4.2339586e-02
 -1.7320780e+00
 -1.0783894e+00
 -2.5973393e-02
  2.0890962e-02
  3.5302493e-01
  5.2687544e-02
  4.1076866e-01
  4.7828785e-01
  2.7989206e-01
  9.8773140e-01
 -3.5645592e-01
 -6.0028070e-01
 -2.7454374e-02
  4.8013785e-01
  1.4998193e+00
 -2.2454455e+00
  3.1188073e-02
 -1.4356132e-01
 -4.6811845e-02
  1.4580886e-02
  1.4066732e-02
  8.3240457e-02
  1.0370154e-01
 -3.5152819e+00
 -9.8437357e-01
  2.7232609e+00
  1.4909977e+00
  1.2852377e-01
 -5.3522551e-01
  7.9533592e-02
 -1.9767733e-01
 -9.4531901e-02
 -1.9517057e-03
  4.5679271e-01
 -1.3257028e-01
 -1.5893997e+00
 -1.1845698e-02
 -1.5857393e-02
 -3.6531971e+00
  6.3655689e-02
  1.2325316e-01
  6.9243766e-02
 -7.4526598e-03
  1.1625558e+00
 -1.0760880e-01
 -5.7393420e-01
  3.1032242e-02
  4.8365742e-03
 -6.9633617e+00
  1.7084685e-01
  1.5950590e-02
 -1.4541683e-01
  8.6933233e-02
  4.9640734e-02
  1.6581997e-02
 -1.5095307e-01
  5.1421043e-02
 -7.8209549e-02
 -8.5357063e-02
 -1.1096102e+00
 -1.6364041e-01
  6.0004693e-02
  8.1887702e-03
 -3.4331495e-01
 -1.5192612e-01
 -1.4256806e-02
 -1.6032013e-01
  3.4669843e-02
 -3.2810739e-01
 -1.5210485e-01
 -5.1684499e-01
 -5.4159865e-02
  1.2567911e-01
 -8.5827462e-02
 -6.3793391e-02
  3.3807207e-02
  5.6764126e-02
  5.4199648e-01
  4.0765265e-03
 -1.3318438e-02
  6.9719483e-04
 -6.5253987e-03
 -7.1265325e-03
  1.0219963e-01
  2.1162376e-01
  3.2114019e+00
  1.4848220e-01
 -4.6372259e-01
  5.3119278e-01
 -2.7558520e-01
  1.7084856e-02
 -1.4122684e-02
 -2.4914820e-02
  2.7705643e-02
  2.0524077e-01
 -5.2157514e-02
 -2.4060203e-02
 -9.9496973e-01
  5.7777338e-02
 -4.9817845e-02
  3.3751648e-02
  5.6855615e-02
 -7.6143958e-02
 -5.2241409e-01
 -6.0160641e-02
  3.0031957e-02
 -7.2720098e-01
 -1.7628682e-01
  1.9103635e-02
 -3.2685656e-02
  1.5878254e-01
  6.5411955e-02
 -1.5721865e-01
 -2.1388493e-01
 -1.5366310e-01
  2.9643373e+00
  1.8795954e-02
  2.8955752e-01
 -2.1003245e-01
  6.4962678e-02
 -7.9958923e-03
 -1.0069600e-01
 -4.2707212e-02
 -6.7906946e-02
  1.7128138e-02
 -9.0323959e-04
  5.0764900e-02
  9.3159173e-03
  2.7498117e-02
 -1.1967690e-01
  9.4122060e-02
  1.8240996e-01
 -5.7383459e-02
  5.4366941e+00
  6.1209834e-01
  1.4388959e+00
  1.5769655e+00
  9.4406974e-01
 -4.5865619e-01
 -1.0732150e+00
  4.8582238e-01
 -1.4256207e+00
  8.4711707e-01
 -5.7478666e-01
 -1.0545210e+01
 -2.0324123e+00
  4.0589392e-01
 -4.8123932e+00
 -1.0823501e+00
 -1.0111866e+00
  1.1983643e-01
  2.9907754e-01
 -2.5938499e+00
  1.6743453e-02
 -1.3519449e+00
  2.0430715e+00
 -7.8753191e-01
  9.1271780e-02
 -7.4911690e-01
 -9.1659963e-01
  2.6028979e-01
 -1.7658572e+00
  9.1094613e-01
  1.9623239e+00
 -2.1307774e+00
  2.1502640e+00
 -7.9286671e-01
 -1.2114677e+00
  5.2348560e-01
 -2.3587488e-01
  2.4156497e+00
 -2.1332512e+00
 -1.1131538e+01
 -4.2934638e-01
  1.2556117e+00
 -6.1728067e+00
 -1.0411376e+00
  1.3764180e+00
 -1.6534573e-01
  1.9267842e-01
 -6.6722023e-01
  2.9027038e+00
  8.4581859e-02
  3.6059268e-02
 -6.2726744e-02
 -1.9865248e+00
  1.8084688e+00
 -5.7081449e-01
 -1.3313602e+00
  1.1191001e-02
  2.7344748e-01
 -4.5287946e-01
  2.1350954e+00
 -6.5672770e-02
 -1.5779127e+00
 -1.3986077e-02
  1.1944484e-01
  1.8584927e+00
 -2.8482276e-01
 -2.1074137e-01
 -5.3753918e-01
  8.2081240e-01
 -7.1584560e-02
 -2.7635843e-01
 -8.1283584e-02
 -5.9219629e-01
  2.2128517e-02
  2.4815162e-01
 -1.6333710e-01
  1.2901244e-02
  3.6341913e-02
  5.9591961e-01
 -5.8386743e-01
  1.2768330e-01
 -1.6796248e+00
  5.7646769e-01
 -2.9359886e-01
 -8.2227731e-01
 -7.5163603e-01
 -1.5575778e-02
 -2.2811659e-01
  3.8384978e-02
  4.2765789e-02
 -1.6646594e-01
  2.7723081e+00
  1.0666982e-01
 -2.4122033e-02
  1.0454094e-01
  1.0633935e-02
 -7.6256692e-02
 -4.0248786e-03
 -1.1768069e-01
 -3.9115816e-02
 -6.1608154e-02
 -4.8054636e-02
 -2.6272973e-01
 -5.6843221e-01
 -1.0002490e+00
  2.0455769e-01
  9.4588923e-01
 -2.8138965e-01
 -3.3146352e-01
 -5.3669901e+00
 -2.2630725e+00
 -3.9487405e+00
 -7.6503497e-01
  9.8136358e+00
  2.2663774e+00
 -2.3024854e-01
  1.3965560e+00
  4.9344497e+00
 -1.7506937e+00
 -1.1921226e+00
  5.6007543e+00
  5.8677335e+00
  3.3531678e-01
 -3.1435588e-01
  3.7104084e+00
 -2.0524409e+00
 -2.6072782e-01
 -1.4623991e+00
  1.4647125e+00
  1.6814655e+00
  1.2289194e+00
 -2.1536021e+00
 -1.4540873e-01
  1.7553654e+00
  7.8766716e-01
 -1.1727695e+00
 -6.0391980e-01
  9.6396381e-01
 -1.5432762e+00
  9.0914977e-01
 -4.3349447e+00
  2.8514693e+00
  6.0315652e+00
  2.6774063e+00
 -2.8101020e+00
  1.0618391e+00
 -1.9563665e+00
 -7.2182620e-01
 -2.7633567e+00
 -1.0338932e-01
 -8.6213818e+00
 -5.1465552e-02
 -2.9148024e-01
 -2.7478175e+00
 -6.0785884e-01
  3.1983116e-01
  1.5807636e-01
 -6.6281271e-01
  3.8663036e-01
  1.2241223e-01
  2.3902450e-02
  2.5948408e+00
  1.4047972e-02
 -5.1856542e-01
  6.1572437e+00
 -7.9293825e-02
 -1.7650808e-01
  7.5080645e-01
 -2.0281330e-01
  6.2228112e+00
  2.9734108e+00
  4.3386469e+00
  9.8946744e-01
 -8.8008661e+00
 -4.1288581e-01
  3.6096582e-01
 -7.1820407e+00
  1.6194588e+00
  2.1481004e+00
 -2.5584133e+00
 -5.9482694e+00
 -3.6878221e+00
 -4.1642685e+00
  8.6141089e-03
 -7.4016169e-02
  4.8512203e-01
 -5.9847349e-01
  1.8868785e+00
 -7.9761493e-01
 -4.0827088e-02
  1.9531499e-01
  8.9254594e-01
  1.8208063e-01
 -5.7166618e-01
  3.6910260e+00
 -4.5479405e-01
 -7.0262438e-01
  1.3678796e+00
 -5.4193534e-02
 -9.9389744e-01
 -6.2142253e-02
  7.9822771e-02
  9.8279245e-02
 -9.4025336e-02
  6.4588495e-02
 -2.2318738e+00
 -3.1301360e+00
 -6.7176971e+00
 -1.1692991e+00
  9.4157957e-02
 -3.5983982e+00
  1.9927820e+00
  7.4322047e+00
  6.9290185e-01
  2.1483173e+00
  1.1410004e+00
  4.2392716e-01
  2.8632195e+00
 -1.6035392e+00
 -3.5561473e+00
 -2.9861145e+00
  6.9078124e-01
 -2.5171678e+00
  2.2210503e+00
  1.4904578e-01
  4.2590270e+00
 -2.6426401e+00
  1.7915738e+00
 -3.9079547e-02
 -3.6206479e+00
 -3.9985795e+00
 -5.0201875e-01
 -3.2902403e+00
 -8.5002142e-01
  1.0179049e+00
 -3.7571840e+00
  1.0907891e-01
  4.3701158e+00
  7.1934623e-01
  1.2097047e-01
  1.4869054e-01
  3.9779082e-02
  6.7565269e+00
  4.6326259e-01
 -6.7039050e-02
 -1.8818604e+00
 -6.5566688e+00
  2.7512366e-02
  1.7312532e-02
 -7.5974748e-02
  1.5451346e-01
 -4.2432502e-02
  9.1073960e-01
 -1.9517864e-01
  2.2651225e-03
 -3.1713884e+00
  2.8663738e+00
 -1.6711164e+00
 -8.6940247e-01
  4.2809734e+00
 -3.2019329e+00
 -3.3666328e-01
  1.5122176e+00
  5.2263993e-01
 -1.1904812e+00
  2.5483065e+00
  1.8968657e+00
 -9.9679863e-01
 -7.0722699e+00
 -3.0166323e+00
  2.9444473e+00
  1.3341513e+00
 -2.3103881e+00
  7.7699512e-02
  6.4896065e-01
 -1.6344640e+00
 -1.6204799e+00
  7.3915200e+00
 -3.9046242e+00
 -5.4445100e-01
 -3.7099805e-01
  6.7083335e-01
  2.9073780e+00
 -1.7108765e+00
  8.4009960e-02
  2.0873499e+00
 -6.3104874e-01
  9.1005725e-01
  1.4740679e-01
 -6.2225962e-01
 -1.1302402e-01
  1.9419135e+00
 -3.7120960e+00
  1.0862985e+01
  2.2006816e-01
 -3.3841565e-01
 -2.8008988e+00
 -1.7737218e+00
 -6.8038046e-01
 -2.7875307e-01
 -7.1924448e+00
 -7.6582789e-02
 -1.1163052e-01
 -3.1643912e-01
  2.5911208e-03
 -4.0961877e-03
 -1.1993918e-02
 -9.6636914e-02
 -6.0509082e-02
  1.0256603e-01
  1.2910623e-02
  5.9785806e-02
 -2.2522774e-01
  2.9849273e-01
  2.2213751e-02
  2.0835142e+00
  3.8346502e-01
 -1.5887263e+00
 -2.9413763e-02
  9.8666400e-03
  1.2827589e-01
 -9.7011313e-02
  2.8320140e-01
 -1.0891247e-01
 -1.9989312e-02
 -1.0248071e-01
 -6.2166966e-02
 -5.7552420e-02
  5.8404639e-02
 -5.2340310e-03
  2.3677996e-03
  8.4921874e-02
  1.5648317e-01
 -1.8851394e-02
 -2.0389808e-02
  4.3176298e+00
  2.0010716e-01
  5.0489798e-02
  4.7705036e-02
  8.1430383e-02
 -1.8572228e-01
  4.8809566e-02
 -1.4819680e-01
  6.1148036e-02
 -6.8650895e-01
 -2.7187113e-02
 -7.6043946e-03
 -3.4571107e-02
 -3.5776097e-01
 -2.1554801e-01
 -1.2145267e-01
  1.6289402e+00
  4.3106470e-02
  1.2105092e-01
  2.0481233e-01
 -6.2836893e-02
 -1.9896641e-01
 -7.8298664e-01
  9.4931656e-01
  9.1982955e-01
  9.4738609e-01
 -2.4350426e+00
  2.6441820e+00
 -4.9993205e-01
 -2.3162827e-01
 -1.2082211e-01
 -6.7872655e-01
 -1.7385174e+00
 -4.4828820e+00
  6.3935593e-02
  1.3598819e+00
  1.3988463e+00
  9.7215778e-01
  1.2781202e+00
 -1.3170135e+00
  2.7525514e-01
 -1.7474135e+00
  3.0407474e+00
  2.5583627e+00
 -3.7326688e-01
 -3.3206513e+00
 -8.7196213e-01
 -2.3567972e+00
  1.8505280e+00
  2.5477347e+00
  7.6324499e-01
  1.5033139e+00
  1.3131425e+00
  6.2475246e-01
  3.0092883e+00
  2.1527662e+00
 -1.6062769e+00
 -1.2706746e-01
  1.4459823e+00
  3.9024162e-01
 -1.0649351e+00
 -2.0537348e-02
 -1.5551066e-01
 -9.1979384e-02
 -5.9338868e-01
 -5.4249936e-01
 -2.3167918e+00
  5.8248458e+00
  1.7958869e-01
  1.9914465e-01
  2.3158238e+00
  4.5967899e-02
  1.1188260e+00
  2.5116932e-03
 -1.2091116e+00
  4.6259296e-01
 -4.1253525e-01
  2.1765201e+00
 -1.0573796e+00
 -1.4484377e+00
 -5.7680374e-01
  9.6194339e-01
 -4.7648473e+00
  1.7236993e+00
 -8.3711094e-01
  2.2588649e+00
 -1.2179319e+00
  9.2131861e-02
 -9.4555758e-02
  3.4385273e-01
  3.5528376e+00
 -1.0001667e+00
  2.0113466e+00
 -6.8570242e+00
  2.3204849e+00
 -7.2943749e+00
 -4.7693348e+00
  1.9762254e+00
  2.8378305e+00
  3.0673075e+00
 -8.8223457e+00
  3.6649707e-01
  1.4442828e+00
  9.2092139e-01
  1.1583240e+00
 -8.1625891e-01
 -1.1660432e+00
 -3.3310895e+00
  1.8631672e+00
 -2.8659947e+00
 -8.8843759e-03
  2.6027381e+00
 -5.3657975e+00
 -5.8229047e-01
 -3.2516807e-01
 -1.3691689e-01
 -2.4405262e-01
 -2.1070077e+00
 -3.5709995e-01
  2.8599555e-02
 -2.0944968e-01
 -5.9266257e-01
 -1.3007928e-01
  1.3271322e-02
  3.8976839e+00
 -3.2477047e+00
  1.5301400e-01
  1.4474608e+00
  4.4899810e-02
  2.1702311e+00
 -7.8113717e-01
  7.1469918e-02
 -2.7500389e+00
  1.6198710e+00
 -5.3976564e+00
  5.3533757e-01
  3.5878415e+00
  3.6727550e+00
  7.6595082e+00
  6.1629009e-02
  2.7954729e+00
 -2.4212577e+00
 -5.8730149e+00
  4.4397974e+00
  5.0528198e-01
  1.0545875e+00
 -5.2931280e+00
  2.2845159e+00
  7.0215321e-01
  8.6951405e-01
  1.3064079e-01
 -2.4104832e-01
 -1.4922757e+00
 -1.7841265e-01
  2.1276116e+00
 -5.3222284e+00
  1.2079658e-01
 -1.6796159e+00
 -1.8587475e+00
 -3.0132754e+00
 -2.9777918e+00
  9.4825399e-01
  6.3778543e+00
 -4.1426916e+00
  3.9814812e-01
 -1.3904591e+00
 -1.8879826e+00
  5.6549299e-01
  4.1717444e-02
  1.0287608e+01
 -1.2859072e-01
  1.7572555e-01
 -4.3966069e+00
  1.4850165e-01
  2.3555579e+00
 -1.6811367e-02
 -1.1628205e-01
  1.4677911e-01
 -1.8869086e-01
  9.1768014e-01
 -3.0982807e-01
  6.8410173e-02
 -5.1644053e-03
  4.8636988e-01
 -7.0337839e-02
 -2.4087188e-01
  1.0659792e-01
 -9.4123401e-02
 -3.6375292e-02
  9.1122115e-01
 -1.2564090e-01
  4.4462779e-03
  6.0628202e-02
  1.4524484e-01
  8.6014643e-02
 -1.5308543e-01
 -1.9363698e-01
 -2.0791638e-01
  2.1896990e-01
  8.4046368e-03
  1.0281991e-01
 -7.9372048e-02
 -2.0879872e-02
  8.3408173e-04
 -3.2861111e-01
 -3.2834515e-02
 -6.4627230e-02
 -3.9452508e-02
 -2.2624557e-01
  1.4533645e-01
 -1.2093088e-02
 -1.2690063e-01
  3.1886894e-02
  1.7185204e-02
 -5.1684149e-02
  1.0492327e-01
 -1.2263875e-01
 -2.4947701e-02
  1.2874407e-01
 -5.5843711e-01
  1.2957481e-01
  9.5859043e-02
 -1.2788644e-01
  2.3519522e-02
  1.0323888e-02
 -1.7110957e-02
  6.1640966e-01
 -8.4545016e-02
  9.3862939e-01
  2.6709491e-01
  2.6067348e+00
  4.1528153e-01
 -1.7791985e-01
 -1.8001797e+00
 -4.0754657e+00
  1.6348277e+00
 -4.3835440e+00
 -6.8706317e+00
 -3.6490648e+00
  1.4308262e+00
 -2.2940130e+00
 -6.4418489e-01
  2.2378838e+00
 -1.5941803e+00
 -2.7844250e+00
  1.6798024e+00
  9.7003818e-02
 -1.4977198e+00
  1.7420392e+00
  8.9502144e-01
 -1.2932025e+00
 -9.8277885e-01
  2.1758416e+00
 -1.9281098e-01
 -7.1614288e-02
  2.4721591e+00
  2.5765893e-01
  7.8283322e-01
 -1.8361808e+00
  5.8126897e-01
 -5.9470773e-01
  1.1569973e-01
  1.1940347e+00
  2.2684427e-01
 -4.6361172e-01
  7.7879553e+00
 -4.2669392e+00
  6.3220024e-01
  5.9710091e-01
  1.3154894e+00
 -3.1408408e+00
 -3.6843278e+00
  3.3596926e+00
  2.7096243e+00
  6.1215444e+00
  1.0037457e+01
  4.8449264e+00
 -2.5543617e-02
 -1.4591432e-02
  6.9669592e-01
 -5.7115263e-01
  3.9895769e-02
  1.0718865e-01
 -1.2978020e+00
 -2.9070070e+00
  4.5651928e-01
  2.9295933e-02
  5.7689492e-02
  4.5967538e-02
 -2.2485390e+00
 -6.3190567e-03
  3.4823279e+00
  2.0953351e-01
  1.1107988e-01
 -9.9084638e-02
  8.8315248e-02
  1.2410201e+00
 -5.2998561e-02
 -1.4202090e-01
 -5.8547150e-02
  1.6375249e-02
 -1.6766893e+00
  7.3989706e+00
  4.5103305e-03
 -1.2024605e-01
 -4.9089152e-02
 -1.7589445e-01
 -1.6823189e-01
  9.3549669e-02
  4.6331346e-02
  9.6798980e-01
 -3.8421016e-02
 -3.1139731e+00
  2.3382995e-02
 -2.1698962e-01
  2.4166446e+00
 -5.8617443e-02
 -1.2748715e-02
 -2.5138465e-01
  1.4697328e-02
 -5.7407278e-03
  3.3296224e-02
  2.6282024e-01
 -2.4094729e-01
 -3.4635805e-02
 -4.8706356e-02
 -6.0350217e-02
 -1.7245916e-01
 -5.1180575e-02
  6.2341392e-02
  2.7495980e+00
  1.6860588e-02
  8.0670238e-02
 -8.0871612e-02
 -8.4005302e-01
 -2.1252660e-01
 -2.3168864e+00
 -2.1283779e+00
 -3.2192460e-01
  1.9993670e-02
  1.2635927e-01
  1.5769396e+00
  2.9527140e-01
 -3.7901182e+00
  1.3459362e+00
  1.6283781e-03
  1.0997500e+00
  5.1124200e-02
  1.7570931e+00
  2.9956460e+00
  4.7219407e-02
 -2.8104677e+00
 -2.7648702e+00
  1.8326561e-01
 -5.5799800e-01
 -8.7076622e-01
  2.1187136e+00
 -1.3990593e-01
  1.0790347e+00
  1.7589531e+00
  1.1555539e-01
 -1.2480948e+00
 -9.6541412e-02
  4.6025524e-01
  1.3061352e+00
 -3.4820145e-01
  2.4782774e+00
 -2.3174167e-02
  4.2823906e+00
 -1.4756583e-01
 -8.3766830e-01
 -3.4586373e-01
 -8.5490298e-01
  1.9360040e+00
 -1.3510922e-01
  4.2667824e-01
  5.1589761e+00
 -1.3949807e+00
 -7.6526604e-03
 -1.1216574e-02
 -4.0997286e+00
  8.4201790e-02
  4.7345552e+00
 -4.1130991e+00
 -2.6531425e-01
 -8.0872118e-01
 -1.7627612e-01
 -1.4969878e+00
 -9.7516954e-01
 -8.7197477e-01
 -3.0306119e-02
 -1.2356585e-02
  4.0358686e+00
  2.1641602e-01
  8.5962620e+00
 -5.8629289e-02
  1.0565073e-01
  1.0472973e-01
 -2.3823569e+00
 -1.9577748e+00
 -3.4103451e+00
 -1.2576613e+00
  1.7962599e+00
 -1.3630226e+00
 -3.8965166e+00
 -1.8555080e+00
 -2.3167245e+00
 -7.7007037e-01
 -9.4911218e-01
 -5.0786366e+00
  2.2001550e-01
  8.0115595e+00
  9.0432281e+00
 -8.2511824e-01
 -5.4024434e+00
 -4.5860128e+00
 -4.5561594e-01
  2.1950424e+00
  1.1630714e-01
 -1.2937327e-01
  8.0527365e-01
 -1.9665891e+00
 -2.0692780e+00
  2.0796517e-02
 -1.5035865e-01
  2.0475945e-02
 -9.1932965e-03
  1.1713465e-01
  9.6960030e-02
  2.8945965e-01
  2.5609227e-02
  1.8593798e+00
  3.1660344e-02
  3.6111698e-01
 -4.3807164e-02
  3.0141095e-02
 -1.9326245e+00
 -1.4348442e-02
 -3.4316741e-02
  3.1729344e-01
  3.0864779e-02
  3.2693699e-01
  1.0585098e-02
  3.1253155e-02
 -2.6433213e-02
 -6.0532637e-02
  1.6753938e-03
 -1.8965758e-02
  1.8914397e-01
 -2.5259142e+00
  1.4937256e-01
 -6.5761156e-02
  3.3652184e+00
  4.4976962e-01
 -1.0552971e+00
 -2.9380744e-02
  1.6442405e-01
  1.7159576e-02
  2.3083983e-02
  8.2072224e-03
  7.4101359e-01
  8.1347549e-01
  5.3302344e-02
 -5.6697518e-02
 -5.9610475e-02
 -3.9665620e-03
 -4.4650078e-02
 -3.7247740e-02
  2.2871345e-02
 -1.7277451e-01
 -1.5889394e-01
  3.0537648e-02
 -1.7395173e-01
  8.7125991e-03
 -4.6409626e-02
  6.5158620e-02
 -1.7460099e-01
  4.3287519e-02
 -7.0834183e-03
 -2.9720122e-02
  1.8469509e-02
  7.4654627e-01
 -3.9305177e-01
  4.2125406e+00
  2.2893472e-01
  3.6019072e-01
  1.5177134e+00
 -7.8368783e-01
  2.9408486e+00
 -2.1659696e+00
 -3.6133263e-02
  2.4844613e+00
  3.0694242e+00
 -9.8123178e-02
  1.0763241e+00
 -3.2363231e+00
 -4.3579236e-01
  1.3222763e-01
 -6.2508345e-01
 -6.5769881e-01
 -4.4914909e-02
  4.4530931e-01
  7.8464550e-01
 -1.9584725e+00
 -3.4327194e-01
  2.0672982e+00
 -2.2331054e+00
 -1.4717774e+00
 -3.3216333e+00
 -1.7018837e+00
 -5.9539104e+00
  3.1944039e+00
 -2.5502768e+00
 -5.0694913e-02
 -1.1174480e+00
 -5.4554582e+00
 -2.5932856e+00
 -2.0213042e-01
  7.7730477e-02
  1.7088708e+00
  2.3686354e+00
  1.8467157e-01
  4.9641371e-01
 -2.1969666e+00
 -3.4537077e+00
 -4.4232402e+00
 -4.9009711e-02
  6.4501010e-02
  8.0924451e-02
 -6.7562126e-03
 -2.3011770e+00
 -2.9643970e-03
  3.4142661e-01
  1.9284362e-01
 -3.9653620e-01
  1.2334114e-01
 -2.4843779e+00
  1.4692051e-02
 -1.8573622e+00
  5.7601166e+00
 -1.0434544e-01
 -8.0407400e+00
 -4.5358041e-01
  1.2331684e-02
 -2.3067693e-01
 -5.4098785e-01
 -5.5465456e-02
  1.0534340e+00
  3.7226634e+00
 -1.8132218e+00
 -1.6766267e-02
  2.3318861e-02
  2.3990717e+00
  2.4062328e+00
 -9.8553374e-02
  8.8314641e-01
  2.3217731e+00
  5.3439243e-03
 -3.7012360e+00
  8.4109795e-01
  1.8196404e+00
 -1.9050746e+00
 -2.9050164e+00
  3.0302122e-01
 -4.0437315e-02
 -4.9369974e+00
 -1.2718183e+00
  1.5839690e-01
 -3.6577371e-01
  1.1917437e-02
  1.9144324e+00
 -1.6963801e+00
  5.3812158e-01
  5.9395609e-03
 -4.4261110e-03
 -2.9023353e-02
 -4.5165068e-01
 -2.8837001e-02
  1.8994879e-02
  9.7366737e-04
 -6.4734870e-01
  1.0950863e-01
  4.4936322e-02
 -1.1872402e+00
  4.9049492e+00
  1.0595460e+00
 -6.3324327e+00
 -1.9671296e-01
 -5.2171301e-02
 -2.7803478e+00
  4.3796172e+00
 -3.0188503e+00
 -1.0494315e-01
 -2.2965424e-01
 -3.8005900e-01
 -4.9527878e-01
  1.3156931e+00
  3.7980037e+00
 -5.4135978e-01
 -3.6015739e+00
 -4.4793496e-01
  4.3022618e+00
  7.5119724e+00
  3.5817673e+00
 -9.2400703e+00
 -9.4916785e-01
  2.6488652e+00
 -3.7221937e+00
  1.1717014e+00
  1.7225301e-01
 -3.6929390e+00
 -1.3434069e+00
 -1.1131271e+00
 -1.3239098e+00
 -2.4031701e+00
 -4.0338035e+00
  8.7139778e-02
  4.5074692e-01
  7.6510763e-01
 -1.7289689e+00
  7.8009430e-04
 -1.8126740e+00
 -3.5393985e-03
 -6.6243595e-01
 -5.8227446e-02
  6.6458935e-01
 -3.1296423e-01
 -6.1193848e-01
 -7.0466197e-01
 -1.5160744e+00
  8.6755380e-02
 -1.7639241e+00
  9.6470147e-02
  2.9827544e-01
 -7.5682926e-01
 -2.2491851e-01
  1.3215934e+00
  4.6573468e-03
 -9.9164382e-02
 -1.5794139e-02
  4.8572330e+00
  1.0926049e+00
  1.5943786e+00
 -6.5624940e-01
 -6.4140649e+00
 -2.8984688e-02
 -3.1391885e+00
 -6.5369713e-01
 -1.4606593e-02
  6.5512039e-02
  1.1125441e+00
  8.9910784e+00
  1.8349589e-01
 -2.1217737e+00
 -1.0151393e-01
 -5.6407676e+00
  1.6446254e+00
 -2.2040293e-01
  6.1769090e+00
  6.8849377e-02
 -1.2530344e+00
 -5.1075983e+00
 -1.1411819e+00
 -1.7524859e+00
  3.0583818e+00
  5.7801008e-01
 -2.0787366e-01
 -2.6284121e-02
  1.1522914e-01
 -1.8176014e+00
 -6.9217930e+00
 -9.9647653e-01
  1.6008875e+00
 -1.1742983e-02
 -1.8949674e+00
  1.3713361e+00
  1.5406215e+00
  7.1558714e-01
  3.4743153e-02
  7.2047994e-02
 -3.6559436e-02
 -1.0182230e-02
  2.5785558e-02
  3.5812154e-02
  5.1532246e-02
 -3.3633763e-01
 -3.1045133e-01
  4.5602531e-03
  2.5401661e+00
 -1.0229154e+01
  6.6063695e-02
  4.6477887e-01
 -6.1573911e-01
 -8.8134035e-02
  1.8277202e-02
 -8.0231138e-02
  9.4275475e-02
 -6.0530758e+00
  6.6082247e-02
 -4.1629462e+00
  1.4615445e+00
 -3.3800576e-03
 -1.2848129e+00
  4.5015302e-01
 -4.5801287e+00
  9.2285864e-02
  7.5283998e-01
  6.1008644e-01
 -9.6040301e-02
  1.0557820e-02
 -4.4325169e-04
  2.1152472e+00
 -1.9904611e+00
  3.9367121e-01
  3.0358720e-01
  6.6344142e-01
  2.4168949e+00
 -1.3631961e+00
  1.4074810e-01
 -5.0096936e+00
  1.7733620e-02
  9.6146905e-01
 -1.3357006e+00
 -3.6206374e-01
  1.1657018e-01
 -1.7781411e-01
  3.4446433e-02
 -1.4412459e+00
 -1.0685682e-01
 -3.2549722e+00
  2.0717902e+00
 -2.5245380e-02
  1.8965898e+00
  3.0228739e+00
 -2.5220743e-01
  4.5572311e-02
  3.6699761e-02
 -1.8007761e-02
  1.5419534e-01
 -2.9693481e-01
  2.9503038e-02
  1.3885911e+00
  3.4896314e-01
 -5.3481769e-02
  3.0410174e-01
  2.2722827e-02
 -1.8730925e+00
  1.1709948e-01
  2.3508212e-01
  4.3266062e-02
 -1.1740493e-02
  8.4527452e-03
 -2.4641400e-02
 -3.2428198e-02
 -2.2522135e-01
  1.0242733e-01
 -4.3545327e-01
  2.4129181e-01
 -1.0478625e-01
  5.2360266e-02
 -1.6839167e-02
  3.7819821e-02
  3.2149801e-01
  4.0205292e-02
 -1.2111092e-01
  3.5683237e-02
 -2.3080688e-02
 -1.2842506e-01
 -3.3605080e-02
  1.0254370e-02
 -1.8973920e-01
 -5.4285638e-03
  1.7945039e-01
  9.2618182e-02
 -1.0872655e-01
  1.1514276e-03
 -1.8279454e-02
 -3.4570146e-02
 -1.5423373e+00
  2.6975363e-01
  7.8920228e-04
  2.4103992e-02
  8.3387390e-02
  2.2957595e-01
  5.3601477e-02
 -1.8491585e-02
 -2.1948280e+00
 -5.1575315e-01
  8.1927069e-02
 -3.2101169e-02
 -1.9859115e-02
 -1.1268233e-01
  1.0035071e-01
  1.5656234e-01
 -1.7446941e-01
  8.0399141e-02
  9.0104014e-02
  1.5503371e-01
  1.1667282e-02
 -3.6875680e-02
 -6.1681721e-02
  2.7012907e-02
  1.9761056e-01
  6.8921709e-01
  2.0367397e-02
  3.5843915e-01
 -1.3331303e-02
  6.5990947e-02
 -6.0662907e-02
  3.1101069e-01
  5.3480107e-01
  9.8715737e-02
 -1.4998907e-03
  1.3978430e-02
 -8.4539764e-02
 -1.2892929e+00
  9.6201636e-02
  8.7720230e-02
 -3.4596498e+00
  2.5761622e-01
  8.2274631e-02
  2.6800781e-01
  1.5818410e-01
 -5.2341521e-02
 -2.3259014e-02
  1.8417495e-01
  5.8062300e-02
  3.7755806e-02
  3.0116338e-02
  3.4124415e-02
  4.2423379e-02
 -7.9168320e-02
  2.1502104e-01
 -1.1406003e-01
  1.3005600e-02
  2.8664945e-04
 -8.6288124e-02
 -6.4076722e-02
  9.3126696e-01
 -2.2100766e+00
  2.7676943e-01
  5.7001835e-01
 -4.4108744e+00
  1.0790339e+00
 -1.6144869e-01
  2.5131240e-01
 -1.0579552e+01
  1.1496915e-02
 -1.2392813e+00
  3.1749873e+00
 -2.1631711e-03
  2.6558789e-03
 -8.7478948e-01
 -2.1648750e+00
  2.2203617e+00
  1.6981436e-01
  3.3273554e+00
 -1.5906076e+00
  1.2410442e+00
 -1.6070053e-02
 -3.8207407e+00
  3.0874524e-01
  5.0050888e+00
 -5.4925852e+00
  1.2798326e+00
 -3.8840036e+00
  2.0897775e+00
 -9.4218649e-02
 -4.3082743e+00
  3.8076243e+00
 -8.3848470e-01
  1.3087162e+00
  3.6312562e-01
 -2.4656375e-01
 -2.3714042e+00
  9.9015474e-02
 -1.5894091e+00
 -8.9758120e-02
  2.7370912e-03
 -1.7933020e-01
  1.3427571e+00
 -2.7955288e-02
  1.3099449e+00
  1.6787229e-01
 -3.1957593e+00
 -8.9004710e-03
  5.0652899e-02
 -2.0051311e-01
  9.9001271e-01
 -7.5114794e-02
  3.4077448e-01
  2.5317681e-01
  9.1144957e-02
 -8.1538610e-02
 -1.0337840e+00
 -1.6634014e+00
  8.7804422e-02
 -7.7250125e-03
  2.5310770e-01
  9.1281384e-01
 -2.2567743e-01
  8.1693310e-01
  3.2045763e-02
 -5.2867713e+00
  6.4980203e-01
 -7.1342897e-01
 -3.8184128e+00
 -7.3346332e-02
  3.7977312e+00
  4.7213650e+00
  2.2331469e+00
 -3.3386512e+00
 -5.5783963e-01
 -5.0661558e-01
 -6.8874770e-01
  5.4165018e-01
  1.0110050e+00
  1.0030788e+00
 -3.6932838e+00
  2.7360988e+00
  9.5078669e-02
  1.5037805e-02
 -2.2852681e+00
 -1.8125199e+00
 -2.2513702e+00
  2.2084098e+00
 -1.1216910e+00
  2.0785102e-01
 -1.2454771e+00
 -3.5673302e-02
 -1.9196585e-01
  2.3798928e-02
  2.5295943e-01
 -4.9823383e-03
  5.3368354e-01
 -1.8567422e-02
  8.9849651e-02
  3.6896184e-02
 -4.2827796e-02
  6.7706454e-01
 -7.1184248e-02
  2.7526520e-02
 -1.7806284e-02
 -1.5328579e-01
 -3.6542788e-02
  4.9250878e-02
  1.7106518e-01
 -1.2485428e-01
  5.6703645e-01
 -1.5348259e-02
 -1.3755310e+00
  6.6966996e-02
  8.6194538e-02
 -2.7084842e-02
  1.9876650e-01
 -8.3142594e-02
 -3.4611011e-01
 -8.0323312e-03
 -1.6984551e-01
  1.7560625e-02
  2.3317588e-03
  4.2721489e-01
 -1.1936083e-01
 -2.3875872e-02
 -1.1598949e-01
  2.3287709e-01
  9.2605412e-02
 -7.7721924e-02
 -1.1974384e-01
 -1.0750448e-01
  2.7440470e-02
 -6.6759042e-02
  2.3165904e-01
 -1.7889695e-02
 -2.3301497e-01
 -3.5742827e-02
 -5.5110757e-03
 -1.6740425e-01
  4.0581708e+00
  3.4343532e-01
 -5.9582606e-02
  5.1350906e-02
  1.3891095e-01
 -2.0337527e+00
 -1.2441948e-02
 -5.8039416e-02
 -6.6741422e-02
  1.0871719e+00
  8.2149625e-02
  1.1339237e-01
  2.9740855e-02
  1.7202042e-01
  5.2057080e-02
  3.6660445e-01
 -2.0764416e-01
  1.1440507e+00
  1.3186212e+00
  1.9388005e+00
  2.4071534e-01
 -2.3219771e+00
 -9.0088770e-02
  8.1411809e-02
  3.7484244e-02
  9.7880326e-02
  1.3475144e-01
  4.7207862e-01
  2.0179570e-02
 -3.0607715e-01
  2.0737932e+00
  4.4116940e+00
 -1.1498114e-01
 -4.2380355e-02
  1.3416426e-01
 -7.7026077e-02
  4.7533391e-03
 -8.5581265e-02
 -8.5457481e-02
 -1.0733169e-01
 -1.2447388e-01
 -1.9484361e-01
 -1.3426414e-02
  4.3639221e+00
 -1.2126084e-01
 -8.5736789e-02
  2.3172280e-01
 -5.3688899e-02
  1.4754021e-01
 -7.0578746e-02
  2.5435805e+00
  5.4868959e-02
  3.5083093e-02
  8.1984006e-02
  7.6430243e-01
 -1.0035948e-01
 -1.2659925e-01
  7.6695375e-02
  1.7150962e-01
 -2.4631727e-03
 -4.2815723e-02
  6.6434018e-02
 -9.2478931e-02
  1.1113705e-01
  2.8385441e+00
  5.8663387e-02
 -8.7857032e-01
 -5.9726677e+00
 -6.6695209e+00
  1.0665115e-01
 -2.2637169e-01
  3.4456679e-01
  5.8492285e-01
 -1.0143058e+01
  6.1479723e-01
 -7.4118805e-01
 -1.4502639e+00
  2.1410449e+00
  2.8234100e-01
  2.9674160e+00
 -7.2552948e+00
 -7.5180888e+00
  6.1733308e+00
  8.0472775e+00
  2.3648064e+00
 -2.2566862e+00
 -4.4062552e+00
  3.6006954e+00
 -6.4418297e+00
  3.1155713e+00
  1.4062998e-02
 -4.4009781e+00
 -6.4931765e+00
 -3.3770213e+00
  9.3402678e-01
 -6.0440993e+00
  1.2592485e+00
  5.1088967e+00
 -7.0781670e+00
 -4.6402377e-01
 -1.8937244e-01
 -7.6880779e+00
 -5.1834917e+00
  1.9480866e+00
  1.7529348e+00
 -6.2401977e+00
  6.5687914e+00
 -6.3865180e+00
  4.3315296e+00
  3.7002858e-02
  1.9356503e-01
 -4.1150551e-02
  3.6654444e+00
 -3.4656009e-04
 -4.5365091e-02
 -1.4021331e-01
  4.2811928e+00
 -7.4925095e-01
 -3.0580370e+00
 -1.2526605e+01
  2.3389740e+00
 -2.3580976e+00
 -7.1950059e+00
 -3.0238013e+00
 -1.0890744e+00
  7.7271638e+00
  7.9245958e+00
  8.5383511e+00
 -3.3034775e+00
 -5.2468529e+00
 -2.8504369e+00
 -2.1659825e+00
 -1.4177887e+00
  4.6448946e+00
 -1.8212511e-01
 -6.2600172e-01
 -1.6912297e+00
  1.0034215e-01
 -7.2301078e-01
 -3.8578877e+00
  1.0936854e+00
 -3.6578407e+00
  1.8338735e+00
 -4.2903125e-01
 -2.0514140e+00
 -3.1058818e-01
 -1.4317275e+00
 -2.7518759e+00
 -1.0935811e-01
 -2.2393098e+00
  1.3719689e+00
 -3.9789820e+00
 -5.9561896e-01
  2.2982252e+00
 -7.9333538e-01
  6.2816720e+00
 -4.9413700e+00
  1.0480722e+01
  1.0330796e+00
  5.0244508e+00
 -1.9708409e+00
 -1.0644328e-01
  1.3638675e+00
 -2.2348289e+00
  1.7975027e-02
  2.3709085e+00
 -1.8183105e-01
 -4.7355037e-02
  1.7251587e-02
  2.9327275e-04
 -1.7039450e-01
  5.6579404e-02
  1.2471243e+00
 -3.0993907e-02
  5.1356409e-02
  3.3048466e-02
  9.9316083e-02
  2.2404824e-01
  3.0259505e-01
 -2.5638310e-02
  2.4921463e-03
  5.7179838e-01
 -4.1394191e+00
  7.0539765e-02
 -4.0760711e-01
  1.1202268e-02
  1.0389402e-01
 -4.3561959e-01
  6.9996074e-02
 -1.0411441e-01
 -2.2350112e-01
  2.2904490e-01
 -4.4920534e-02
  3.1684279e+00
 -7.6295845e-02
  6.2137354e-02
 -8.4943253e-01
 -5.4448205e-01
 -1.1602619e-01
  1.5189305e-01
 -1.6292717e-01
  9.7567543e-02
  5.0504861e+00
 -8.9627439e-01
  5.0273202e-02
  1.1035503e-01
 -1.1075022e-02
 -8.9376432e-01
 -8.8035740e-02
  5.6104124e-02
  1.6270021e-01
 -2.5333535e-02
  4.7430301e-01
 -1.3019225e-01
  2.5007467e+00
 -1.1330277e-02
 -1.1909950e-01
 -4.0582654e-01
 -2.0134705e-03
 -3.1535193e-02
  1.1895717e-01
 -7.0617568e-01
 -8.7300614e-02
 -5.7118952e-02
 -4.9850345e-02
 -5.8597338e-01
  3.4236822e-01
  1.2589715e+00
  6.3235506e-02
 -1.7098823e-01
  6.1340064e-02
  1.1388748e-01
 -1.1304429e-01
  6.1327688e-02
 -1.2324437e-01
  8.9976743e-02
 -3.5375174e-02
  1.2347168e-01
 -2.3889158e-02
  3.6015835e-02
  2.6974657e-01
 -4.5247227e-01
 -1.0474236e-01
  7.4061036e-02
  4.1060619e-02
  1.3808067e-01
 -2.5615880e-02
  1.4747635e-01
  1.0502371e-02
  2.2737827e-02
  8.6585030e-02
 -3.3872161e-02
  6.5778202e-01
  1.3136700e-01
 -4.0093800e-01
 -8.8584295e-04
  1.1128790e-01
 -1.6063102e-02
 -1.2695291e-03
  1.2892384e-02
 -1.0140020e-01
  1.4003837e-01
  1.5875068e-01
 -2.4642898e-02
 -4.4812407e+00
 -8.4690042e-02
  8.4778555e-02
 -7.5645995e-04
  8.9164048e-01
 -4.0225387e+00
 -4.6737685e+00
  2.0080650e+00
  3.3569005e+00
  1.0376635e+00
  3.8349497e+00
  4.4663569e-01
  7.9508740e-01
 -4.0662661e+00
  9.4344826e+00
  3.8506892e+00
  2.1552678e-02
 -6.7359700e+00
  3.0154774e-01
 -4.4064569e+00
 -5.1313539e+00
 -2.4724243e+00
 -1.2502159e+00
  4.7303786e+00
  2.3402686e+00
 -3.1519985e+00
  2.0659955e+00
  2.1463811e+00
 -3.6620574e+00
 -1.0994370e+00
  2.8802964e-01
  2.1859553e+00
 -4.2078700e+00
 -4.4649668e+00
 -6.0985073e-02
  2.6345761e+00
 -1.9025704e+00
 -2.1191776e+00
 -6.7070575e+00
  2.3631430e+00
  3.0569367e+00
  8.5985679e-03
  3.5424881e+00
 -2.5280769e+00
 -3.0460732e-02
 -1.7711823e-01
  5.1315885e-02
 -1.0175722e-02
 -6.7256612e-01
 -8.1426353e+00
 -1.5167210e-01
 -1.5441666e-03
 -5.5680329e-01
  7.5556695e-02
  2.7452042e+00
  1.5765584e-01
  2.4362199e+00
  2.9445520e-02
 -6.4219460e-02
  2.6718041e-01
  2.7468529e-01
  4.4764105e-02
  3.7061276e-03
 -7.1329999e+00
  7.9001598e-03
  8.4971674e-02
  3.1893928e-02
  1.1484537e-02
  2.4836824e+00
  4.8681293e+00
  1.2127281e-01
 -1.3782904e+00
  1.0156432e-01
  7.6826096e-02
  3.9619878e-01
  4.1437912e-01
 -5.6763362e-02
  5.2005421e-02
 -5.5185288e-01
  9.5220290e-02
 -2.8138468e-02
 -4.4534687e-02
  9.9139489e-02
 -1.3334199e-02
 -7.8277983e-02
  1.3557671e-02
  1.0537677e-02
 -9.1572687e-02
  2.6052728e-02
 -8.9851201e-02
  9.0507500e-02
  1.6831105e+00
 -1.1389555e+00
 -1.8598910e-02
 -3.7118506e-01
  3.8364451e-02
 -3.9913319e-02
  8.4072128e-02
 -3.6277023e-01
  9.5162606e-03
 -1.2933981e-01
 -9.6389389e-01
  1.0735175e-01
 -1.0675364e-01
  9.1845781e-02
  9.0948291e-02
  2.9855939e-02
  1.1194253e-01
 -1.5407853e-01
 -9.5470473e-02
 -7.2409376e-03
  3.9313500e+00
  2.3608308e-02
 -5.9957087e-02
  1.5709313e+00
  1.1027982e-02
  6.5681227e-03
  8.1527489e-01
  2.2458317e+00
  2.7677847e-02
  4.4079165e+00
 -2.6905128e-01
  7.1552151e-01
 -3.8993750e-02
 -1.3671055e-01
 -3.1141162e-02
  1.3471599e-01
  4.5447471e-03
  3.8742658e-02
 -4.7589636e-01
  1.8051997e-02
 -8.1878908e-02
 -2.2436625e-01
 -2.7297409e+00
  1.6170433e-01
  8.1358515e-02
  1.6304845e-02
 -7.7800117e-02
 -8.8462122e-02
 -4.6785999e-02
 -5.0925839e-01
 -1.3153286e+00
 -8.5223183e-02
  2.8111983e-02
  8.1554174e-02
  1.7785402e-01
  1.8500067e-01
  2.9810371e-02
 -2.1243279e-03
  1.1293077e-01
  2.2534883e-02
 -3.4521482e+00
 -8.9847483e-03
  8.8113144e-02
  1.8911201e+00
  3.1654945e-01
  1.9186434e-01
 -1.7442880e-02
 -4.0989354e-02
 -1.0336240e-01
  1.2857249e-02
 -4.4218544e-02
 -5.7167884e-02
  2.8964067e+00
 -1.5915391e-01
  2.3925235e-02
  1.9505780e-02
 -4.2523060e+00
 -2.4167940e-02
  6.0028024e-02
 -1.8223803e-01
  6.6371530e-02
 -1.5114900e-01
  7.9234883e-02
 -2.0235443e-02
 -1.9396807e-01
 -2.0408694e-02
 -1.0478856e-01
  4.7908857e-02
  1.0175563e-01
  7.9373419e-02
  7.6536216e-02
  1.6371721e-01
  1.0025381e-04
  4.0785465e-01
  3.6664128e-02
 -9.1199331e-02
  1.2716264e-02
 -6.3589317e-01
  4.9186327e-02
 -4.1887877e-03
 -1.2120768e-02
  2.3534228e-01
 -9.4537996e-02
  2.0480249e-02
  2.8373044e-02
 -2.8830638e-02
 -2.1990862e-02
  2.8316716e-02
 -6.6135411e+00
 -9.5324349e-03
  1.4610836e-01
 -6.5109609e-03
 -4.8577026e-02
  1.5145373e-01
 -2.6980272e-02
 -2.4016965e-02
 -1.1116202e-01
  1.0292125e-03
 -3.6286548e-01
 -1.2882190e+00
 -1.1567794e+00
 -2.1958309e-01
 -9.5073439e-02
 -5.6353420e-01
  7.6559043e-01
 -2.8041667e-01
  4.5878911e-01
 -5.6506753e-01
  4.8810020e-01
 -6.9663517e-02
  8.0434614e-01
  2.9441800e-02
 -1.1017034e-01
  4.0546703e+00
  2.8675864e+00
  2.0265548e-01
  3.3676511e-01
  1.7676539e+00
  5.5557203e-02
  1.3578264e-01
 -3.6408037e-01
  2.5267525e+00
 -5.7306319e-01
 -8.4120944e-02
 -6.6281013e-02
 -8.6301863e-02
 -4.5752007e-01
  7.8157306e-02
 -2.6434001e-01
  2.0706576e-01
 -3.6285275e-01
 -1.7226918e-02
 -1.5014672e+00
  4.1063894e-02
 -6.4568177e-02
 -8.9200316e-03
 -1.1376059e+00
  5.5678284e-01
  6.2628798e-02
 -3.8042929e-02
 -3.7394352e-02
  1.2428833e-02
  6.7976168e-03
 -1.0254456e-01
  9.2321709e-02
 -3.0539671e-02
  1.6411880e-02
  2.0355302e-01
 -1.7469145e-02
 -5.6365967e-02
  6.1742820e-02
  9.1482528e-02
 -4.7774620e-02
 -1.7365578e-01
  2.5707729e+00
 -3.3915222e-02
 -6.2353468e-01
 -1.2528534e-01
  9.3716964e-02
  7.0003748e-01
  8.3916359e-02
  1.4606990e-02
  7.5750962e-02
 -7.3286951e-02
 -1.8975350e-01
 -6.6415846e-02
  4.4040453e-02
 -1.8063955e-01
  1.4137748e-02
 -2.8777695e+00
  7.1725942e-02
  1.6348908e-02
  1.9771414e-01
 -5.2694581e-02
 -1.9293802e-02
  2.4634764e-02
  3.6958917e-03
  1.0750732e-02
  1.3740909e+00
 -1.8480641e-01
  4.5170456e-02
 -2.4424689e+00
  2.3875476e-01
  1.0771929e-01
 -3.1714657e-01
 -4.5985863e-02
  6.4423601e-03
  2.3513378e-01
  8.9525143e-03
 -1.6034415e-02
  2.1110389e-02
  1.1985130e-01
 -8.9378059e-03
  4.2844858e+00
  4.8202741e-01
  1.2578372e+00
 -2.5026148e-04
 -3.5832137e-02
  7.9982050e-02
  1.3230743e-01
 -3.1359432e+00
 -6.1372161e+00
  6.6179734e-01
 -6.9097013e+00
 -1.4563806e+00
 -9.6043730e-01
  2.9741564e+00
 -2.2330913e-01
  4.9500332e+00
  6.5108118e+00
 -1.3693734e+00
  1.6144997e+01
  1.0872374e+00
  1.3634223e+01
  4.3871942e+00
  8.2738614e-01
  3.9844618e+00
  3.9163785e+00
 -9.6703619e-03
  9.4232047e-01
 -6.5142906e-01
 -8.9428383e-01
 -2.3058674e+00
 -1.7560586e-01
 -1.8898295e+00
  6.7070866e-01
  2.8230757e-01
  1.1984637e+00
  4.9626126e+00
 -1.7643006e-01
 -1.9391747e+00
 -1.3379647e+00
 -8.2240075e-01
 -2.9142909e+00
 -5.5049367e+00
  4.7013860e+00
  4.7413874e-01
 -6.5085216e+00
  8.2370605e+00
  1.2430336e+00
  9.7651029e-01
  4.1923943e+00
 -1.4216889e+01
  1.3331329e-02
  5.2509794e+00
 -8.2045756e-02
 -1.4329864e-01
  2.0620205e-01
 -2.4712324e-02
  8.5626349e-02
 -1.2311554e-01
 -2.7047920e+00
  2.2415962e+00
 -1.0395074e+00
 -7.6702591e-03
  7.8665584e-01
  1.4397620e+00
  6.1087165e-02
  8.2024562e-01
 -7.9262012e-01
  1.9334098e+00
  2.1285090e+00
  1.7451260e-02
 -3.5278940e+00
 -2.6605222e-01
 -3.2189667e+00
 -1.9284661e+00
  3.7178695e+00
  9.0147314e+00
 -7.1901643e-01
 -2.3820214e+00
 -1.1555886e-01
 -1.9302681e-02
 -2.9016867e+00
 -2.8396375e-02
  9.7668278e-01
  8.3018559e-01
 -5.6516039e-01
 -3.2796335e-01
 -2.7768385e+00
 -1.1130742e+00
 -3.0152223e+00
  2.1507559e+00
  4.1813645e+00
  1.0310506e-02
  2.9724138e+00
 -4.5571108e+00
  1.1126037e+00
  3.9178190e+00
  1.0352735e-01
 -1.9616304e-01
 -2.3240753e-02
 -1.3421379e-03
 -8.6480832e-01
 -9.2388736e-03
  3.9641891e-02
  9.2201158e-02
  1.5889214e-01
  1.3265575e-01
  1.2433433e-01
  5.7064626e-02
 -1.0754873e-02
  2.8095061e-02
 -2.8366146e+00
  2.1909203e-01
 -5.7714932e-02
  4.3564659e-02
 -3.6786550e-01
 -1.2688738e-02
  1.7389163e+00
 -1.5701408e-02
 -9.0743201e-03
  2.1795366e-02
  1.3021101e-01
  7.3306233e-02
  2.9451203e-02
 -1.3320362e-02
  4.6138704e-02
  2.5829002e-01
 -2.8453348e-02
 -2.1141742e-01
  6.8978980e-02
  7.6295193e-03
  4.3128137e-02
  4.9664952e-02
 -1.8700652e-02
 -9.9963546e-02
 -1.3235855e-01
 -1.4599812e-01
  8.1057504e-02
 -5.5290200e-02
  4.6520818e-02
  5.0032300e-01
  7.4785906e-03
 -6.7574173e-02
 -3.3817168e-02
 -2.7489753e-02
 -3.0683444e-05
 -3.1124039e+00
  1.5198182e-03
  5.1223777e-02
  1.8686935e-02
  4.2494651e-02
  5.3916801e-02
 -1.0061251e-01
  1.4142809e-02
  6.3445084e-02
  1.8798450e-02
 -1.3558841e-02
  1.5211046e-02
 -1.1732535e-01
 -8.4928423e-02
  8.9857038e-03
 -6.0529117e-02
 -3.1585965e-02
  7.8359339e-03
  6.1633037e-03
  1.4123814e-01
  5.8422375e-01
 -1.2755163e+00
  1.4773703e-03
 -2.0258662e-01
 -2.6509142e-01
 -1.9931193e-01
  2.6742991e-02
 -9.0277904e-01
 -1.3877418e-02
 -2.8047705e-01
 -2.3856258e-01
 -7.3824838e-02
  2.5424418e-01
 -6.1673537e-02
 -1.7305400e-03
 -2.4569927e-01
 -8.4571674e-02
 -9.3507811e-02
 -1.1694925e-01
  6.3829325e-02
 -1.3472034e-02
  1.3543171e-02
 -2.8577137e-01
  4.0803436e-02
 -1.5930399e-01
 -1.3975257e-01
 -9.4770983e-02
  1.1955175e-01
 -2.3629020e-01
 -7.0893526e-01
  2.1114929e-02
 -1.7710440e+00
  6.6763568e-01
  1.0567532e-01
  6.6063722e-04
 -2.0829367e-02
  2.9158512e-02
  1.2767997e-02
  9.8394547e-03
 -2.2161739e-01
  3.9651805e-01
 -7.2001414e-03
  4.6864719e+00
  2.1644962e+00
  8.2826905e-02
 -3.9762214e-02
  1.4917822e-01
 -6.0256954e-02
  4.1446559e-02
 -1.2402191e-01
  1.4624408e+00
  7.1506149e-01
  5.9679914e-01
 -4.4886820e-02
 -1.2377655e-01
  9.4133906e-02
  1.7815396e-02
  8.8361330e-02
  3.7361935e-01
  1.2484599e-02
 -1.9996222e-02
 -9.1088183e-02
  9.6132658e-02
  2.2916837e-01
  2.3998260e+00
  3.4459549e-01
  4.2140245e-01
  2.7981261e-05
  5.1573686e-02
  7.2933012e-01
  9.5403910e-01
  1.6776690e-02
  2.0124290e-02
  1.4748314e-03
  2.6255902e-02
  3.9217138e-01
  2.5603202e-01
 -4.3983392e-02
  1.0255999e-01
  9.1708288e-02
  1.4256448e-01
  2.0020723e-01
 -1.4128220e-02
  2.2198888e-02
  3.4272213e+00
  1.5423357e+00
 -5.1676984e+00
 -5.2594539e-02
 -2.2837813e-01
  8.4020242e-02
 -2.2087783e-01
 -1.6342031e-02
  4.8946966e-03
 -1.0167273e+00
  8.3569502e-03
 -2.4652893e-02
  3.5741452e-02
 -1.2526139e+00
 -6.5774593e+00
 -1.8731227e+00
 -1.4914352e-01
 -1.7248144e-02
 -1.6642077e+00
 -1.9695472e+00
 -3.5185122e+00
  3.0222661e+00
 -3.8572428e+00
 -2.7357310e-01
 -7.8460401e-01
  5.2107017e-02
 -1.0125599e-02
 -6.5517330e+00
 -4.7721297e-01
 -1.8890226e+00
  1.2922690e+00
  1.2182733e+00
 -2.8519648e-01
  4.8011684e+00
 -2.5811219e+00
  3.6744161e+00
  3.6468334e+00
  7.2025114e-01
 -4.9464231e+00
 -1.4058566e+00
  3.7640563e-01
  5.0961953e-01
  3.4690518e+00
  6.1766058e-01
  4.0100050e+00
 -3.4743080e-01
  3.0064306e+00
 -6.8811555e+00
  4.6701270e-01
  3.5975735e+00
 -2.2329009e-01
  9.3349656e-03
  1.2347301e+00
  3.0182180e+00
  4.1721525e+00
  1.1238055e+00
 -4.7812741e-02
  3.3146234e+00
  5.4927623e-01
 -3.2969706e-03
  2.3575687e+00
 -2.4246778e-02
 -2.3621149e+00
 -3.9288988e+00
  4.2248213e-01
 -3.1293056e+00
 -5.9121957e+00
  3.0388274e+00
  8.9978629e-01
 -8.4729373e-02
  2.9108083e-01
  2.8021185e+00
  6.8952069e+00
  1.5111506e+00
  7.4634571e+00
 -6.3774002e-01
 -4.2726536e+00
  8.2105905e-01
 -1.8346965e+00
  6.6868014e+00
  7.0356268e-01
  4.1177363e+00
 -1.6287010e+00
 -1.8195809e+00
 -2.5811272e+00
 -1.6116735e+00
  2.0513270e+00
  1.4878191e+00
 -4.9247628e-01
 -4.2698073e-01
  1.4719424e+00
 -1.9773570e-01
 -2.1041617e+00
  1.2660372e+00
  1.1850437e+00
 -2.5045917e+00
  5.6284475e-01
  2.4100416e+00
  5.2573609e-01
 -2.7605901e+00
  7.8892809e-01
 -7.1355812e-02
  4.2462463e+00
 -1.2257991e+01
 -4.2427254e+00
  1.9551722e-02
 -1.3200939e-01
  2.0947783e+00
  2.5697505e+00
 -3.4949023e-01
  1.2159217e-02
 -8.8245525e+00
 -1.8258404e+00
 -6.0823347e-02
  2.3824748e-01
  2.8546596e+00
  2.6833017e+00
 -1.6370600e+00
  3.6026950e+00
  1.9247130e-01
 -6.1012179e-01
  2.4144292e+00
  3.5537062e+00
 -1.3598126e-01
  1.3337425e+00
 -1.4531189e-01
  1.0380975e+00
 -3.7010632e+00
  3.0745015e+00
 -1.0558152e-01
  6.0100004e-02
 -8.1741457e+00
 -1.7329928e+00
  2.1285396e+00
 -3.6808813e+00
  7.9153409e+00
  7.1131783e+00
 -1.1942793e-02
  1.2137250e+00
 -1.4083855e+00
  1.1309422e+00
  1.9016110e+00
 -3.1897459e+00
  2.2721955e-01
 -9.0344541e-02
 -4.5747265e-01
  2.2086015e+00
  5.6073099e-01
 -1.0772349e+00
  3.2424036e-01
  1.0149302e+00
 -5.2159542e-01
 -2.7634965e-02
  2.2758159e-03
  6.3588686e-02
  1.5718725e-02
 -1.5806344e+00
  6.5475053e-01
 -1.9839972e+00
 -1.6841152e+00
 -6.5342259e-01
 -5.9092706e-03
 -9.1139066e-01
 -3.1031033e-02
 -1.2491497e-01
 -4.0833955e-03
  9.0684734e-02
 -2.7908814e-01
 -9.9270329e-02
 -4.9549669e-01
  5.1697353e-03
 -1.9515108e-01
 -9.2191137e-02
 -9.5593557e-03
  2.0585063e+00
  1.5003377e-01
  1.9674861e-01
  5.8077443e-02
  3.4271006e-02
  1.8184586e-01
  1.6916342e-01
  4.2660949e-01
  5.3016061e-01
  1.0217694e-01
 -3.1024520e-03
 -1.0902160e-01
  5.7667479e-02
  7.1861349e-02
  7.2644427e-02
  1.7341623e-01
 -2.9162969e-02
  7.5535044e-02
  1.1510203e+00
  7.5639985e-03
  1.9255804e-01
  1.8481776e-02
  9.5994967e-01
  1.2218818e-02
  8.1571519e-02
 -4.3794009e-01
 -5.3427532e-02
 -5.2344012e+00
  8.6201862e-02
 -1.4695418e-02
  8.5094906e-02
 -9.6443109e-03
 -4.7790494e-02
 -5.1086448e-02
  3.2509184e-01
 -1.0156695e-04
 -2.4433434e+00
 -3.8021382e-02
  1.2337595e+00
  1.5883389e-01
 -2.2399975e-01
  1.7533968e-01
 -1.7466232e-02
  1.4462486e-01
  6.3898057e-02
 -2.1147684e-03
 -4.5180693e-03
 -2.2254372e-02
 -1.7916566e-01
 -9.8747686e-02
  5.5937413e-02
  4.9313508e-02
 -1.3586141e-01
 -1.5338900e-02
  2.0827687e+00
  7.2206393e-02
  2.1296148e-01
 -2.8323681e+00
  3.3695824e-02
  3.2251024e-01
  1.9928484e+00
 -2.4977057e+00
  1.6936114e-01
  1.1948156e-01
  6.5209009e-02
  4.7422372e-02
  1.8942569e-01
 -3.2985514e-01
  1.5869734e-01
  3.8113378e-02
 -9.3439594e-02
 -2.4516864e-02
  5.7247993e-02
  1.2365088e+00
 -2.1018228e-02
  1.0192903e-01
 -5.3555894e-01
 -4.9050293e+00
 -1.2563789e-03
 -3.5982186e-01
  2.6155818e+00
 -1.5098691e+00
  7.7006795e-02
  7.1251564e-02
  6.0013026e-02
  1.3311836e-01
  1.3074516e-01
  3.3747551e-01
 -9.9146530e-02
  5.4328046e-03
 -2.0401382e-01
  3.4683805e-02
  1.7249037e+00
 -7.4868035e-01
 -2.1662021e-01
 -6.4535699e+00
 -9.2524576e-01
 -3.6090016e+00
  2.0190270e+00
  3.9996070e-01
  2.7802578e-01
 -2.8356164e+00
 -1.0572702e+00
  1.6488587e+00
 -3.0146983e+00
  1.2926636e+00
 -2.8353491e+00
  2.0244493e+00
 -3.4503515e+00
  1.5447501e+00
  1.0151650e+00
  3.4746702e+00
 -5.6110005e+00
  5.7920259e-01
 -2.8625777e+00
  9.9601994e+00
 -6.0348815e-01
 -3.5943571e-01
 -1.8443720e+00
  2.6532326e+00
  3.0036311e+00
  7.0323902e-01
 -5.6875467e-02
  2.2601142e+00
 -3.7880323e+00
 -3.2871604e-02
  2.4890811e+00
  2.3103738e-02
  2.7590759e+00
 -6.5925927e+00
 -7.5251436e+00
  3.1742001e+00
  5.2308407e-02
 -9.4183244e-02
 -1.0878438e+01
  1.3564920e+00
 -9.7065419e-02
 -4.2623520e+00
 -3.6272477e-02
  3.7737474e-02
  7.0581734e-02
 -1.5900442e-03
  3.6506173e-01
  1.7114953e-03
  2.2411959e+00
  3.7515765e-01
 -3.0796933e-01
 -1.0614741e-01
 -2.7252934e+00
  2.6267545e+00
 -1.1483440e+00
  3.9284668e+00
  2.7915719e+00
 -1.8315220e+00
  1.4830463e+00
  1.3159051e+00
  3.4393399e+00
  2.7407739e+00
 -7.5009389e+00
 -5.7954609e-01
 -2.7773366e+00
  7.6465454e+00
  1.9773383e+00
  2.8828540e+00
  1.5096627e+00
  7.7076960e+00
 -1.7755016e+00
 -3.6854607e-01
  2.5141490e+00
  9.0496522e-01
  4.3907485e+00
 -4.4427481e+00
 -1.4087104e+00
  2.3546367e+00
 -7.2928649e-01
 -1.1712316e+00
 -3.1866124e+00
 -6.0528952e-01
  2.8811866e-01
 -2.7650776e+00
 -7.5165665e-01
 -8.0528599e-01
  3.9186804e+00
  2.0614414e-01
 -1.4714408e+00
 -2.2646511e+00
  1.5742594e-01
  1.3553692e+00
 -1.2914166e+00
 -5.4488044e+00
 -7.7792503e-02
 -7.4200593e-02
 -4.5497246e+00
 -1.9735429e-01
 -3.4177918e-02
 -6.3097506e+00
  7.7949291e-01
  5.7957516e+00
  1.7280510e-01
 -2.7889359e+00
 -5.6329179e+00
 -2.2945945e+00
  5.0816122e-02
 -5.2227902e+00
 -2.6631167e-02
 -3.2625527e+00
 -1.5357831e-01
 -1.4590181e+00
 -2.7287714e+00
  2.1839051e+00
 -2.7440081e+00
 -2.1933596e+00
 -8.0883398e+00
  6.1560597e+00
  4.2348533e+00
 -6.8256077e-03
  8.2562983e-01
  3.2733502e+00
  4.8421645e+00
  5.0978084e+00
  1.6673214e+00
 -6.2866747e-01
 -1.6805983e+00
  4.4284368e+00
 -4.0580072e+00
  2.3113413e+00
  2.6212096e+00
  5.5957685e+00
 -2.2819836e-01
  5.9652796e+00
 -1.7088859e+00
 -9.2743101e+00
 -4.1053858e-02
 -4.0999956e+00
  1.5557852e-02
  3.9175350e-02
 -8.1601202e-01
  6.7673955e+00
 -4.4591565e+00
  2.1716277e-01
  1.5784250e+01
  1.4829560e-01
 -1.1132831e-02
  1.8681842e-01
 -1.6759656e-01
  1.3181627e+00
 -1.2151363e+01
 -1.8529875e+00
  4.3355408e-01
  4.1095948e-01
  1.3320320e+01
 -9.2349164e-02
  3.2113495e+00
 -4.0761671e+00
  1.7352947e+00
 -5.6880994e+00
 -3.8735902e+00
  6.8611493e+00
  2.3395855e+00
 -1.2682778e+00
  1.0816374e+00
  7.6373715e+00
 -1.1914481e+00
 -8.1096567e-02
  3.6329632e+00
 -2.1031580e+00
 -8.8036132e-01
  4.9319372e-01
  4.2791820e+00
  1.7944158e+00
  1.7600131e+00
 -4.6089716e+00
  4.4643477e-01
  3.9163272e+00
  3.5264948e-01
  3.5253327e+00
  1.4284743e-01
  2.3770263e+00
  1.5582256e+00
 -5.3726950e+00
 -6.3980395e-01
 -2.4101321e-01
 -2.3472710e-01
  1.2429173e+00
  1.1834600e+01
  1.8501462e-02
  5.5171008e+00
 -1.7306210e+00
 -6.4687390e+00
  5.1699854e-02
  1.1530232e-01
 -1.1022419e-01
 -4.7182384e-01
 -3.2810536e-01
  1.4264953e+00
  5.9333611e-02
 -2.3875991e-03
 -2.6234917e-02
  2.0998099e-01
 -3.0221559e-02
  1.3674213e-02
 -8.2455620e-02
 -2.0649669e-01
  4.9455395e-01
 -1.5032917e-01
  6.7833796e-02
 -2.9062996e-02
 -1.4952466e-01
  5.9238348e-02
 -6.2401653e-03
  2.9153880e-02
 -1.2362690e-01
  3.4650758e-02
 -2.6396012e-01
  5.4083776e-02
 -1.2001662e-01
 -1.9165786e-02
  2.1397142e+00
  6.7343049e-02
 -2.5062978e+00
 -1.1321163e+00
 -1.7241170e-01
 -8.4388554e-02
 -1.7786044e-01
 -8.0732502e-02
 -4.7936972e-02
  1.4224243e-01
 -1.1999988e-01
  8.8188833e-01
  9.6316838e-01
 -2.9027218e-01
 -2.5322524e-01
  2.6417458e-02
 -7.1368809e-03
 -4.9564045e-02
 -3.8371392e-02
 -2.4800558e-02
 -7.2949298e-02
 -9.3919307e-02
 -2.4189419e-01
 -2.0467095e-01
 -9.1593009e-01
  9.7198325e-01
 -3.7763104e+00
 -1.6842060e+00
  2.8446279e-03
  4.9054340e-01
  4.9330361e-02
 -3.8423162e+00
 -1.5244555e-01
  4.1349673e+00
  1.0137739e+00
  3.1105726e+00
 -2.6239190e-01
 -4.4656186e+00
 -1.1434923e+00
  1.7597597e+00
 -6.4423742e+00
  6.4890510e-01
  6.8776196e-01
 -1.0184240e+00
  2.2680788e+00
  4.6402535e+00
 -6.6426921e+00
  9.3831277e-01
 -1.1675491e+00
  8.9684612e-01
  2.0917702e+00
  1.6194624e-01
  3.8234168e-01
 -3.9223347e+00
  1.0827868e+00
 -1.4849370e+00
 -4.7868996e+00
  3.7674000e+00
 -1.8168516e+00
  2.0446625e-01
 -2.7667320e+00
 -2.7089795e-01
 -1.2898573e-02
 -4.5004482e+00
  1.8203327e-01
  4.0297179e+00
 -1.4026053e+00
  3.7284009e+00
 -2.5969875e+00
  1.1446633e+00
  1.0801994e+00
 -1.1511608e+00
  1.4068969e+00
 -1.3230817e+00
  7.7698255e+00
  2.6764228e+00
 -8.8111615e-01
  1.7372879e-01
  8.2768150e-02
  8.8445721e+00
  3.2749858e-02
  3.4645221e-01
  5.3393316e-02
 -2.7938595e+00
  4.2779583e-02
 -1.9632920e+00
  1.1617887e-02
 -4.7282513e-02
  2.5547472e-01
 -5.3260233e-02
 -2.3451682e-02
  5.8426332e-02
  9.8635286e-02
 -2.8862493e-02
 -1.7605513e+00
  3.1203426e-02
 -1.6090440e-02
 -7.5027995e-02
  1.4081912e+00
  4.9658440e-02
 -1.8450069e-01
 -1.4852504e-02
  1.7581962e-02
 -1.7460816e-01
 -7.2774583e-01
  2.5438815e-01
  1.6168693e-02
  1.5287760e-01
  2.9927893e-02
 -9.4843291e-02
  7.5695507e-04
  2.1131628e+00
 -7.5502326e-03
 -3.6508534e+00
 -3.1808499e-01
 -2.3167986e-02
 -2.4082696e-01
  5.4548994e-02
  3.3055747e+00
  1.8927630e+00
 -6.8111695e-02
 -3.3547381e-01
 -1.7005794e+00
  7.4402697e-02
 -8.7473738e-01
  1.2893575e-02
  1.8561691e-01
 -1.8621318e-02
 -7.6174758e-02
 -2.3956437e+00
 -7.2994053e-02
 -9.8385662e-03
  3.2937910e-02
 -2.9086661e+00
  2.0302496e+00
 -2.3701936e-01
  1.8319988e+00
  3.6673290e-01
 -2.2891183e+00
 -4.9936604e-01
 -4.1955259e-01
  6.4922720e-01
 -2.2083547e-02
  1.7392167e-01
 -1.8316665e-01
  2.3455806e-01
 -4.2094328e-03
 -3.0707359e+00
 -2.2634091e-02
  2.5080047e+00
  4.3585026e-01
 -2.3921556e+00
  1.3931321e+00
  3.9061955e-03
  5.9475436e+00
  2.2693536e+00
  3.1119013e+00
 -1.9148127e+00
 -1.9762264e+00
 -4.4280851e-01
  1.7789289e+00
 -4.4398828e+00
 -1.0102692e+00
  1.0916711e+00
  5.0231653e-01
 -6.2199545e-01
  3.0290318e+00
 -3.0967253e-01
  2.7122945e-02
  2.3848245e+00
 -3.9863646e-02
  2.1687947e-01
 -1.5045877e+00
  5.2121483e-02
 -1.4021449e-01
  4.4339797e-01
 -6.6786550e-02
  6.8952575e-02
  4.4840958e-02
  1.6142906e-01
 -1.0210943e-02
  4.5008827e-02
  5.2192856e-02
 -4.2809397e-02
  3.6766331e+00
 -1.8887202e+00
 -2.5192201e+00
  1.8209972e+00
  2.7709906e+00
 -3.1686041e-01
  8.4703249e-01
 -1.0778046e+00
  6.0789144e-01
 -3.5686774e+00
 -4.3003211e+00
 -7.8072295e+00
  3.9197304e+00
 -6.1823195e-01
 -3.3192439e+00
  1.8351529e+00
 -4.6567631e+00
  7.8745198e-01
  1.2932791e+00
 -5.3172475e-01
 -1.9628318e-01
 -9.5983630e-01
 -7.2626138e+00
  1.4570560e+00
 -1.1450573e+00
  6.3166225e-01
  7.2872609e-01
 -3.1487372e+00
  1.2390509e+00
  1.7696087e+00
  3.1657610e+00
 -1.0779743e+00
  6.3226950e-01
  9.9189335e-01
 -2.1441710e+00
  2.1740582e+00
 -1.3501562e+00
 -4.0139709e+00
 -1.2740366e+00
 -2.1127625e+00
  9.7529793e+00
  3.6382904e+00
 -1.0585726e+00
  1.5254027e+00
 -3.3599889e-01
 -4.0576534e+00
 -1.2616554e-01
 -2.4411866e-02
 -6.0404539e-02
 -7.1702749e-01
 -1.8256038e-01
 -2.1981372e-02
  1.5352035e-02
  1.1653911e-02
  1.3579816e-01
  2.8343308e-01
 -1.4577956e+00
  1.8483200e+00
  2.8699577e+00
  2.0790381e+00
  5.9154439e-01
 -7.5149071e-01
  1.1855486e-01
 -3.1400573e-01
  1.0862905e+00
  6.9593675e-02
  4.5142555e-01
 -2.1074381e+00
 -3.5686007e+00
  4.6152554e-02
 -9.7997594e-01
  4.7904915e-01
  3.2540452e+00
 -1.6958168e-02
 -7.9487276e-01
 -2.1276327e-02
  4.2446394e-02
  4.9368102e-02
 -2.3644328e+00
  1.6736388e+00
  1.2171482e-01
 -1.1366098e+00
  1.9196967e+00
 -1.0791986e-03
 -2.3527380e-02
 -3.3124120e+00
  2.3998985e+00
  4.8654914e-02
 -6.3563222e-03
 -6.1113935e-02
  3.3796575e-02
  2.9437442e+00
  2.0579264e+00
 -1.9732146e-01
 -2.7942447e-02
 -8.3462834e-01
 -3.0530348e+00
  6.0462836e-02
 -3.3025855e-01
  3.8439138e+00
  1.3051413e-02
  5.6479119e-02
  1.0637480e+00
 -3.9204910e+00
 -6.2883124e-02
 -2.5468118e+00
 -4.1041150e+00
  2.9850576e+00
  4.5200184e-01
  2.2176743e+00
  2.0301044e+00
  1.8833516e+00
  4.7870545e+00
  4.5564876e+00
 -1.0195250e-01
  1.0642605e+01
  3.8283656e+00
 -3.1045711e+00
 -1.1257517e+00
 -3.1893160e+00
  3.3361239e+00
 -3.8169149e-01
  4.7315943e-01
  4.1600704e+00
  1.1761607e+00
 -3.7182641e+00
  1.6572810e+00
  3.3633444e+00
 -1.8017341e+00
 -6.6340933e+00
  4.4790277e+00
  1.5482159e+00
  1.4074070e+00
  1.5455478e-01
  1.5466849e+00
 -1.4205081e+00
  2.4072833e+00
  7.4613953e-01
 -4.0869765e+00
 -5.2520099e+00
  2.1074965e+00
  5.4198015e-02
 -1.4996004e-02
 -1.1750576e+01
 -9.3507612e-01
  1.6236195e-01
  1.0745831e-01
  1.9294107e+00
 -2.7238466e-02
 -1.5352954e-01
  6.4427781e-01
 -3.0276336e-02
  1.4232138e-02
 -7.5828232e-02
  4.0698290e-02
 -5.3749762e-02
 -2.4058512e-01
 -4.2515813e-04
 -1.1322439e-01
 -3.2072570e-02
 -3.8712896e-02
 -3.7254371e-02
  1.4302581e-02
 -1.1459686e-01
  3.2667246e-02
  1.3107167e-01
 -2.7723543e-02
 -9.9098541e-02
 -1.0028167e-01
  1.9924447e-02
 -2.5599056e-01
  4.7432415e-02
 -2.3977691e-01
  2.6119477e-01
  2.4951057e-01
 -1.9429713e-02
 -1.8402758e-01
 -3.3089063e-01
  1.3059810e-01
 -1.8052392e-02
 -5.8022135e-01
  3.1683190e+00
 -2.5337893e-01
 -2.7113829e+00
 -1.4165455e+00
 -6.9919094e-02
  3.5395581e-02
  5.9628926e-02
 -9.7450852e-02
  5.7779860e-02
 -2.3690771e-01
 -1.1757269e+00
 -1.2538050e-01
 -2.0557244e-01
  5.3335335e-03
 -8.2382247e-02
 -2.0296641e-02
  7.1328498e-02
 -6.5110132e-02
  1.6168393e-01
  3.4654266e-01
 -9.2024148e-02
  1.7425340e-02
 -5.1152516e-02
 -3.6560614e-02
  3.5115287e-01
 -7.3206626e-02
  1.3427304e-01
  1.7281448e-02
  1.0462440e+00
 -5.8418199e-02
 -1.3826714e-02
 -8.1642054e-02
 -6.7547038e-03
 -2.3528423e-02
 -6.8758227e-02
 -1.3834742e-01
  8.3374240e-02
 -4.6671592e-03
  1.2885538e-01
 -3.3236731e-02
  2.0885074e+00
  1.7640923e-01
 -1.4916749e+00
  1.7124602e-01
  7.2200581e-02
 -1.1993632e-01
 -1.8069530e-01
 -5.6036726e-02
 -2.5251848e-01
 -8.4269054e-02
 -8.3104551e-02
  5.5138052e-02
 -8.0690086e-02
  7.7052169e-02
 -6.3994539e-01
  7.4274656e-03
 -2.4944010e-01
  2.2268760e+00
  7.3993564e-02
  2.3375421e+00
 -2.2990124e+00
 -9.5458990e-03
  1.9345659e-01
  2.1525168e+00
 -1.9945164e-01
 -1.9144841e-02
  3.2551803e-02
 -2.4687978e-02
  3.8211194e-01
 -3.8365681e-02
  4.0312295e+00
  1.9865526e-02
 -2.1760321e-01
  7.9868481e-02
  2.2346884e-01
 -1.2422768e-01
  1.0741872e-01
  9.6977584e-02
  1.8925209e-02
  5.4857902e-02
  4.2976819e-02
  3.0766514e-01
  4.3883801e-02
 -1.1515100e-02
  5.7145232e-01
 -1.0232750e-01
  1.1006529e-02
  6.9188096e-02
 -5.5324435e-03
  7.3033519e-02
 -1.0023466e-01
  3.5374638e-01
 -6.5590799e-02
 -2.7113631e-01
  1.3432915e-02
 -3.3687708e-01
 -2.0892627e+00
  3.6700502e-02
  2.5316391e-02
  7.4945772e-03
 -1.5960215e-01
 -4.1691978e-02
 -1.5541176e-02
 -1.1427064e+00
 -3.5900421e-02
 -1.4240403e-01
 -3.6126494e-02
  8.2863988e-03
  2.0708263e-02
 -1.8746021e-01
  2.0879537e-01
 -1.2061578e-02
  3.1381071e-02
  5.0597817e-02
  1.9896391e-01
  5.9714179e-02
 -9.4294220e-02
 -4.0569305e-01
  1.5576068e-01
 -4.2023208e-02
  1.0673594e-01
 -3.0883226e-01
 -5.9543949e-02
 -1.8735987e+00
 -3.3379309e-02
  1.6852241e+00
 -1.2899044e+00
 -3.1952423e-01
 -8.4546036e-01
 -1.7377212e+00
  1.4366516e-01
 -9.4258040e-01
  2.9272847e+00
 -8.2140708e-01
  4.5630425e-01
 -5.6120530e-02
  9.5586586e+00
  1.1168531e-01
  1.3162357e+00
  1.4922392e+00
  5.0209932e+00
 -1.6745714e+00
  3.6414230e+00
 -2.7882063e+00
 -5.4093847e+00
  4.5469186e-01
 -1.5052007e+00
  4.5071836e+00
  4.2727594e+00
 -2.6671340e+00
 -7.6553476e-01
  2.6526318e+00
  1.6258761e-01
 -4.2345891e+00
  3.4474010e+00
 -2.1371219e+00
  1.0031054e+00
 -7.8272390e-01
 -4.3362665e+00
  3.7844536e+00
  2.5981009e+00
 -2.9169171e+00
  1.9305049e+00
  1.4349115e+00
 -2.1738426e-01
  2.4543102e-01
 -1.0832566e+00
  3.7261996e+00
 -1.1595279e+00
 -4.1220098e+00
 -7.8817892e-01
  3.5103764e-02
 -5.1306348e-02
 -2.3745029e+00
  1.1436812e-01
  1.0960680e-02
  7.8946039e-02
  4.1538212e-02
  8.1072211e-02
 -3.3218449e-01
  2.7421987e-01
  5.9293121e-01
 -5.6773740e-01
 -1.5918677e-01
 -6.6237874e-02
  6.5112793e-01
 -9.0219595e-02
 -2.7958515e-01
 -3.3808220e-02
  3.8804367e-02
 -2.4013439e-01
  4.6442006e-02
 -1.5155918e-02
  2.1503340e-01
  5.3425226e+00
 -1.3163166e-01
  7.3851414e-02
 -2.0518802e-02
 -1.9358175e-02
 -2.2813205e-02
 -2.5241503e-01
  6.2810285e-03
  6.3359246e-02
 -1.6218783e-01
  4.7255240e-02
  9.4270676e-01
  1.8775034e-01
 -6.3541734e-01
  1.2947247e-02
  9.0414904e-02
  4.9628843e-02
 -1.3653471e-01
 -3.7233435e-02
  1.5132937e-02
  2.9690770e-02
 -9.5838659e-02
 -5.6826543e-02
 -3.6653161e-01
  1.0808896e-01
 -1.2982430e-01
  6.0265675e-02
  2.4016036e-02
 -9.9626288e-02
 -5.6812797e-02
 -1.2795646e-01
 -5.0067287e-02
  1.7296255e-02
  2.9418340e-02
  4.3984435e-02
  4.9769901e-02
 -1.5876168e-01
  3.3066634e-03
  9.3515664e-02
  4.1544688e-01
  2.1392126e-01
  1.5396516e-01
  1.8860370e-01
  5.2257600e+00
 -4.6186801e-02
 -7.1522607e-03
  1.0931084e-01
  1.3267145e+00
  1.9449532e-01
 -2.8530407e+00
 -3.6756545e-02
  8.8709043e-03
 -2.5766044e+00
 -2.2543142e+00
  1.8087795e+00
  7.2248623e-02
 -2.2867613e+00
 -1.6743496e-01
  2.8681189e-01
 -1.4542586e+00
  1.0809004e+00
  4.2374617e-01
 -9.3728915e-02
 -4.3660779e+00
  2.6019316e-02
 -2.4045976e-01
 -8.8791776e-01
  1.2635720e+00
  3.5443181e-01
 -8.2531452e-01
  3.4348795e+00
  1.2776345e+00
  1.6702412e-01
 -3.7220821e-02
  2.4146652e-01
  5.3605813e-01
  4.2126632e+00
 -4.1737521e-01
  8.0403298e-02
  3.4194592e-02
 -2.5019798e+00
 -2.3340697e+00
  1.0642002e-01
  9.4231740e-03
 -7.7071376e+00
 -1.7576107e+00
  3.7644234e+00
  3.8838546e+00
  3.4953485e+00
 -4.6726522e+00
 -2.5845618e+00
  2.2815068e+00
  4.3109317e+00
  4.2662187e+00
 -8.7432615e-02
 -1.2241625e+01
  8.0261259e+00
 -1.8704515e+00
 -3.8276103e+00
  2.7152262e+00
  5.1172385e+00
  2.2394542e-01
 -3.6289785e+00
  1.7210569e+00
 -2.5758171e+00
 -2.2226269e+00
 -4.2177454e-01
 -4.1973996e-01
  3.0929151e+00
 -1.6901211e+00
 -2.1654110e+00
  1.5944518e-01
 -1.3551837e+00
  1.8076649e+00
 -1.6266320e+00
  6.2313664e-01
 -1.2326369e+00
  1.9222251e+00
  1.9266623e+00
  3.9892718e-01
  2.3517456e+00
 -1.5473584e+00
  3.2640004e+00
 -9.0603285e+00
 -7.2158365e+00
  2.8344560e+00
  3.4167402e+00
  8.9436464e+00
 -5.2519536e-01
  5.6098396e-01
 -1.0132674e+00
  1.7032270e-01
  3.3006756e+00
  5.5757668e-02
  1.0185967e-01
  5.8582869e+00
 -9.7597778e-01
 -3.6510489e+00
  3.6746910e+00
 -3.1460652e+00
  5.7101256e-01
  6.8324459e-01
 -7.1228158e-01
 -5.6825228e+00
 -6.6204357e-01
 -1.4350860e+00
  6.9772530e-01
  2.7595723e-01
 -1.5899638e+00
  7.0207653e+00
  8.3554602e+00
  2.6523521e+00
 -2.2292726e+00
 -2.3016164e+00
 -3.6324732e+00
 -1.3384972e+00
  2.8318828e-01
  1.0702639e+01
 -2.5956125e+00
 -1.8147049e-02
 -2.0633018e-02
 -5.9701866e-01
 -2.0080729e+00
  1.5193217e+00
  4.4684138e+00
  1.4198936e+00
  2.1496496e+00
 -8.7264967e-01
 -4.1365833e+00
 -1.1778194e+00
  2.3610275e+00
 -1.9232215e+00
 -2.4076998e+00
  1.9281324e+00
  1.4624692e-02
 -2.2234054e+00
  2.2698495e-01
 -7.1173530e+00
  4.3122581e-01
  8.6816019e-01
 -3.5321124e+00
 -2.3308587e+00
 -1.3727758e-02
  1.8148708e+00
 -1.3990053e+00
  1.0528088e-01
  4.3489337e-02
  1.7441353e-02
  7.3386073e-02
 -1.0327555e-01
 -2.5675660e-01
  7.6787055e-02
  1.5065536e-01
  1.9576814e-02
  4.7599237e-02
 -1.7260568e+00
 -4.1923425e-01
  6.6235632e-02
 -1.0478964e-01
  2.8130282e-02
  5.7298448e-02
 -6.6737831e-02
 -2.9109344e-02
  2.1102071e-02
  8.6111203e-03
 -1.9034641e+00
  7.2888117e+00
  4.5657973e+00
 -1.2221387e-01
  2.4673672e-02
  5.7057813e-02
 -1.8434390e-01
  1.8924116e-01
 -9.9182710e-02
 -1.8711096e-03
 -8.1632406e-02
  8.0005787e-03
 -1.7586628e-01
 -8.0641806e-03
 -1.5623607e-02
 -7.1554184e-02
 -6.4158658e-03
 -1.0175150e-01
 -2.0616321e-01
 -7.9862356e-02
  3.3815548e-01
 -5.6304835e-02
 -3.5655212e-02
 -1.5622661e+00
 -1.3785930e-01
 -5.1353768e-02
 -5.5017393e-02
  1.7081521e-01
  6.2631242e-02
  5.0222971e-02
  6.9077447e-02
  8.1063682e-01
  8.6456213e+00
 -1.4322149e+00
  1.9999338e+00
 -4.8457429e-01
 -1.7899091e+00
  1.0777664e+00
 -7.4009478e-01
 -2.4534480e-01
  3.7155225e+00
  7.9178149e-01
  1.3176666e+00
  1.8868172e-01
 -1.1671340e+00
  5.7129912e+00
  3.7157850e+00
 -6.7222178e-01
  5.2491465e+00
  1.6530570e+00
 -1.9504939e+00
 -1.0606922e+00
 -4.8207202e+00
  4.5262221e-03
 -3.9746087e+00
  2.2794271e+00
 -2.0341377e+00
  6.4164698e-01
 -1.7622917e+00
  3.6795858e-01
 -2.9902604e+00
 -9.3731314e-01
  6.9376463e-01
  9.2059365e-03
 -3.1230074e-01
  2.3945744e+00
 -1.7179207e+00
  2.7981656e+00
  3.7612456e-01
  4.5745125e+00
  5.0605959e-01
  3.6451728e+00
  2.5948467e+00
  2.8175058e+00
  3.8253245e+00
  5.9021149e+00
 -3.1636089e-01
 -2.7768260e-01
 -3.8474720e-02
 -1.1391615e-02
  1.3722864e+00
  1.4335027e-01
  6.6928048e+00
  4.1958943e-01
  2.7529361e+00
  6.9523005e+00
 -1.1921822e-01
  4.4314384e+00
  3.1106767e-01
  8.7390900e-01
  6.7443156e+00
  5.6998105e+00
  5.8036014e-02
  8.2302704e-02
  1.0979322e-01
  8.9421161e-03
 -4.2892921e-01
  1.4935048e-02
 -5.6686306e-01
 -2.6870077e+00
 -4.5069594e-02
  4.6417668e-01
  3.4654844e+00
 -1.8833666e-01
  3.0817759e+00
 -3.7623034e+00
 -1.1829469e-01
 -3.2315457e+00
 -3.4226594e+00
  1.4063283e+00
 -3.6744517e-01
  1.0822333e-01
 -3.3511374e-02
 -1.5235311e+00
 -2.1957731e+00
 -2.2531389e-01
  3.2695904e+00
 -1.3030146e+00
 -1.1529033e-01
 -1.9705387e+00
  5.8003481e-02
  7.4228476e-04
 -8.3566800e-02
  4.9975883e-02
  2.6369160e-01
  3.0079734e-02
 -2.3789558e-01
 -3.3399460e-03
  1.2821181e-01
  1.1538396e-02
 -2.7572916e+00
  2.3506857e-02
 -1.0582922e-01
 -4.4319369e-03
 -1.3157189e-01
  1.4603001e+00
  1.1808678e+00
 -3.8493478e-01
  9.3918659e-02
  3.1530946e-01
  4.8063567e-01
  6.4751939e-03
  1.1059446e+00
  6.9298156e-02
 -2.5756508e-01
  1.6260512e-02
  1.0592655e-01
  2.1274548e+00
  1.4351165e+00
  4.1453429e-02
 -4.3432598e+00
  2.9567780e+00
 -2.6257446e-01
 -2.2631781e+00
  1.6735853e-01
 -7.4657226e+00
  3.9272690e+00
  6.1189419e-01
 -1.2235690e+00
  6.8233347e+00
 -8.8789260e-01
  1.0106907e+00
  2.0540326e+00
 -6.9872208e+00
 -1.1960427e-01
  2.6325005e-01
  1.1299306e+00
 -1.9640874e+00
 -4.0253043e-01
 -4.1695398e-01
 -5.8028698e+00
  3.3754695e-02
  9.6998119e-01
  5.8340514e-01
  1.3275078e-02
  1.5065380e+00
  4.4465394e+00
 -1.6557944e-01
 -3.5303708e-02
 -3.2006465e-02
 -1.0499182e-02
 -1.3001841e-01
 -1.0984903e-03
 -9.5702606e-01
  9.0114206e-02
 -1.6983443e+00
  1.1125757e-01
 -4.8079520e-01
 -2.8619754e+00
  5.5159986e-01
  5.0319606e-01
 -3.9012453e-01
 -5.1695704e-01
  2.4035201e+00
  1.2282764e+00
  1.8997343e+00
  5.2591288e-01
 -3.9425963e-01
  2.0385363e+00
  2.5310752e+00
  2.7242565e+00
  4.9111838e+00
  5.8038253e-01
  2.3724039e+00
 -1.3085366e+00
 -5.0437946e+00
  3.6762476e-01
  7.5497627e-01
  1.3040907e+00
 -4.2310813e-01
  3.4636298e-01
  2.2733204e-01
  1.9777231e-01
  1.2781276e+00
 -1.1345997e+00
 -4.3157127e-01
 -1.1903760e-01
 -9.5379673e-02
  1.4689425e+00
  6.0631329e-01
 -6.8006313e-01
 -2.1943052e+00
 -1.4943168e+00
  3.6716393e-01
  1.0948873e-01
  1.2370461e-01
 -1.4287156e+00
 -9.7102720e-01
  1.0064223e-01
  1.2397375e+00
 -2.6405592e+00
  1.0581003e-01
 -3.1880400e-01
 -7.8932538e+00
 -1.6606833e-01
 -1.5315578e+00
 -4.6363703e-04
  2.5278106e+00
  5.5663520e-01
  2.4745967e+00
  4.2417068e+00
  9.2842571e-02
  2.5704203e+00
  1.2665591e-01
 -4.0406103e+00
 -3.1050045e+00
 -1.5006582e+00
 -2.2731740e+00
 -1.5178859e+00
 -2.2838047e+00
 -3.1682868e-03
  8.2294598e+00
  1.0828115e-02
 -1.0238456e+01
 -9.6088685e-02
 -2.4970350e+00
 -7.7012569e-01
 -4.4269972e+00
 -1.9680601e+00
 -3.7640443e-01
 -1.9582050e-01
  1.8379928e+00
 -9.7295713e-01
 -2.9114875e-01
  2.9187632e+00
  4.7056280e-02
  9.4462997e-01
  3.8760140e+00
  1.3500811e+00
 -5.5967350e+00
  2.4760761e+00
  3.6249959e+00
  2.9751701e+00
  3.2376063e-01
 -4.5131853e-01
 -1.3488570e-01
 -2.4776027e-01
  1.2992748e+00
 -1.2918271e-02
  7.3868953e-02
 -2.3176301e-01
 -1.4762763e+00
 -2.7290511e+00
  2.4474462e-04
 -1.5548894e+00
  1.9750979e-03
 -2.4983372e-01
  2.1043890e+00
 -2.9088461e+00
  1.4363022e+00
  6.6506720e-01
 -6.8515115e+00
 -5.2110100e-01
  1.7232658e-01
 -1.8066750e+00
  7.3717672e-01
  3.7402303e+00
 -1.0215932e+00
  5.9068289e-02
  2.3942971e+00
  9.0991611e+00
 -2.9080582e+00
  9.2897497e-02
 -2.4650321e+00
  2.8211734e+00
 -1.3905782e+00
 -2.5318322e+00
 -1.0587163e+00
  3.1527874e+00
  3.4157348e-01
 -2.7872640e-01
  2.0879636e-02
  3.7137210e+00
 -1.4198984e+00
 -1.2210518e+00
  2.2962089e+00
 -1.6722205e+00
 -1.2328789e+00
  2.5096211e+00
  5.3472579e-01
 -1.4184338e+00
 -8.4618086e-01
 -2.7816329e+00
 -3.1625106e+00
 -1.6403871e+00
  4.6050179e-01
 -3.2239449e-01
  5.7472095e-02
 -1.0063742e+00
  1.2249230e-01
  2.6782355e+00
  7.7874321e-01
  4.4550827e-01
  1.8777043e-02
  4.0498751e-01
  2.2411603e-01
  5.5109449e-03
  7.2334684e-02
 -3.3190479e+00
  1.0540017e+01
 -1.1150260e-01
 -9.8397243e-01
  1.5423720e+00
  8.5036196e-03
  1.5492173e-01
 -2.5306671e+00
 -5.9636307e+00
 -1.1123543e+00
 -9.2010759e-02
  2.1562316e+00
  1.3292019e-01
 -7.6141052e+00
  3.9262745e+00
 -5.6426845e+00
  8.8997632e-01
 -4.3976814e-01
  9.3897808e-01
 -1.8809078e+00
  2.2965677e+00
  2.7867718e+00
 -9.7989655e+00
 -6.3874131e-01
  1.0342977e+00
  7.1878295e+00
  3.8577728e+00
 -2.0051403e+00
 -6.7868578e-01
  1.0496390e+00
  2.3056567e+00
 -1.0058291e+00
  3.9590538e+00
 -4.8099370e+00
 -2.6234448e+00
 -4.1036466e-01
  2.8734499e-01
 -3.1846771e+00
  2.5004554e+00
 -8.0584567e-03
 -4.8892196e-02
 -6.5962601e-01
 -1.4280978e+00
 -5.2052288e+00
  8.4444806e-03
 -4.5706910e-01
  8.5020121e-03
  2.1467514e-02
 -1.6801532e-02
 -1.7331472e-01
  4.3561114e-03
 -2.2003105e-02
  2.0825179e-02
 -6.1938293e-02
 -1.2524567e+00
  1.8946682e-01
 -8.8022791e-02
  1.8833590e-01
 -1.7065088e-01
  7.5494349e-01
 -2.7041495e-01
 -2.9861547e-02
 -5.5615431e-01
 -2.4301428e-01
 -4.5623186e-01
  1.1321624e-01
 -1.3513874e-02
 -1.1545371e-01
 -2.6389990e-02
 -9.4143450e-03
  3.7266037e+00
 -7.8399807e-02
 -2.8253275e-01
 -1.0052133e-01
  1.8928832e-01
 -4.4467125e+00
  3.9427143e-02
 -6.9303803e-02
  1.1908590e-01
 -2.0274030e-02
  1.9837819e-01
  4.0475398e-02
  2.8674003e-01
 -1.2756532e-01
  1.0140240e-01
 -2.7499869e+00
 -3.3535203e-01
  8.3137333e-02
 -9.0037268e-03
 -1.6972850e-01
  2.2346234e+00
  8.7516643e-03
 -6.1974473e-02
 -1.4059590e-01
 -3.8848445e-02
  1.1063112e-02
 -2.3732939e-01
  2.8155214e-01
  3.3397540e-02
 -2.2686459e-01
  2.1010937e-01
  1.8638746e+00
  1.1523296e-01
  2.8824043e-02
  9.3520127e-02
  2.6872849e-01
  4.1373909e-01
 -2.5292456e-02
 -2.6611159e-02
 -1.3238183e-01
 -6.2674683e-01
  7.9247564e-01
  5.2812368e-01
 -5.1541101e-02
  2.6297173e-02
  1.1014653e+00
 -1.8658653e-02
  2.6554337e-02
 -1.0004104e-02
  9.2920312e-04
  6.8027669e-01
 -1.3746054e+00
  1.6761777e-01
  5.1552933e-02
  4.5862406e-01
  1.1186657e-02
 -2.2210212e-02
 -2.9135264e-02
 -1.5994627e-02
  3.3462989e-01
 -1.3857219e+00
  8.8770315e-02
 -9.8531000e-02
  1.2518529e+00
  3.4213174e-02
 -1.5465363e-02
  7.0173338e-02
  2.2680572e-01
 -1.1647937e-01
  2.3725978e-01
 -1.7792229e-02
  8.7329231e-02
  3.8012441e-02
  3.5518852e-01
 -2.0315446e-01
  1.3226002e-02
  3.2038927e-01
  3.2924544e-02
 -7.0344195e-02
 -8.6634263e-02
 -5.9940577e-02
 -5.7337279e-03
  7.0194572e-02
  1.1855476e-01
  4.7989655e-02
  3.0744102e+00
  1.1862597e-01
 -3.4359325e-02
 -4.2926956e-02
  4.3889232e+00
  9.8068997e-02
  2.3270294e-02
 -4.4515830e-02
 -8.7770891e-01
  2.3293489e-01
 -1.3576961e-01
 -1.1724653e-02
 -6.3220066e-01
 -1.5799288e-01
  1.5191914e-02
 -8.6487360e-02
 -6.8953753e-02
  5.7126787e-02
 -7.8398287e-02
  5.5681814e-02
 -3.7095209e-03
  8.0807686e-02
 -1.0036790e+00
  2.0891676e-02
  5.5216536e-02
  4.4880088e-02
 -1.6826096e-01
 -2.3638068e-01
 -1.7425359e+00
 -8.3608693e-01
  4.4972394e-02
  2.7975367e-02
 -6.2883407e-02
  2.5302196e+00
  1.0297450e+00
 -8.3039450e-03
 -6.9736280e-02
  3.9866425e-02
 -3.1000400e-01
  3.0516037e-01
  1.0154226e-01
  1.0846578e-02
 -9.7177960e-02
  8.2172699e-02
 -6.6144228e-02
  4.3999229e-02
  4.1389422e+00
  1.2585186e-02
  5.9927702e-01
  4.8115997e+00
 -4.7942410e+00
 -3.9033055e+00
 -8.0600023e-02
  6.8628502e+00
 -4.0029063e+00
  6.8866777e+00
  4.8610039e+00
  4.3248839e+00
 -4.2211690e+00
  5.0323830e+00
  3.1215675e+00
 -2.8299503e+00
  4.8581190e+00
  3.2088635e+00
 -6.5258417e+00
 -4.2696800e+00
  3.9027467e+00
 -4.1197562e+00
 -3.5103214e+00
 -5.0635424e+00
  4.8487740e+00
  5.1495070e+00
 -4.9063995e-01
  3.4772091e+00
  1.1647735e+00
  4.2959061e+00
  6.4411387e+00
  2.7833295e+00
 -4.4839282e+00
 -1.3006175e+00
  1.2949106e+00
  5.9465766e-01
  4.2284660e+00
 -2.6147449e-01
  6.0597353e+00
  7.1599784e+00
 -6.8462315e+00
 -4.3746228e+00
  4.0734620e+00
 -4.8829007e+00
  4.1009412e+00
  6.4863381e+00
 -4.1434112e+00
  3.7910256e+00
  4.9628830e+00
 -2.6432855e+00
 -3.5481243e+00
  3.8293290e+00
  5.9357553e+00
 -2.6622608e-01
 -4.7691247e-01
  5.6858768e+00
 -5.3534808e+00
  2.2526686e+00
 -4.7780914e+00
  5.0133181e+00
  4.2747178e+00
 -3.2545624e+00
  6.1330361e+00
  6.5447104e-01
  2.7752099e+00
 -4.7496600e+00
  4.5193682e+00
 -5.1760154e+00
 -3.2035451e+00
  7.3872173e-01
  2.7443864e+00
 -4.9182320e+00
 -5.4106870e+00
 -4.7350516e+00
  6.4307702e-01
 -2.7410212e+00
  3.7684243e+00
  5.0501904e+00
  4.4531614e-01
  5.4217730e+00
 -3.8491957e+00
  1.3589362e+00
  4.3426504e+00
  3.6503379e-03
  4.8917785e+00
 -7.1295528e+00
  5.5593228e+00
  5.4952660e+00
  6.1593294e+00
  3.5700898e+00
  4.0225905e-01
 -4.0450180e-01
 -8.2732410e+00
  4.0405898e+00
  2.9682252e+00
 -7.5455132e+00
  2.9327447e+00
  4.3961010e+00
 -3.0186722e+00
  3.1365597e+00
  3.8946238e+00
 -3.6822858e+00
  4.6836305e+00
 -1.7698084e+01
  3.4135418e+01
  2.7334436e+01
  4.4404259e+00
 -4.5046127e+01
  2.4330778e+01
 -1.7742409e+01
 -3.1690832e+01
 -3.7478661e+01
  8.9580030e+00
 -3.9263073e+01
 -3.0116520e+01
  3.3963371e+01
 -3.6698616e+01
 -2.2240911e+01
  2.5339708e+01
  3.6978733e+01
 -1.7369740e+01
  3.9395580e+01
  3.0503725e+01
  1.6165621e+01
 -3.2385426e+01
 -2.6778269e+01
  1.8406391e+00
 -2.8709995e+01
 -1.6063955e+00
 -3.1826042e+01
 -2.8783768e+01
 -2.8046719e+01
  1.9381994e+01
  5.4657135e+00
 -2.0527804e+00
  1.0261205e+00
 -3.3239105e+01
  4.0746875e+00
 -4.1265282e+01
 -2.4198149e+01
  5.0821629e+01
  4.1650620e+01
 -2.7126143e+01
  3.3847446e+01
 -2.1217607e+01
 -2.8161486e+01
  2.2843555e+01
 -2.6086611e+01
 -3.8252907e+01
  2.4609592e+01
  2.3911613e+01
 -2.7714058e+01
 -2.7645834e+01
  2.3194988e+00
  1.3351912e+00
 -2.6699093e+01
  3.6896217e+01
 -3.1669073e+01
  2.4512722e+01
 -3.2220383e+01
 -3.0095383e+01
  2.9504051e+01
 -2.3697006e+01
 -1.7145046e+00
 -2.4137066e+01
  2.5818693e+01
 -2.1978003e+01
  2.6388561e+01
  3.0080338e+01
 -1.5106422e+00
 -3.3085220e+01
  3.1381876e+01
  2.5738949e+01
  3.4408646e+01
 -1.1446593e+00
  2.1058331e+01
 -2.4668819e+01
 -3.3336090e+01
  9.3864936e-01
 -2.3044754e+01
  2.2900042e+01
 -1.2511756e+01
 -2.1165712e+01
  5.4190934e-01
 -2.7696007e+01
  2.0067455e+01
 -1.6865175e+01
 -1.2445395e+01
 -2.8909554e+01
 -2.7276180e+01
 -2.3347464e+00
  1.1078835e+00
  2.3729753e+01
 -2.0568769e+01
 -4.0099251e+01
  3.9122467e+01
 -2.1051729e+01
 -3.5016441e+01
  3.7305801e+01
 -2.6463604e+01
 -2.6630856e+01
  2.8337841e+01
 -2.7138874e+01
  4.2252988e-02
  8.2112178e-02
  8.4014557e-02
 -1.5682138e+00
  1.7090328e+00
 -1.1785165e+00
 -9.5118126e-03
 -2.3767471e+00
 -8.8607770e-01
 -5.8738157e-02
  3.2731056e-01
  1.1818045e+00
 -1.4314890e-01
  1.3434291e-01
  5.3896192e-02
 -6.3517839e-02
 -1.3503232e+00
  1.3101743e+00
  1.8737181e-03
 -4.3571717e-01
 -6.1323442e-02
  1.1083189e-01
 -1.5471540e-01
  5.7195351e-02
  2.9923968e-02
  6.2554657e-02
  2.3096371e-02
 -1.4380677e-01
  3.8482368e-02
 -2.7397087e-01
 -2.3923177e-01
  6.5679647e-02
 -1.3801248e+00
 -2.4587743e-02
 -2.7711105e-02
 -4.3610025e-02
 -1.7779145e-02
 -4.4132462e-01
  2.7142397e-01
 -1.7785005e-02
 -4.5262426e-02
 -2.4220496e-02
 -4.0172070e-02
 -4.0451981e-02
 -1.9644365e+00
 -1.6024017e-01
  1.2295545e-01
  2.8253268e-02
 -2.2759696e-02
 -8.8664033e-02
 -6.3703001e-02
 -4.3071774e-01
  1.0460917e-01
 -4.8259512e-01
  1.3918473e-01
  5.6111842e-02
  4.6224657e-01
  6.5225738e-01
  6.7846155e-01
 -2.7816694e+00
 -9.5969804e-02
 -2.3326041e-02
  7.1839459e-02
 -1.4369613e-01
 -3.6436734e-01
 -3.6968589e-01
 -1.6467085e-02
 -1.2993763e-01
 -8.1767850e-02
  1.2692818e-01
  2.8788605e+00
 -6.8013720e-02
 -7.7119127e-02
  8.8214797e-01
 -1.4726754e-01
  3.0298062e-02
 -5.1678780e-02
 -9.7166163e-01
 -4.5619214e-01
  2.3211360e-02
 -3.1311363e-03
  1.8998815e-02
 -1.6254976e-01
 -3.6921825e-02
  4.0628772e-02
  1.4385153e-01
 -1.1661353e+00
  9.5390547e-03
  3.2594502e-01
 -5.8487400e-02
  5.2594724e+00
  6.3542366e-02
 -9.3461826e-02
 -4.4470828e-02
 -1.5065150e-01
  2.9545054e+00
  9.3305595e-02
 -3.2781765e-02
  1.8053910e-01
 -2.3210810e-03
  5.4736450e-02
 -2.8872380e-02
  6.0118312e-01
  3.6263611e-02
  5.3647682e-02
 -5.4555368e-02
 -1.2690409e-01
 -7.1949625e-01
 -2.6809928e-01
 -8.5157073e-01
 -1.8315965e-01
 -5.6482561e-02
 -6.4479254e-02
  2.5129555e-02
  3.3538759e-01
 -2.1133526e-01
  2.0975599e-01
  4.0853668e-02
  7.0827909e-02
 -1.3292308e-01
  6.3776767e-01
 -1.1026972e-01
  4.1616741e-03
 -9.6041092e-04
 -4.2336002e-02
  5.8661282e-02
  2.2002783e-02
  9.9870510e-02
  1.2884708e-01
  2.4395177e-01
  9.6041888e-02
 -6.0965318e-02
 -4.8546068e-02
 -7.9392083e-02
  2.7519214e-01
  3.2307442e-02
 -7.4572596e-03
  1.4134823e-01
 -2.6691265e-03
 -6.9601052e-02
 -1.0616588e-01
 -1.1223773e-01
 -6.4630605e-02
 -5.3527750e-02
 -3.2526360e+00
  2.4054702e-02
 -2.5341019e-02
 -2.1329187e-01
 -2.3728445e-02
  4.7442883e-02
  2.3203943e-02
  1.6788325e+00
  4.1202232e-02
  2.4108965e+00
 -1.0913862e+00
 -2.1529436e+00
  5.4826040e+00
 -3.4123716e+00
  4.5657817e-01
  1.5871011e-01
  1.5046703e-02
 -2.8941289e-01
 -3.6389023e-02
 -1.4633763e-01
  2.1233845e+00
 -5.6035943e-02
  1.4307801e+00
 -1.8928666e-01
  1.0829270e-01
  7.1360789e-02
  9.4280452e-02
  1.5076804e+00
  2.6914954e-01
  3.2428250e-01
 -9.2608728e-02
  1.1476821e+00
 -1.7476648e-01
  2.4385406e-02
  1.3759960e+00
 -1.3489032e+00
  1.8904917e+00
  6.1414337e-01
  3.2958417e+00
 -1.5852317e+00
  3.1747110e+00
 -1.4219687e+00
  3.7205629e+00
 -1.7950016e+00
  2.6257202e-01
 -2.2409914e-01
 -1.2865612e-02
  6.6879439e-01
 -1.0693797e-01
  3.9970294e-02
  2.3723115e-01
  4.6525937e-01
  3.6979374e-02
  3.7192266e-02
  5.0662145e-02
 -1.9060947e-02
 -1.0356766e-01
  1.9326732e-01
 -4.9791731e-02
 -2.7736324e-01
 -1.5535147e-01
 -1.7281508e-01
  1.4641678e-01
  5.3209993e-03
  4.3208413e-02
 -1.6870594e-01
 -1.1990836e-01
  2.5207966e-03
 -1.0555081e-01
  1.8419395e-01
  3.2975182e-02
  6.5959156e-02
 -2.8422251e-01
 -3.6790092e-02
  2.9717185e-02
 -2.1533217e-01
 -1.9952054e-01
  1.6303468e-01
 -6.7920638e-03
  1.9570657e+00
  1.6624048e-02
 -6.8314694e-02
  1.4110816e-01
 -6.6379994e-02
 -1.0284353e-01
 -2.8235385e-01
 -1.8977622e-02
 -1.1729749e-01
 -1.0613693e-01
 -2.0678551e-01
 -1.6785491e-01
  5.8135009e-01
  1.7433454e-01
 -9.9332578e-02
 -8.9130864e-02
  2.1955642e-01
 -4.9615756e-02
  1.2930802e+00
  1.3833733e-01
  2.9563172e-02
  7.0491038e-02
  1.4154236e-02
  8.9943215e-02
  1.7732350e-02
 -1.0384756e-01
 -8.6440966e-02
 -8.8386260e-02
  9.2549480e-02
 -8.3394721e-02
  1.0492673e+00
 -2.0925812e-01
  3.2486341e+00
 -1.0829767e+00
  1.6658920e-01
  3.2773784e-01
 -4.0002617e-01
 -1.1064569e+00
 -7.8779688e+00
 -3.3427608e-01
 -1.9150196e+00
  8.4001074e+00
  8.0899864e-01
  1.6493694e+00
  5.9076557e+00
 -3.2394183e+00
  1.2581018e+00
  1.0005798e+00
 -2.7921587e-01
  2.9259281e+00
 -5.2862722e-01
  7.5053296e+00
 -6.2042874e-01
 -2.3562703e+00
  6.3302040e-02
  1.5390988e-01
  1.9808428e-01
 -1.1123729e+00
 -5.3005624e-01
 -2.3340724e+00
  1.5063450e+00
 -2.7616947e+00
  2.2618403e+00
 -1.8335993e+00
 -6.6187811e-01
  8.2608885e-01
 -1.0195511e-01
  3.9201997e-02
  5.8602524e-01
 -5.0159633e-01
  1.5997674e-02
  7.4901623e-01
  6.0214895e-01
  4.0034005e-01
 -7.3312178e-02
 -5.4516021e-02
 -4.8732385e-02
  4.9738441e-02
  3.9355922e-01
 -1.2585244e-01
  9.6281476e-02
  3.5719392e-01
  5.0865431e+00
  7.5752623e-02
 -2.6942885e-01
 -2.2160153e+00
  7.2331943e-02
 -2.5705276e-02
  4.0597925e-01
  1.7013526e+00
 -2.6668063e-01
 -1.4032180e+00
 -2.1088582e-02
  1.8890145e-01
  1.2689806e-03
  2.6004238e+00
 -2.9747235e-02
  2.3961993e-02
  1.1465320e-02
  5.9658822e-02
  5.6572869e-02
  1.3367212e-01
  1.4940508e-01
  2.3058772e-03
  9.0868928e-02
  2.9898021e-01
 -6.8734442e-03
 -2.3610337e-02
 -1.2918511e-01
  3.4111816e-01
  1.2311287e-01
  1.6031182e-01
 -9.6953504e-02
  1.3518460e+00
  2.5645766e-02
 -4.2818263e-02
  8.7584555e-02
  5.5483226e-02
  7.5614125e-02
 -7.3441416e-02
  4.6220779e-02
 -1.9472961e-01
 -8.7568499e-02
  1.4069218e-02
 -7.6576811e-03
 -5.9216406e-02
 -2.2363134e-03
  1.0720936e-02
  1.4380173e-01
 -7.2020113e-02
 -2.6008895e-01
  2.5565860e-01
 -5.8817439e-02
 -2.5870340e-02
  2.3727159e-01
 -2.7282823e-02
 -4.1112993e-02
 -2.6973253e-02
 -3.6831307e-01
 -8.9657925e-02
  9.1178633e-02
 -1.7682990e+00
  6.3285166e-01
 -1.6141485e+00
  4.0745057e-02
 -1.4513107e-01
 -6.3586161e-02
 -5.8358412e-02
  6.2891357e-02
  4.8595183e-02
  2.3973571e-01
 -1.9835021e-01
 -3.2471844e-03
 -2.8235444e-01
 -2.2671567e-02
 -5.8143426e-02
  2.2715079e-02
 -5.5747230e-02
 -3.6543619e-02
 -2.6020676e-02
 -7.8847088e-02
 -5.0502666e-03
 -3.7508991e-03
 -2.4240105e-03
  5.7152297e-02
 -1.1040418e+00
  1.5086724e-02
  3.2503471e-02
 -7.5874524e-03
 -1.6003144e-01
  9.3356473e-03
  4.2918736e-01
 -2.4677396e+00
  2.5557181e-01
  1.4222570e-02
 -1.5006571e-01
 -2.2573388e-01
 -3.6545716e-02
  1.6442192e-01
 -1.4629672e-02
 -4.8214912e+00
 -3.1853218e-02
 -3.4800479e+00
  1.7601039e-01
  3.6595881e-01
 -1.1906588e+00
  1.9607787e-01
 -1.8579394e-01
  1.4140695e+00
 -7.4472874e-01
 -1.3762556e-01
 -1.1796932e+00
 -2.2674794e+00
  1.9256322e+00
  2.1985328e+00
  6.1569109e+00
 -1.0240785e+00
 -1.5808064e-01
  1.9043802e+00
  5.7358823e+00
 -3.2730310e+00
 -1.1548747e+00
  1.6314501e+00
 -5.4388170e+00
  2.6444367e-01
 -1.1617316e+00
  2.0668018e+00
 -4.4961920e+00
  3.6285784e-02
  2.4199140e+00
 -1.7277701e+00
  1.0185055e+00
 -1.2502722e-01
 -3.1891486e-01
  4.0341574e-01
  8.2961454e+00
 -4.0955523e-01
  1.0202235e+00
 -3.3882895e+00
  7.3432386e-01
  8.2399565e-01
  2.6342759e+00
  2.0216194e-01
  1.4158386e+00
  1.9953743e+00
  5.4069974e-02
  3.3630542e-02
  3.0307649e-02
  4.1975365e-03
 -5.4703541e-02
 -2.4730116e-01
 -6.5376773e-02
 -8.0233626e-02
 -1.3898122e-03
  1.4897372e-01
  1.0899410e-01
  6.1265983e-02
 -7.9930231e-02
  5.8680873e-02
 -9.3494982e-02
 -1.9594936e-02
  3.8379297e-02
 -2.9854801e+00
  2.3715835e+00
 -8.1796579e-02
  1.0727051e+00
  3.3257704e-02
  6.0252644e-02
  4.5403022e-02
 -1.4682183e-01
 -2.0953942e-02
  1.6571584e-01
 -1.0393938e-01
  8.2039006e-02
  1.1468619e-01
  8.7680947e-03
  6.6765569e-02
 -1.0794472e+00
  1.6496895e-01
 -5.3291202e-02
  6.3216001e-01
 -1.9965987e-01
 -6.2796509e-01
  4.2218361e-02
  2.5739637e-01
  3.8881704e-01
 -2.5301608e-01
  6.2230098e-01
 -8.3049886e-02
 -6.9555843e-01
  6.3881770e-02
  1.7842700e-01
 -5.6174017e-02
  1.4249830e-01
  5.7751250e-02
  3.5423882e-02
  7.5448208e-02
 -6.4749554e-02
  4.1932631e-01
  5.4536227e-02
 -1.5489969e-01
  3.1987277e-01
 -1.2650038e-01
  9.1895230e-02
  1.4139226e-01
 -5.7604190e-02
  1.1983621e+00
 -7.4909419e-02
 -3.2144990e+00
 -1.0744330e+00
  2.6750736e-02
  6.2878621e-01
  2.0203292e-02
  2.2724546e-02
  5.9384070e-02
 -1.7893109e-02
  7.3755890e-02
  2.1835403e+00
  1.5094091e-01
  1.9457830e-01
 -2.7364762e-02
 -5.7408631e-02
  7.4017435e-02
  3.0370956e-02
  1.9767358e+00
  1.3014621e-01
 -2.8909817e-01
  4.3753445e-02
  1.2887280e-01
 -7.8923680e-02
 -1.1462505e-02
  7.8233220e-03
  2.3699188e-01
  2.4301468e-01
 -2.0510609e+00
 -2.0549679e-03
  7.0730910e-02
 -4.6041269e-02
  3.0627450e-01
 -3.0827862e-01
 -1.3204045e+00
 -4.3372676e-02
  1.3303835e-02
 -3.1385254e-02
  9.2844397e-02
 -1.1045986e-02
  1.0586977e-01
  5.6555193e-02
 -9.8330013e-02
 -3.6366876e-02
  2.2624254e-02
  3.0417311e-01
  1.0878010e-02
 -1.5834156e-01
  2.1761204e-01
 -1.5181366e-01
 -1.0988747e-01
  3.5117328e-02
  2.4471586e+00
 -1.4737651e+00
  1.9149981e+00
 -3.8320780e+00
  2.6805313e+00
 -1.6337118e+00
 -4.4407034e+00
 -7.3848563e-01
 -1.5161294e+00
 -2.1422663e+00
 -1.0900457e-01
  7.0376402e-01
  1.8207626e+00
 -3.4667997e+00
 -3.9095372e-01
 -3.2309275e+00
  1.1428946e+00
  4.4160438e+00
  3.4724641e-01
 -1.4421210e+00
  4.3626356e-01
 -1.2648531e+00
 -8.3376169e-01
  5.1578230e-01
  1.7801369e+00
 -2.6292424e+00
  2.0187233e-01
  3.3844500e+00
  3.7733853e-01
 -4.5914203e-02
 -6.1357570e+00
  1.8885818e+00
  1.3758482e-01
  1.6140884e-01
  1.6150708e+00
  1.0712948e-01
 -2.8625162e+00
  1.8054059e+00
  1.1718937e+00
 -2.7403595e+00
  1.6431395e+00
 -4.8338351e-01
 -2.1713965e+00
  6.5567762e-01
 -1.5037972e-01
  1.3815336e+00
 -5.4721104e-04
  2.7213186e-01
 -1.5738459e-01
  1.0693020e+00
  1.1283519e+00
 -7.7085567e-01
 -2.8582270e+00
 -1.6101637e+00
  4.3365672e-02
  3.5247181e-02
  1.4059857e+00
  5.1739621e-01
  2.5425658e+00
  3.7242362e+00
  2.5874026e-02
 -4.3222755e-01
  2.5903510e-02
  1.5062264e+00
  1.9381290e-02
  1.5476858e-02
  4.4987073e+00
  1.9398955e+00
  7.3836875e+00
  1.2989589e+00
  9.7649690e-04
  2.4368053e-02
 -1.9408613e+00
  1.9116243e+00
 -1.7151897e+00
 -1.8966004e+00
  3.9738517e+00
 -2.1304171e+00
 -1.4645072e+00
 -2.5507752e-02
  1.1560345e-01
  2.0182413e-01
 -5.3493476e-01
  2.8668201e+00
 -4.4173946e+00
  2.8179140e+00
  1.3146549e+00
  5.2523844e-02
 -3.0057904e-01
  2.2015147e+00
  8.6079985e-02
  7.2747952e-01
  1.1904884e-01
  5.3640139e-01
 -7.5013763e-01
  7.0143439e-02
 -2.6302524e-02
 -1.7800726e-02
  1.8582521e-02
 -2.3402262e-02
 -5.6920177e-01
  1.5655499e-02
 -4.9768630e-01
 -8.1786281e-01
  1.4079966e-02
 -1.5661299e-01
  1.1136948e-01
 -1.8275447e-02
 -1.7724763e-01
  1.2679831e-02
  5.4481047e-01
  3.1649660e-02
 -2.6529826e-02
  9.2798375e-02
  1.8220040e-01
 -1.2651993e-01
  2.0590000e-02
 -1.2796649e-01
 -5.5831976e-02
  1.6594685e+00
  1.7504695e-01
  1.3953303e-01
  1.9290574e-02
  8.7607838e-02
  1.9368154e-04
 -1.0692245e-01
  4.3558322e-02
  1.5472194e+00
  3.4872327e-02
  2.8838894e-01
  4.8725781e-01
  1.7553166e-01
 -2.1029830e-02
  2.7578256e-01
 -1.0690996e-01
 -1.3241930e-01
  5.6364806e-03
  1.0472349e-01
  8.8953130e-02
  9.9533498e-02
 -1.5842022e-02
 -5.8805563e-02
 -2.0127693e-01
 -4.8382528e-02
 -7.0221550e-03
  1.5158212e-01
  2.5618074e-02
  3.3648250e-01
 -2.4413155e-02
  1.4328936e-02
  2.1370713e-02
  4.1568540e-02
 -3.7838513e-01
 -2.8867793e+00
 -2.9199800e+00
  2.2934900e-01
 -8.2494700e-01
  3.2061915e+00
 -8.3369896e-02
  7.4356270e-01
 -4.7253704e-01
 -1.2140018e+00
  1.0585330e-02
  3.9422188e+00
 -2.2671978e+00
  2.7655680e-02
 -9.1323450e-02
  1.4791360e-01
  2.2560772e-02
 -5.4396386e-03
 -2.3673281e-02
  4.6232692e-03
  5.8043502e-02
 -1.0490668e-01
  3.5350166e-02
 -1.8319348e-01
  5.7553506e-01
  6.0793802e-02
 -7.1981974e-02
  5.6074698e-02
 -1.3094476e-01
  5.3052402e-01
 -7.9119420e-01
 -9.6196949e-02
 -5.6169603e-02
  2.4887154e-02
  4.5796502e-01
 -7.5051733e-03
  7.9628810e-02
 -2.3102057e-01
  4.3854055e-01
  4.2121291e-01
 -1.9222903e-01
  8.8498872e-03
 -4.6906017e-02
  3.4272640e+00
 -7.5599745e-02
  1.2616260e-02
  4.7496915e-02
  9.2322074e-02
  7.9493023e-02
  3.0696678e-01
  6.3871586e-01
  9.5515050e-02
  3.0365285e-02
  2.8079864e-02
 -1.8255192e-01
  1.6446938e-03
 -1.7778667e-02
 -1.5179354e-01
 -2.9363346e-01
 -5.0157096e-02
  5.1188421e-01
 -3.8325610e+00
  2.6623249e+00
 -4.4688720e-02
 -1.3712326e+00
 -6.1601914e-02
 -6.4685486e-02
  2.3199930e+00
 -1.7325960e-01
 -1.2760365e-01
 -3.3958241e-01
 -4.9573860e-01
  4.6101354e-02
  1.1169717e-01
 -1.0319392e-01
 -5.1577650e-02
  2.7986628e-01
  5.6163579e-01
  8.5581958e-02
 -3.4627759e-01
 -4.0657609e-03
  1.8337539e-01
  5.7732582e-02
  7.8701711e-01
 -1.3612443e-01
 -6.5019876e-02
 -1.3755536e-01
  4.8301845e+00
 -7.5714076e-01
  1.2195747e-01
 -2.7706943e-02
  2.7421979e-02
 -3.4732145e-01
 -2.0628591e-01
 -6.5284930e-02
 -2.4527451e-02
  2.1252714e-01
 -2.4248073e-02
 -2.6126322e-01
 -1.9878180e-01
  1.6903879e-01
 -2.7847576e-01
  9.6372403e-02
  4.3650174e+00
 -5.7611332e+00
  7.7933602e+00
  2.5003018e+00
 -8.1961222e+00
  7.7342954e+00
 -5.3731718e+00
  7.8433445e-03
  6.0242071e+00
 -3.1517182e-02
  7.3800519e-02
  6.8627119e-01
  1.5985844e+00
  6.5391475e-01
  2.1627882e+00
  1.7962648e+00
  5.9537995e-01
  2.9337769e+00
  1.0962366e+01
  5.9552944e-01
  4.7870210e-01
  1.5511183e+00
  2.5973377e+00
 -6.9295973e-01
 -2.4997895e+00
  1.3593898e+00
 -1.1785411e+00
  4.9444790e+00
  2.5007243e+00
  3.2805681e+00
 -1.7634583e+00
 -2.9374206e-01
  4.8995924e+00
 -2.1060534e-01
 -6.1026645e+00
 -8.0791003e-01
  6.6630626e+00
  2.4919620e-02
 -1.7338785e+00
  3.7859011e+00
 -9.6294338e-01
  2.1788497e-01
  4.9156332e+00
  5.4011756e-01
  1.6858792e+00
  1.9194244e-01
  2.1529073e-02
 -8.5651554e-02
 -5.8782067e-02
 -1.0683519e-01
 -2.0536076e-01
  1.7937599e-01
 -1.6119775e+00
  6.9913462e-02
  2.3096520e-01
 -5.0986385e-01
 -9.1440141e-01
 -3.8176531e-01
 -1.1642379e+00
 -9.4810694e-01
  5.4478522e-02
  3.1418020e-01
  4.9199935e-02
 -8.4632196e-02
 -8.9196496e-02
  5.6682312e-01
 -1.1026978e-01
  6.2603438e-03
 -4.8497953e-03
  5.0728014e-03
 -1.7176864e-01
 -1.2436397e-01
  1.8292098e+00
 -4.8442621e+00
  4.3972727e-02
 -4.0246829e-01
 -2.1076822e-01
  6.6697997e-01
 -6.7167051e-02
  8.6332703e-01
 -8.2115218e-02
  1.3915895e-02
 -6.8355091e-02
  2.1293029e-01
  1.1974292e-01
 -6.9582351e-02
  2.3807764e-01
  3.2396540e-02
 -2.2218771e+00
 -7.3618726e-03
  4.3527815e-02
  5.8053535e-01
 -5.5410307e-02
 -4.7293797e-01
  1.2093102e-01
 -7.0416570e-02
 -4.2838898e-02
 -8.1390567e-02
  4.6588235e-02
  1.5846050e-01
  5.6861973e-01
 -9.4773017e-02
 -2.3122470e-01
  3.0717361e+00
 -2.9609799e+00
  1.5535668e+00
  1.7603757e+00
  9.7125489e-01
  4.1308608e+00
  5.0678241e-01
  2.5492135e-01
  4.6580768e+00
  3.9584184e-01
 -4.5190391e-01
  9.0459362e-02
 -5.2126762e-02
 -2.1320946e+00
 -3.0840573e-01
  2.0600574e-02
  5.5302224e+00
  4.3388441e-01
  1.2531810e-01
 -4.0132165e+00
 -3.1484647e+00
  9.3531823e-01
  7.2267964e-03
  5.2437729e-01
 -6.9610423e-01
