nep4_zbl 2 O Ga 
zbl 1 2
cutoff 6 4 418 127
n_max 8 6
basis_size 12 10
l_max 4 2 1
ANN 100 0
 -3.3464077e-01
 -6.1502561e-02
 -1.9685270e-01
 -1.9906328e+00
  1.0398728e-01
 -9.7159997e-02
 -6.6339232e-02
 -6.8465285e-02
 -1.1455603e-01
 -1.3100450e-01
  2.2685716e-02
  1.8591614e-01
  2.3084611e-01
  1.0367123e-01
 -9.5006102e-01
 -7.1474105e-02
  3.9226213e-01
  8.9403659e-02
 -5.6825195e-02
 -1.0901435e-01
 -4.4176083e-02
 -4.1335858e-02
 -8.3968744e-02
 -7.2091840e-02
  2.4104504e-01
 -3.2205094e-02
  2.6018587e-01
 -8.7811500e-02
 -3.8013916e-02
  1.2166529e-02
  1.4197429e-01
 -1.3489190e+00
  2.0513420e-01
 -4.9339509e+00
 -7.8258049e-03
 -2.5146743e-02
  1.1905065e-03
  8.9368843e-02
 -9.2688493e-02
  2.8684478e-02
  2.6746795e-01
  1.6232820e-03
 -1.1755893e+00
 -8.4776916e-02
 -3.6498398e-02
  2.6474942e-02
  6.1618205e-02
  1.3543563e+00
  4.0291967e+00
  1.8558756e-02
 -1.1177866e+00
  6.8311948e-01
 -3.5867760e+00
  7.4391918e+00
 -4.2110348e+00
  1.2004933e+00
 -7.9796559e-01
  2.0920386e+00
  6.4701110e-01
  2.1765299e+00
 -8.0803372e-02
  1.6914587e+00
  3.2454214e+00
  4.4325274e-01
  3.7234923e-01
  4.6337538e+00
  6.4962333e-01
 -2.5222170e-01
  7.3323083e-01
 -1.6854206e+00
  4.5619416e+00
 -5.4214424e-01
 -1.4412311e+00
  4.0137866e-01
  1.5783098e+00
 -2.7427063e+00
 -1.9448068e+00
  1.9665987e+00
  2.3224888e+00
 -1.0120380e+00
 -1.5726823e+00
 -2.9625931e+00
 -1.3948166e+00
  7.6251084e-01
  2.2598019e+00
 -1.9239687e+00
  2.0826435e+00
 -1.1565372e+00
  2.7651885e-03
  5.5531204e-01
  2.7204616e-02
  1.0891139e-02
 -1.0848929e-01
 -2.0178890e+00
  2.1063110e-01
  7.7689007e-02
 -2.6938879e-01
 -9.3017742e-03
 -1.4031664e-01
 -1.5326142e-01
 -8.5831143e-02
 -2.7335262e-01
 -2.4878880e-01
 -1.9932438e-01
 -4.6218422e-01
  2.8872287e-02
 -1.5429607e-01
  1.9866597e-02
 -3.9521000e-01
 -5.7041717e-01
  2.7398217e-01
  1.1755588e-02
 -6.5986261e-02
 -1.1436360e-01
 -5.0672263e-02
  1.5202902e-01
  6.7769200e-02
  1.9356772e-02
 -3.5389367e-02
  2.3163779e-01
 -5.1200181e-02
  1.9798952e-01
 -5.0917875e-02
 -1.6567107e-02
 -4.7094837e-02
 -6.4095074e-01
 -4.7769226e-02
  4.2316392e-02
  7.7244215e-02
 -6.4363838e-03
 -1.2075104e-02
  1.6665148e-02
  2.5895879e-01
  7.0418596e-02
 -2.4383953e-02
 -7.2686785e-01
 -2.7553648e-01
  3.1385034e-02
  2.2663064e-02
 -3.0535829e-01
  2.2470051e-02
 -4.0358796e+00
  7.3744550e-02
  2.0158844e-02
  3.2379948e-02
  5.4967064e-02
 -1.7148968e-02
  4.6026010e-02
  5.1626496e-02
  2.4573270e-02
  5.5846252e-02
  4.5977119e-02
 -1.6412643e-01
 -2.1102715e-01
 -3.7641013e+00
 -5.9083028e+00
 -2.9493329e-01
 -1.2833965e+00
 -1.1762329e+00
 -9.8862588e-01
  1.0816038e-01
 -1.4334135e+00
 -1.8384196e-01
  3.5456421e+00
  3.1115424e-02
 -4.2035279e+00
  9.3146592e-02
  3.2387483e+00
  7.2946161e-01
  1.2909607e+00
  4.6511772e-01
 -3.4230760e-01
  1.2172076e+00
 -2.2143885e-02
  2.7240486e+00
 -1.3394792e+00
  3.0343902e+00
 -6.6381685e-02
 -1.0832733e+00
 -1.0675557e-01
  6.6688973e-01
  4.5625147e-01
 -3.2986374e+00
 -1.2241347e+00
 -1.6227777e+00
 -3.1067414e+00
 -8.9043844e-01
  1.2685440e+00
 -1.0840396e+00
  7.4821168e-01
 -1.9249205e-02
  2.5799739e-01
 -4.5908609e-01
 -2.2816265e+00
  6.7553565e-02
 -2.6896861e+00
  7.6301819e-01
 -1.2928310e-01
 -1.6419280e+00
  8.1281587e-02
  3.4187502e-01
 -7.5111650e-02
 -2.7022660e-01
  4.4779599e-02
 -1.9681719e-01
 -3.6513783e-02
  4.7395763e-01
 -3.5167843e-02
  2.6913863e-02
  1.4287276e+00
  1.1832650e-01
 -1.1363521e-01
  9.4860964e-02
  5.7435106e-02
 -1.0395014e+00
 -6.3742787e-02
 -9.7032905e-02
 -7.6907448e-02
  5.5704057e-02
 -6.6010512e-02
  9.7722404e-02
 -1.0180103e-01
 -4.1257367e+00
  9.5095642e-02
  1.2716833e-02
 -2.3898624e-02
  1.3309197e-01
  8.7959014e-02
  1.7321597e-01
 -9.9313492e-01
 -1.4438767e-02
  2.4536791e+00
  1.1490248e+00
 -5.2095789e-02
  1.3060179e-01
  1.0666829e-01
  1.5306382e-01
  2.5477761e-01
  6.1679944e-02
 -5.1697079e-02
 -1.7492013e-02
  7.2485283e-02
 -3.9681867e-02
 -2.9692066e+00
  1.6837734e-01
 -1.0054691e-01
 -5.7795960e-02
  1.5229605e-01
  1.3964650e-02
  1.6861141e-02
  1.1397155e-01
  8.9986108e-02
 -5.2323800e-02
  7.4419297e-02
  2.3487760e-02
 -3.4424728e-01
 -1.2268929e+00
  1.1454244e+00
 -7.2226964e-02
 -6.2570237e-02
 -3.4649644e-02
  2.0368116e+00
  2.5361115e-01
  1.2672578e-01
 -2.7905297e+00
 -1.3526715e+00
  2.2529107e-02
 -1.5549973e+00
  1.0172595e-01
 -2.5186594e+00
 -1.3513649e-01
 -1.9859630e-01
  5.8119857e-01
 -2.9089909e-02
  1.0719255e+00
  2.9182693e-01
 -1.4952755e-01
  1.1280226e-01
 -2.9876259e-01
  2.5566766e-01
 -2.8579316e-01
  5.9168524e-01
 -1.3839720e+00
  8.2582349e-01
 -1.2851493e-01
 -8.9357138e-02
  9.2347580e-01
 -5.3139232e-02
 -1.3085835e-01
 -2.8201228e-01
  1.5004554e-01
 -4.1462768e-02
  2.7750596e-02
  5.6057298e-01
 -3.8884324e-01
 -1.7374024e-01
 -9.6974790e-02
  3.8579731e+00
 -1.4071621e-01
  1.7691319e-01
  7.1237284e-01
  2.8552804e+00
  1.5069685e+00
  6.6776462e-02
  1.5330154e+00
 -1.1935051e-02
 -5.8137435e-01
  7.8342648e+00
  1.7933241e+00
  1.3303429e+00
 -2.5891719e+00
 -5.7119241e+00
 -3.9437559e+00
 -4.5734817e-01
  4.9731021e+00
  1.4139626e+00
 -3.2933414e-01
 -5.4854007e+00
 -3.1623405e-01
  3.7538138e-01
 -1.2515664e+00
  2.7404473e+00
 -2.3429766e+00
  8.1296797e+00
 -8.0163898e+00
  3.2531213e-02
  4.4453645e+00
  9.1388476e-01
 -2.9622889e+00
 -2.2338758e+00
 -2.5567067e+00
  5.8370184e-02
 -3.2777209e+00
  1.4458245e+00
  2.5658557e+00
  5.6387120e-01
  7.9545373e-01
 -1.1903579e-01
 -1.1244314e+00
 -1.0097722e+00
 -1.3375971e-01
  9.3552776e-02
  5.7156787e+00
 -1.1015401e+00
 -3.0782366e+00
 -8.6778365e-02
  2.3249567e+00
  6.7105144e-01
 -2.9524734e+00
  1.1828353e+00
 -8.8756196e-02
  7.3375635e-02
  1.4983410e+00
  4.7611356e-01
 -1.3143814e-01
 -5.3596145e-01
  2.8527269e-01
  8.4243498e+00
 -6.8342819e+00
  1.3558166e+00
 -5.1841918e-02
  2.6323116e+00
  7.3177333e+00
  2.8611283e+00
 -9.0633464e-01
 -6.6324943e-01
 -5.2586064e+00
  3.1283684e+00
  8.8719044e+00
 -1.0784749e+00
  2.3914068e+00
  7.9533333e-01
 -3.3977511e+00
 -3.6487386e+00
  1.0343541e+00
  5.7714562e+00
  1.0924096e+00
 -7.8468740e-01
  1.4229623e+00
 -1.5820662e+00
  2.5753134e-01
  6.9062817e-01
  6.6439193e-01
  3.1162810e+00
  4.5506492e+00
 -1.0012840e+00
 -2.5074565e-01
  3.1641104e+00
 -3.9781681e-01
  1.0052527e+00
  3.3358335e+00
  3.3307377e-01
  1.2518795e+00
 -1.2452029e+00
  1.4152211e+00
  1.8033665e+00
 -3.5605628e+00
  9.4368070e-01
 -4.0870810e-01
 -6.2108153e-01
 -7.7360725e-01
 -2.0779271e+00
 -1.2215831e+00
 -2.2149729e-02
 -5.4534883e+00
 -3.3941034e-03
 -4.4961745e-01
 -7.5742349e-02
 -1.3708630e-01
  1.8589054e-01
  2.7554343e+00
  2.5951687e-01
 -8.1399389e-02
 -1.2219380e-01
  1.9073851e-03
 -3.1055320e-02
  4.7117284e-01
  1.3703069e-01
 -3.2411959e-02
 -2.0220862e-01
  7.1467507e-01
 -9.0677059e-01
  3.9050964e-01
  2.2393882e-02
 -2.2568509e-02
 -1.1332481e-01
  7.6712213e-02
  5.8104157e-01
  3.6424607e-02
  2.1901881e-02
 -1.6723414e-01
 -1.0324894e+00
 -1.8563494e-01
  8.1433460e-02
  4.2267498e-01
 -1.9105881e-01
  2.3288178e-01
  3.5797089e-02
 -4.0564328e-03
 -7.6961505e-01
  3.9025387e-03
  1.3569142e+00
  8.3654732e-02
 -3.7104483e+00
  2.9359704e-01
  6.2511824e-02
 -2.2604821e-02
  1.6706888e-02
 -2.0598075e+00
 -1.6163775e+00
  1.3057183e+00
 -1.4687389e-01
 -9.1631278e-02
  5.9674170e-02
  3.4419831e-02
  3.0214962e-01
 -8.9888237e-02
 -1.1407727e-02
 -5.5761260e-01
  2.1631646e-01
 -6.5122992e-01
  4.3133900e-02
  3.0872029e-01
  1.1203893e-01
  1.7388638e+00
  1.6906762e-01
  1.0334202e+00
  6.6342756e-02
 -3.6745000e-01
 -2.5583622e-01
 -8.2924455e-02
 -6.2798768e-01
 -9.2129874e-01
 -4.1007857e+00
 -8.4784351e-02
  6.2422357e-02
  5.9823459e-01
 -6.4672902e-02
  1.1564035e+00
  6.1514460e-02
  1.9715379e-01
  1.5269431e-01
  1.5353593e-01
  5.6206204e-02
 -1.6315384e-01
 -1.3099657e+00
  3.4856197e-01
  3.8059056e+00
  1.4797010e-03
  1.0184291e-01
  9.4968843e-01
  2.0305188e-02
 -1.0503621e+00
 -1.1022427e+00
  8.1122911e-01
  7.6589388e-01
  1.4306844e-02
  3.5032597e-01
 -1.9895855e-01
 -2.1179247e+00
 -3.4253773e-01
  4.4101214e-01
  1.0736088e-01
  1.5589295e-02
  5.7997968e-04
  1.0928268e-01
  1.1876982e-01
 -2.8314590e-01
 -5.6745052e-01
 -3.7607527e+00
  2.4608107e+00
  2.2893816e-02
 -2.0826542e+00
  4.6214514e+00
  5.2119178e-01
 -2.0225961e+00
  2.0877135e+00
  5.0613642e-01
  4.3879547e+00
 -1.1622348e-01
 -2.3107853e-02
 -3.4456539e-01
 -1.4442648e-01
 -4.3519616e-01
  2.8740017e+00
 -1.1203514e+00
 -1.1339380e+00
  1.2457660e-01
  2.1941511e-01
 -8.3647597e-01
  1.1413711e+00
  1.8888446e+00
 -2.2477467e-01
 -1.5859184e-01
 -1.7935477e-02
  3.1450906e+00
 -1.8950834e+00
 -3.4593830e-01
  1.1763200e+00
 -5.9425032e-01
 -2.3419828e+00
  1.9059250e-01
 -1.7039818e-01
  1.9378343e+00
  1.5583901e+00
  1.3473122e+00
 -1.8850431e-02
  1.9483855e-02
 -8.7166235e-02
 -8.3390154e-02
 -1.0528351e-01
  4.5526292e-02
 -7.1887672e-02
  3.5571784e-02
  2.5560343e-01
 -4.6373866e-02
 -2.4641369e-02
  5.7774074e-02
 -9.9416338e-02
 -2.2827074e-01
  8.5845299e-02
 -6.3405290e-02
  7.0153497e-02
  5.0934684e-01
  1.0985240e-01
  1.3021131e-01
 -1.4626281e-01
  2.4508730e-02
  1.8554801e-01
  3.7962731e-02
 -1.3398914e-01
  1.1804025e+00
 -1.6010765e-02
 -1.4870994e-01
  1.5878448e-02
  3.4029976e-01
 -4.2108752e-02
  8.1149250e-02
  3.4454767e-02
  1.4679171e-02
 -3.0491480e-01
 -5.8946814e-03
  2.5499867e-02
  2.5602126e-01
  2.1439874e-01
  4.2249735e-02
  2.1539640e+00
  1.0964484e+00
  1.2026124e-03
  1.9794051e-01
  5.2329447e-02
  1.1199291e-01
 -2.4461630e-04
 -3.9545648e-02
  9.5469855e-02
 -9.7071074e-02
 -4.4018400e-01
  1.1601797e-01
  1.4569737e-01
  3.8766015e-02
  4.4231877e-02
  5.4541435e-02
 -9.5569897e-01
  1.5964407e-02
 -1.8995622e-02
 -7.2583437e-02
  1.1738158e-01
 -8.2410388e-02
  1.5052016e-01
  4.2195052e-02
 -1.5856020e+00
 -1.1483375e-01
 -1.7010382e-01
  1.3772240e-01
  1.6596746e-01
  6.1986715e-02
 -8.5106798e-02
  1.3363363e-01
 -3.3336289e-02
 -1.4968620e-01
 -1.7652415e-01
 -3.0430120e-01
  1.1001210e+00
  7.1745142e-02
  3.4486219e-02
 -2.0599589e+00
  7.4337168e+00
 -5.1437337e-03
 -3.9097986e-01
  2.1394265e+00
  4.9357254e-02
  7.6821381e-01
 -1.5522175e+00
 -4.4331127e-01
 -3.7127182e-01
  8.7386990e-01
  9.1250375e-02
 -2.5637332e-01
 -1.5891528e+00
  2.2300297e-02
 -6.9430375e+00
  2.6714465e-01
 -1.1754469e+00
  4.6761101e-03
  1.0186348e-02
 -1.2096427e-03
 -2.6527259e-01
 -6.0747004e+00
  7.0895648e-01
 -5.0501391e-02
  1.1933531e+00
 -2.6966248e-02
 -1.3102807e-01
  5.3528704e-02
 -2.0822985e+00
  6.1418351e-02
 -9.5480435e-02
 -2.2187987e-01
 -9.6778221e-02
  3.2097194e+00
  4.1959226e-02
 -8.6934841e-01
 -2.4741217e-02
  1.6392212e-02
 -3.9725102e-02
  2.0408840e-01
  1.1981635e-02
  7.2254354e-01
 -8.5941754e-02
  6.8091117e-02
  1.0174329e+00
  3.3086750e-01
 -4.2351606e-01
  3.9333743e-01
  3.5104085e-02
 -8.3029017e-02
 -9.4538257e-02
  5.8726013e-01
  5.0395075e-02
 -1.1570557e-03
 -1.3759442e-01
 -5.4549668e-02
  3.1076255e-01
  5.0467346e-03
  3.5451423e-02
  1.0275890e-02
 -1.1349393e-01
  1.8231824e-02
  6.2472686e-02
 -1.0259156e-01
  7.3261440e-02
 -1.6424214e-02
  7.1808666e-02
 -2.3653800e-02
  5.6938231e-02
 -5.9188943e-02
  1.4519380e+00
 -4.2982727e-02
  7.0776925e-03
 -1.9112904e-01
 -1.6522013e-01
 -3.7271891e-02
  4.0122807e-01
 -7.0177555e-02
  1.1329509e-01
 -1.6804059e+00
 -6.7217150e-03
 -2.8088444e-01
  3.7297329e-01
 -6.8148576e-02
  2.2838111e-01
  3.6836755e-02
 -1.4515705e-01
  2.3214638e-01
  2.4460087e-02
 -2.4528129e-02
  4.5523174e-02
  1.5160707e-01
 -1.8610235e-01
 -7.0902690e-02
  2.3730162e-01
  2.0828588e-02
  1.3986428e-02
 -1.7857177e-02
  9.3960747e-02
 -1.0674191e-01
  1.9271259e-01
 -8.4893610e-03
 -1.8194942e-02
 -8.9544304e-02
 -8.0547296e-02
  1.7738640e-01
 -3.2251842e-02
  7.3929942e-01
  2.5425890e-01
 -8.2209222e-02
 -5.2268751e-02
  1.0177871e-01
 -2.4944950e-02
  6.0118943e-01
  2.8968889e-01
 -8.7404020e-02
 -2.0341693e-01
 -6.9864415e-02
  6.8459645e-02
  1.0176289e-01
 -1.1926755e-01
 -8.5072631e-01
 -2.1103892e-01
  8.6362317e-02
  2.7558662e-03
 -1.1131018e-02
 -6.4148402e-01
 -4.8082624e-02
 -9.8387063e-02
  1.2214904e-01
  7.0281431e-02
  1.2228520e-01
  2.2383837e-03
 -2.3756793e-02
 -1.1676548e+00
  3.9307151e-02
 -4.0815325e+00
 -7.9198137e-02
  7.2807499e-04
  7.5843889e-01
 -9.4499271e-03
 -9.2183602e-01
  2.4199173e+00
 -6.8325646e-02
 -1.0831607e-01
  5.1767462e-01
  4.2308116e+00
  2.9774945e+00
  7.0692688e-01
  1.4887916e-01
 -8.4178340e-01
 -3.8898182e+00
 -1.7702423e+00
 -4.0437913e-01
  2.3265738e+00
  1.9069514e+00
  1.2999265e+00
  1.7838512e-01
 -2.1372592e+00
  1.8084143e+00
 -5.3820312e-01
 -1.7397407e-01
 -4.2262015e-01
  1.7644954e+00
 -9.0436929e-01
  3.5952411e+00
 -6.5726620e-01
 -9.3077648e-01
  1.7598339e+00
  9.3720603e-01
  3.4651575e+00
 -2.4918172e+00
  1.8144170e+00
  7.5335944e-01
  2.7678171e-01
 -6.3388951e-02
  7.3326893e-02
  3.5830282e-03
  1.2671232e-01
 -1.4166144e-01
 -1.1820459e+00
 -1.3527225e-02
 -2.7999749e-02
  1.7495142e-02
  1.9671310e-01
  5.6640547e-02
  2.3737397e+00
  6.9101438e-02
  1.3069735e+00
  3.1279486e-02
  5.9866879e-02
  6.0539439e-02
  8.1933165e-01
  3.0267137e-01
 -7.6029085e-02
  6.4388230e-02
 -2.0006619e-01
  5.8956122e-01
 -3.7068475e-02
 -3.2015949e-01
 -9.6196091e-01
  6.3027680e-02
  2.6474962e-01
  3.3895094e+00
 -2.6091915e-01
  1.0249008e+00
  7.5222485e-02
  4.0428005e-02
  2.6617374e+00
  3.3185195e-02
  2.3699613e+00
  2.1252682e+00
  1.6367118e-01
 -4.7567219e-01
  9.4019085e-01
  4.8101071e-02
 -2.2657022e+00
 -7.1408213e-03
  1.1258055e-01
  1.0105309e+00
  8.0673538e-02
  3.8985592e-01
  1.9207543e-01
  5.6512415e-01
  1.0457890e-01
  1.4467597e-01
  2.3846192e-02
  1.5157494e-01
  3.5275087e-02
  1.1340968e-02
 -2.3917978e-01
  2.2121932e-02
  6.7194209e-02
 -2.6889071e-01
  1.8562436e-02
  4.4453006e-02
 -1.9594327e-01
 -6.4347804e-02
  2.7619255e-01
 -3.0564561e-02
  7.0532329e-02
 -2.7118213e+00
 -8.5712647e-01
  8.0307140e+00
 -3.3453834e+00
 -7.3857036e+00
 -2.6372700e+00
 -1.5146073e+00
 -3.0483541e+00
  4.4464797e-01
  1.2222322e+00
  1.4117450e+00
  2.1271214e+00
 -3.1856036e+00
 -5.0497574e-01
 -8.5303026e-01
  1.8574972e+00
  4.5358114e+00
 -1.6555497e-01
 -2.5276189e+00
  9.0845995e-02
 -1.4915702e-01
 -1.3679375e-01
  5.6933563e-02
 -2.1318150e+00
  7.8352892e-01
 -1.5042360e+00
  1.2495421e+00
  4.0108528e+00
 -2.4342883e+00
  2.0530715e+00
  5.7834667e-01
  1.3536154e+00
  3.4771472e-01
  1.0384674e+00
  1.5939230e-01
 -3.8508122e+00
  3.6875787e+00
 -1.0636424e+00
 -1.3831663e+00
 -5.5640643e-03
  2.5206625e+00
 -3.9398089e-02
 -1.4777916e-02
 -5.3190254e-02
 -3.2829896e-03
 -5.8346611e-02
 -3.7929937e-02
 -1.8834442e-01
 -2.0327002e-02
 -3.5141730e-01
  2.5323015e-02
 -2.6762837e-01
 -1.3847211e-01
  3.4300179e+00
 -6.7797452e-02
  1.1636683e+00
  2.6906049e-01
 -5.0908810e-01
 -5.9125863e-02
  1.8823247e-02
  4.3217309e-02
 -9.7612090e-02
  4.1157477e-02
 -5.2201085e-02
 -7.9588749e-02
  3.9219842e+00
  9.3172878e-02
  1.4972870e-01
 -7.7288318e-01
  6.4039137e-04
 -2.7031055e-01
  2.3328099e-01
 -1.2081394e-01
 -2.8156620e-01
  2.2848713e-01
 -6.0600068e-02
 -3.0028519e-01
  1.9497232e-01
 -4.7238816e-02
  5.2867057e-03
 -3.5957754e-02
  1.5500184e+00
 -1.1521709e-02
  2.4820125e-02
 -1.8653812e-02
  2.3315914e-02
  6.0225770e-02
 -6.6910230e-02
 -1.2823769e-01
 -8.3304979e-02
  1.4474936e-01
 -1.4019380e+00
  7.1790777e-02
  1.4043704e+00
 -6.5202370e-02
 -1.1510452e-02
  3.8089946e-01
  1.7521589e-01
  2.6584217e-01
 -2.2300100e+00
 -6.9095664e-02
  3.6810544e+00
 -3.8607926e+00
  9.0732479e-01
 -4.5802011e+00
  3.0054135e+00
 -1.5766413e+00
  2.1088219e+00
 -1.3024563e+00
  3.0725300e+00
  2.7864091e+00
  1.4528810e+00
 -9.6038437e-01
  5.8192560e-03
  4.2098312e+00
  3.3132920e-01
  6.9272149e-01
  1.1417652e-02
 -2.2385478e+00
  1.3902551e+00
 -1.6870571e+00
  3.8439822e+00
 -4.4807053e-01
 -8.1965631e-01
 -1.5478057e+00
  2.2971087e+00
  4.1669086e-01
 -6.9668216e-01
  6.7045367e-01
 -4.4897485e-01
  2.0700774e-01
 -8.1072673e-02
  9.4151604e-01
  1.9329139e+00
 -4.6078086e-01
  7.0508206e-01
 -2.0945411e+00
 -1.3993258e+00
 -4.8149446e-01
  3.1054810e-02
  1.7922220e+00
  3.6319617e-02
  3.0888996e+00
 -8.9182280e-02
  1.0354744e+00
 -2.2026451e+00
  1.5948176e-02
 -2.9502990e+00
 -9.9510118e-02
 -1.2804579e+00
 -3.3706408e-02
 -2.1366887e+00
 -2.8551817e-02
 -3.1130010e-01
 -1.9700286e+00
  3.9398831e-01
 -3.3440392e-02
 -1.5416507e-01
 -1.8295996e+00
  1.6908857e-01
  5.0747387e-02
 -1.6484579e-01
  4.2508621e-02
  1.4027475e-01
  1.1962491e-01
  1.3841027e-01
  7.1890044e-01
  3.2675095e-02
 -1.1117961e+00
 -9.4660051e-02
  4.4476468e-02
 -3.0460237e-02
 -1.8786689e-02
  8.7756969e-02
  3.4941551e-01
 -2.7357585e+00
  3.7937440e-02
 -9.0703316e-02
  2.4814378e-02
  2.9971270e-02
  2.1187083e-01
 -1.4242490e-01
  2.2600772e-02
  8.5477911e-02
  2.9374298e-01
  1.9918919e-01
  2.9933110e-01
  1.6369867e-01
  2.8523797e-01
  3.9011478e-02
  9.0275906e-02
  5.1653884e-02
  2.4259026e-01
  1.3631654e-01
 -4.2627749e+00
 -2.3507154e-01
 -5.7163946e-02
  4.2248899e-01
  2.5324998e-02
 -1.3099918e-01
  1.8321641e-02
  4.1079346e-02
 -1.3358396e-01
 -5.3297505e-02
 -7.7219017e-02
  5.2863173e-02
 -1.9011648e-03
 -6.2818413e+00
 -1.6921650e-01
  2.6796422e+00
 -5.2420795e-01
 -7.5091487e-01
 -1.0500216e-01
  1.0052878e+00
  1.7409706e-01
  2.2655110e-01
 -1.0979864e-01
  6.3224703e-01
  4.1799217e-02
  2.2474918e-01
  2.1749763e-01
 -2.4440541e+00
 -2.3085551e-01
  2.0976025e-01
 -3.3872327e-01
  2.7194741e-01
  3.3194501e-02
 -2.9113282e-02
  9.9399287e-01
 -1.3631275e-01
 -8.9848921e-02
  1.2476734e+00
 -6.2027525e-02
  1.1643527e-01
  3.6319282e-02
  1.6551186e-01
  1.8676719e-02
 -1.3577414e-01
  3.7843578e-02
  7.1177267e-02
 -2.4059298e-02
  2.8226947e-02
 -8.5953578e-02
  3.9437768e-01
 -4.3359771e-02
 -9.4738625e-02
 -2.5280035e+00
 -1.5821479e-01
  9.1286831e-02
  5.3374954e-02
  6.3453436e-02
  1.6601676e-02
 -1.1426983e-01
  5.0231463e-01
 -1.0175272e-01
 -3.7111342e-01
 -1.8690383e-01
  1.9815758e-01
  4.6604985e-01
  6.0789879e-02
 -5.3040296e-02
  3.6876279e-01
  4.3465602e-01
  5.7364523e-01
 -3.2203760e+00
  1.7257087e-01
  2.0848043e-02
 -4.7581192e-02
 -6.4761125e-02
  3.5388947e-01
 -8.3426889e-03
  2.6027299e-04
 -7.1591042e-02
  1.3009767e-01
 -1.5772223e-01
 -3.7932875e+00
  6.6406834e-01
  5.6527327e-03
  7.7312756e-01
 -1.5672499e-02
 -3.5768267e-02
 -1.5388776e-01
 -4.4863667e-02
  1.7060713e-01
 -8.6515486e-02
  1.6824357e-02
  3.1265832e-02
 -4.0076163e-02
  1.0008438e+00
 -2.4108149e-02
 -5.7201240e-02
 -2.7250595e-02
 -2.2997582e-01
 -4.4602104e-02
  5.2072503e-02
  1.4099816e-02
  2.5127792e-01
 -8.8674736e-01
 -4.6069823e-02
 -7.0420307e-01
  1.3448208e-02
 -1.3866332e-01
 -1.8600337e-01
 -5.6751914e-02
  1.5116657e-01
  8.0426574e-02
  3.0303195e-01
  3.2175463e-02
  2.2553401e-01
 -1.6664784e-02
 -5.0906319e-02
  1.6247137e-01
 -1.9250143e-01
  1.7903760e-03
  1.0461991e-01
 -9.3351521e-02
 -1.8779069e-01
 -6.2088355e-02
 -6.7014164e-01
  3.7800767e-02
 -1.0582128e+00
  5.1241525e-02
  2.0793792e-02
  7.0738584e-02
 -3.5548616e-02
 -9.6619591e-02
  5.8030277e-01
 -2.1551043e-02
 -8.8191666e-02
  8.7271607e-01
  6.2391698e-01
  7.9804367e-01
  3.3676414e+00
  1.0740885e-01
  3.2743567e-01
  5.3206486e-01
 -1.4805929e-01
 -1.5325096e-01
  3.1458995e-01
 -6.6892660e-01
  4.0187486e-02
 -9.2752987e-01
  1.1064230e-01
  3.5495047e-02
  3.7812565e-02
 -1.4145990e-02
 -7.9900604e-03
  1.5347607e-02
  1.9903548e-02
 -9.5883206e-02
  2.9117204e-03
 -8.3262883e-02
 -1.0800254e-01
 -1.2067106e+00
 -1.6862755e+00
 -1.5291864e+00
 -3.2980263e-03
 -8.7250799e-01
  4.7550845e-01
  5.0284061e+00
  2.4473143e+00
  6.5608911e-02
  2.8039052e+00
  2.5494614e+00
  2.1463993e+00
 -1.3958068e-01
  1.3512023e-01
  7.1601227e-02
 -5.9669644e-02
 -3.8814068e-01
 -1.3644819e-02
  6.1468601e-01
 -2.8691781e+00
 -2.8126419e+00
  3.1916530e+00
  8.9574611e-01
 -9.1834860e+00
  8.8708848e-01
  2.6904037e+00
  7.0266151e-01
  8.3296978e-01
  1.1335804e+00
  1.2942793e+00
 -2.1958425e+00
  1.7763171e+00
 -6.8856657e-01
  4.6840620e+00
 -9.9006528e-01
  2.2684491e+00
 -2.0596101e+00
  2.3176808e+00
 -1.7277545e-01
  4.0266986e+00
  3.2538481e+00
  8.7862253e-02
 -1.9072706e-01
 -2.5827655e-01
  1.6064044e+00
  7.7004735e-03
 -2.6527988e-02
  3.4231577e-02
  5.2005285e-01
  1.4296140e-01
 -1.0405917e-01
 -9.5588835e-03
  1.9474480e-01
  3.4701881e-01
  1.0275146e-01
 -1.1691611e-01
 -1.1177205e-02
 -6.5687257e-01
 -6.0656506e-01
  4.3163332e-03
 -2.7570324e-02
  8.7170295e-02
 -4.9477476e-01
 -1.5123971e-01
  3.4568392e-02
  1.3940635e+00
  8.5878178e-02
  5.4815684e-02
 -5.9423680e+00
 -3.1442966e-02
  3.0293984e-03
  4.9193133e-02
  1.4870542e-01
  8.6593345e-02
  3.1186841e-02
 -4.7102281e-01
  4.0641773e-02
  1.2778090e-01
  3.5528697e-02
  1.9075154e-01
 -7.9778671e-02
 -8.7077126e-02
  4.4525719e+00
 -2.7347887e-01
 -1.7331868e-01
  9.8983265e-02
 -2.8013976e-02
  1.0216920e-01
 -5.5467546e-01
 -4.6175696e-02
 -4.6307702e+00
  1.5090924e-02
 -2.5659578e-02
  2.3469882e-02
  1.8979695e-02
  1.2549932e-01
 -2.8621448e-02
  2.0751432e-02
 -2.7867571e-01
 -4.1494250e-02
 -6.1263815e-02
  2.1027934e-02
 -8.5625984e-02
  1.0538962e-01
 -5.5370212e-02
 -7.5229630e-02
 -1.7592406e+00
  1.4709142e+00
 -8.7694031e-01
 -1.0311763e+00
 -7.9165411e-01
  2.8958700e+00
  2.5784106e+00
 -4.8608122e+00
  1.0744102e+00
 -7.1188956e-02
 -1.8459588e+00
  1.9772193e-01
  4.8976162e-01
 -9.5581682e-03
  1.1184950e-01
 -2.7838409e-01
 -5.0839472e-01
 -1.1667790e-03
 -5.7250297e-01
  2.5059724e+00
 -3.0129735e+00
 -6.0367841e-01
 -2.4334245e+00
  1.9503531e+00
 -1.4878587e+00
  4.8287892e+00
 -2.6166146e+00
  1.3748059e+00
 -8.3513385e-01
  6.5642482e-01
  1.5634032e+00
 -1.2869906e+00
  2.8826678e+00
 -6.7460942e+00
  9.8374349e-01
  1.1623349e+00
 -4.4527493e+00
 -1.8149354e-02
  4.7743046e-01
 -1.0860658e-01
  1.5314420e+00
 -2.6328117e-01
  1.2642698e-01
 -1.0773137e+00
 -1.1796663e+00
  7.6962344e-04
  6.1577594e-01
 -5.4132003e-02
  7.5273544e-01
 -4.4041034e-03
 -1.1365244e-01
  1.5266352e+00
 -8.1559098e-01
  1.1847914e+00
 -1.1246827e+00
  1.3122878e+00
 -7.3263222e-01
 -1.6388210e+00
 -3.8101683e+00
 -5.2816182e-01
 -1.2906914e-02
 -5.4460974e+00
  2.0754580e+00
 -2.4417794e-01
 -2.2123030e-01
  8.8250205e-02
  1.6117913e+00
  3.1096447e-01
 -2.6020229e+00
 -1.8700429e+00
  3.8652039e+00
  1.6684172e+00
  4.8058019e+00
 -1.1434715e+00
 -1.6421660e+00
 -2.2210977e+00
  3.2529883e+00
  1.5773890e+00
  1.1371871e-02
  6.6339087e+00
 -1.3343896e-01
 -9.1826618e-01
 -8.0279799e+00
  5.2109246e+00
  1.1708367e+00
  6.6336212e+00
  5.3496742e-01
 -3.2505527e+00
  1.7870982e-01
  1.6893528e+00
  1.3855660e-01
 -1.5851036e+00
 -1.2754098e-01
  4.0019147e-02
 -2.2352019e-01
  1.9050238e-01
 -9.6290782e-02
 -3.5111353e-02
 -6.0429633e-01
  8.8323019e-03
 -1.0771939e+00
 -4.2623434e-02
  1.4270403e+00
 -3.6468022e+00
  5.4503613e+00
 -1.2365675e+00
  4.3656436e-01
  7.4425545e+00
 -7.7022761e-02
 -1.6318245e+00
 -1.7766057e+00
 -3.0595267e+00
  5.2484689e+00
  2.5395737e+00
  2.8864688e-01
  1.8603553e-01
  5.4124727e+00
 -6.9626439e-01
 -2.5919180e+00
  1.3695858e+00
 -2.6633990e+00
  5.4159802e-01
  2.4531074e-01
  5.2807865e+00
  6.1399315e-02
 -3.5303011e+00
  3.6808035e-01
  3.5413473e+00
  8.7413425e+00
  1.9902078e+00
  3.4278648e+00
  3.2433447e-01
 -1.4827539e+00
 -2.4472217e-01
 -4.5336428e-01
 -4.2554075e-01
  3.2225224e-01
  1.9506867e+00
 -4.4507761e+00
  6.6874713e-02
 -9.8588593e-02
 -1.3211608e-01
 -3.4863100e+00
 -2.2254627e-02
 -4.2521428e-02
  4.4152439e-02
 -2.4349111e-01
 -4.4450396e-01
  3.8366672e-03
  8.2063690e-02
 -2.1132043e-02
 -8.1991166e-02
  1.9645600e-02
  1.5127286e-01
 -8.9294821e-02
 -4.4866925e-01
  1.1923467e-01
  2.3319446e-02
 -9.9436119e-02
  1.8955272e-02
 -2.3323077e-01
  3.4317605e-02
 -1.1485690e-02
 -5.0103668e-02
 -2.9386088e-02
 -4.4411504e-01
 -3.2509974e-01
 -5.5706650e-01
 -2.3666167e-01
 -8.3939809e-01
 -4.1134048e-01
 -1.4152068e-01
 -1.3820652e-02
 -2.6733862e-02
 -1.9639575e-01
 -9.6573286e-02
  2.5643322e-01
 -2.1062541e+00
 -3.2250479e-02
 -1.2395059e-01
  3.9340448e-02
  2.1482748e-01
  6.3019395e-02
  8.2429960e-02
 -2.2665588e-02
  3.9706342e-02
 -2.0838535e-01
 -3.4671378e-01
  3.0254513e-02
 -2.8876455e-03
 -2.5671190e-01
 -6.9128670e-02
  3.0854714e-01
 -1.4054452e-01
 -1.1043735e+00
 -7.7108033e-02
 -6.7077368e-02
 -1.9007631e-01
  1.5650390e-01
  3.6668181e-01
 -3.6170054e-02
  2.7696718e-02
  1.2488054e+00
  8.1196174e-02
  1.8891482e-02
  2.7335225e-02
 -3.3675990e+00
 -1.0348417e-01
  2.1467544e-01
 -4.0927076e-01
 -2.9548171e-01
 -4.3053109e-02
 -2.2307087e-01
 -2.3538712e-02
  5.3363875e-02
 -1.0679092e-01
 -2.1972823e-01
 -5.6234282e-02
 -2.5828937e-01
 -1.1544836e-01
 -7.5096649e-01
 -9.8331481e-01
  7.6299340e-02
  6.5578800e-01
 -2.2502113e-02
  2.3266833e+00
 -1.0320207e-01
 -2.4374600e-02
  4.0844733e-01
 -1.7535123e+00
 -1.0451321e-01
  1.6416223e-01
  6.5362370e-03
 -1.1565096e+00
 -4.8892731e-03
  1.0002720e-01
  7.1703300e-02
 -9.9790919e-01
 -1.5222561e+00
  2.0166793e+00
  1.0574650e-01
  1.1619573e-02
 -1.6849717e-01
  1.7749865e-01
  1.4436218e+00
 -2.4453275e-02
  1.4414844e-02
  2.3977613e-01
 -5.0770238e-02
 -9.2620629e-01
 -2.3426013e-02
  1.3148971e-01
  1.5329890e-01
 -8.7273753e-01
 -2.6657360e+00
  3.6256362e-02
  1.7987192e-01
  1.4313449e-01
 -1.6411477e-01
 -4.3745619e-01
  2.6082044e+00
  8.9519098e-04
 -1.5776137e-01
 -1.4144772e-02
 -3.2437209e-02
 -2.3479661e-02
 -3.3905298e-01
 -1.5869250e+00
 -4.3353423e-01
 -4.7261029e-02
 -4.1139059e-02
 -9.9023394e-02
 -2.3705710e-01
 -2.1645610e-01
 -2.1823162e-02
 -1.2118743e-01
 -7.5174548e-02
 -1.0767447e-01
 -7.3549467e-01
 -2.1186954e-01
  1.0377737e+00
 -2.5381672e+00
  6.9039110e-03
  4.4742059e-02
 -2.7317092e-02
 -1.3071409e-01
 -5.2151091e-02
  6.5868512e-02
 -3.1679728e+00
 -3.9268407e-01
  4.6485451e-01
 -3.3781439e-01
 -3.2783231e-01
 -9.0648480e-02
  1.6245067e-01
 -6.6372126e-02
  4.6996597e-02
  1.8303666e-01
  9.9924028e-02
  4.1112877e-02
 -6.5030586e-03
 -4.2986363e-02
  5.1708490e-02
  7.5503960e-02
 -8.8328615e-02
 -2.5617853e-02
  1.7790793e-01
  9.4681211e-02
 -3.4745005e-01
 -1.9896547e-01
 -3.1277847e-01
 -4.4360396e-02
 -6.8753846e-02
 -7.8458536e-01
 -9.7678721e-02
 -2.9773879e-01
 -1.1732135e-01
  1.3379775e-01
 -2.6928470e-01
  1.4043536e+00
 -1.9333698e-01
  3.5608642e-02
  1.1080919e-01
  7.5325318e-02
 -1.4975759e-01
  5.5118829e-01
  3.2472614e-02
 -1.2368428e-01
 -9.4508410e-02
  1.1071704e-01
  1.3814407e-02
 -3.1782035e-02
  1.0248168e-01
 -3.5963226e-02
 -4.5693992e-03
 -5.4777090e-02
  1.5744641e+00
  1.2046356e-01
 -4.2570078e-01
 -5.2859294e-01
 -1.7992303e-01
  7.4101210e-02
  8.2448393e-02
 -1.1971352e-03
  1.7704810e-01
 -2.3295786e+00
  1.0653266e-02
  1.8627784e-03
  8.3044760e-02
  1.7941928e-02
 -9.3682274e-02
 -5.3197760e-03
  3.8794520e+00
 -7.0558414e-02
 -3.7956436e+00
  1.2144754e-01
  1.0384326e+00
 -1.3726603e+00
  1.0393282e+00
  6.7279920e-02
 -2.1477509e+00
 -8.5606480e-01
 -1.4095716e+00
 -7.1635139e-01
 -2.8152603e-01
 -1.3669287e+00
 -9.8865432e-01
 -4.4456947e-01
  5.9875643e-01
  4.0571366e-02
  1.0541306e-01
 -6.7137866e+00
 -2.6143726e-02
  2.3750002e+00
  2.4096727e-01
 -2.6290494e-01
  1.4705442e+00
  2.5341644e+00
 -4.3607936e+00
 -3.1462738e-01
  6.1605030e-01
 -1.5102657e+00
 -1.5717846e+00
  5.5661672e-01
  1.1647218e+00
 -5.6194478e-01
  9.1046703e-01
  9.8032999e-01
  1.1140720e-01
 -3.7224896e+00
  7.8437698e-01
  8.2605577e-01
 -9.2466569e-01
  6.7193991e-01
 -6.1289355e-02
 -3.1394612e-03
 -9.7461648e-02
 -7.2087610e-01
  6.7416027e-02
 -1.8158816e+00
 -2.3375793e-01
 -1.0786352e-01
 -3.4631208e-02
  8.1638873e-01
 -3.8581559e-01
 -1.6613837e-01
 -2.2238401e-01
 -2.0074907e-01
 -1.5580337e-02
  4.7197021e-03
 -5.8613414e-01
  3.7544210e-02
  1.1650783e-01
  1.8653801e-02
  2.1286827e-02
  6.5491326e-02
  4.0367955e-01
  9.8441787e-02
  1.9594812e-01
 -7.5420896e-03
  5.7950631e-02
  1.0570022e-01
  7.2310448e-01
  5.8552422e-02
  5.2481818e-01
 -2.5653548e+00
 -1.6766551e+00
  2.0394334e-01
  3.7844107e-01
  1.0119368e-01
  3.0984096e-02
  1.9523175e-01
 -9.9842943e-02
 -2.3406857e-01
 -1.9905632e-02
 -2.0965956e-02
  6.1943881e-02
  1.0291962e-02
 -2.2457356e+00
  1.3440503e-01
 -1.4724688e-01
  4.2553547e-01
  4.3165188e-02
 -7.5855874e-04
  7.7085033e-02
 -4.7487698e-02
  1.1204210e-01
 -2.0874245e-02
 -8.7420465e-03
 -1.6414656e-01
  9.7592082e-03
  6.3415182e-01
  4.8737869e-02
  7.3673606e-01
 -2.9471302e-01
 -4.2993486e-01
 -5.9027020e-02
  1.7949784e-01
 -1.7378882e-01
 -1.2797742e-01
  2.6795682e-01
 -1.9912314e-01
  2.9974841e-02
 -4.4124246e-02
 -3.2290367e-03
  4.6350282e-01
  4.5917481e-01
  7.6395288e-02
 -4.8299669e-03
  3.3593156e+00
  1.5138875e-01
 -1.1046547e-01
  1.2764245e-01
 -1.6085148e-02
 -1.0125835e-01
  1.0737843e-01
  2.4443457e-02
  1.1082646e-02
  1.6316814e+00
  1.7310908e-01
  2.0962025e-01
  1.4862789e-02
  9.1053016e-02
  8.6378969e-02
  1.3571467e+00
 -8.7739034e-03
  1.1848657e-01
 -8.3696190e-04
 -2.0550206e-01
  6.5467939e-02
  1.0707100e-01
  2.3720340e-01
  2.2633418e-01
  2.5961140e-01
  3.4640081e-02
  1.2313511e-03
 -2.2583306e+00
 -1.5902568e-01
 -1.5133867e-01
  1.5202534e-01
 -3.0854426e-02
  2.6016855e+00
  3.1338465e-01
  6.8066335e-01
 -4.1361790e+00
  2.3512836e-01
  5.0072253e-02
  2.3492308e-02
  4.7834899e-02
 -9.2412233e-03
 -1.3891435e-01
 -2.4895030e-01
  8.6320776e-01
  3.6351189e-02
  2.1434568e-01
 -3.6807321e-02
  5.4545570e-02
  7.3281668e-02
 -5.7630796e-02
  3.7827897e-03
  2.2628708e-01
 -5.1390655e-02
 -1.9975165e-02
  2.0368406e-01
  3.6738113e-01
  2.3432112e+00
  5.1518090e-02
  9.6241169e-02
 -1.8397322e-03
 -1.0704546e-01
 -1.6953256e-02
  1.1531190e-01
  7.3382340e-02
 -1.6107788e-02
 -1.4227912e-01
 -1.6367446e-01
  5.4327678e-02
  1.8743101e-01
  1.1153381e-01
  1.1047400e-01
  1.4972719e-02
  1.5946777e-01
 -1.2409928e-01
  4.1020578e-01
  3.8974497e-02
  3.2327658e-01
  5.0142150e+00
 -8.5543603e-02
 -1.2089647e-03
  2.0620964e-01
  2.3314573e-02
  3.4504561e+00
  7.1524799e-02
 -1.1307551e-02
 -7.3496796e-02
 -3.8946956e-02
  4.5844176e-01
 -2.8220718e+00
 -3.2261051e-02
  4.5156769e-02
 -2.3678958e-01
  5.1769280e-01
 -1.4787639e-02
 -2.1337448e-01
  6.1788391e-02
 -4.5592571e-03
  7.3598452e-02
  8.5283810e-01
  3.4165118e-02
  3.0898824e+00
  2.1710556e+00
  1.6432026e-01
 -1.1622170e-01
  4.2064961e-02
  1.7455657e-01
 -4.0199883e-02
  1.0332135e-01
  7.1489796e-02
  1.2744500e-01
 -1.7669421e-01
 -1.1820845e-02
 -1.9646176e+00
 -1.4466335e-01
  3.6885273e-01
 -5.3568993e-02
  4.6107423e-01
 -1.4099132e-01
 -9.2181051e-03
  4.1959575e-01
 -8.5699655e-02
 -5.3872034e-02
  7.8283241e-03
  7.3206790e-02
 -1.1231656e-01
 -1.7124867e-02
 -9.6515514e-02
 -1.4578818e-01
 -1.8556206e-01
  7.4282371e-02
  3.2167926e-01
 -1.9623379e-01
  5.2566737e-02
 -1.7420800e-02
  5.4806996e-02
 -1.4627670e-01
 -9.8462589e-03
  7.6005213e-02
 -6.8947273e-01
 -4.0490674e-03
  3.4472734e-01
 -7.9604544e-02
  4.8217349e-02
  1.8623251e-01
 -8.4791929e-02
 -6.5870106e-01
 -6.6324942e-02
  6.5331548e-01
 -1.3787052e-01
 -4.1722703e-01
 -5.9035099e-01
 -1.5528141e-01
  6.8383892e-03
 -1.9611914e-01
 -1.4885145e-02
  3.8748845e-02
 -1.0409367e-01
 -4.3915814e-01
 -1.1293045e-01
  4.1018385e-02
  7.2742216e-02
  1.3481228e-01
 -1.3229947e-01
  2.0391660e-02
 -9.9047665e-03
  1.5747620e-03
  2.8679246e-01
  1.4233841e-01
 -1.0519257e-01
 -5.8718650e-03
 -3.6744870e-02
 -1.0279615e-01
  2.0527020e+00
 -1.7675763e-03
 -4.9000565e-02
 -1.8758388e-02
  8.2328290e-02
  4.8414660e-01
 -1.5950932e-01
 -1.8647258e-01
 -2.2629562e-01
  1.2244061e-01
 -3.4589287e-02
 -6.3964576e-02
  1.2464786e-01
  5.6730416e-02
 -7.9056010e-02
 -4.2803064e-02
 -2.6975605e-01
 -7.0610888e-02
  2.1369314e-01
 -2.3000946e+00
 -4.7208440e-02
  3.5714726e-03
  1.2959591e-01
  1.2901510e-01
  8.8886321e-02
  1.5164994e-01
  2.1504976e-01
 -1.6452082e-02
  1.4464112e-01
  6.5416598e-01
  4.4633168e-01
 -1.2602952e-02
 -2.8243393e-01
 -1.0858310e-01
  3.3260691e-01
  1.3997184e-01
 -3.0682494e-03
  6.0347365e-03
  1.3640061e-01
 -7.9296440e-02
  4.4111040e-01
  1.0217874e-01
 -9.8868320e-03
  4.1385237e-02
 -7.2344840e-02
  4.8590519e-02
 -4.6455474e+00
 -2.2850350e-02
  1.6470441e-01
  2.7188415e-02
  5.8953786e-01
  1.1197087e-02
  2.2259969e-02
 -5.3642157e-02
 -1.1541741e-01
 -2.1851296e-02
  1.2320970e+00
 -4.7574777e-02
  1.5049353e-01
 -4.6093163e-01
  1.1199085e-01
  8.1494868e-02
 -1.3515780e-02
 -5.8794472e-02
 -9.5813088e-02
 -1.4240110e-01
  7.6055855e-02
  2.2692703e-01
 -1.8476756e-01
 -5.8098894e-02
  8.8149302e-02
  2.0532819e-02
 -1.0124714e-01
  9.4816065e-01
  3.8662486e-02
 -8.6549419e-01
  2.8953880e-01
  2.4282748e-01
  2.8747013e-01
 -2.7183633e+00
 -3.0147630e-01
 -1.6502753e+00
  2.6178709e-01
 -2.2677319e-01
  3.5630045e-03
 -2.6145688e-01
 -2.5993612e-01
 -4.8848864e-02
 -1.6445529e-01
  3.9646003e-01
 -1.5942277e-01
 -6.7777005e-03
  6.8052009e-02
 -8.8171855e-02
  9.2428476e-01
 -9.9851143e-01
 -1.4076342e-01
  8.0365129e-02
  2.0911090e-01
  5.6825089e-01
  3.5082123e-01
 -1.0944837e+00
 -1.8758877e-01
 -2.6273751e-03
  4.0407622e-01
  1.5144974e-01
 -1.5511658e+00
 -1.7811583e-01
  2.2968938e+00
 -1.5704338e-01
 -4.4000458e-02
  6.6154264e-02
 -2.3269393e-02
  9.0159833e-01
  1.2252045e-02
 -6.3584492e-02
  3.2456925e+00
  9.6203342e-02
  3.5749573e-02
  1.3303925e-01
 -2.6700320e-02
 -1.4818986e-01
 -2.3374352e-01
 -8.1363715e-02
 -7.3149689e-02
 -1.2003839e-01
  2.4283621e+00
 -8.2207060e-01
 -2.7833477e-01
 -4.7215983e-02
 -9.1222507e-01
 -3.2750936e+00
 -2.1319169e-01
 -6.7839082e-03
 -1.0953435e-01
 -1.5128736e+00
 -3.7239414e-02
  2.8134103e+00
 -4.1261618e-03
 -1.1772028e-01
 -2.1730088e-02
  1.9157609e-01
  6.2042207e-02
 -1.5437424e-01
  1.3700722e-01
  1.0054749e-01
 -2.8493201e-02
  5.1274844e-02
  3.3736024e-02
  5.7366019e-01
 -2.1835729e-01
  5.8474552e-02
  4.5423374e-01
  2.9233125e-01
 -8.2346149e-02
  2.1210198e-01
 -6.7975533e-01
 -1.2439312e+00
  3.0932095e-02
  1.0453495e-01
 -3.7809274e-01
  4.6981916e-02
  1.6712353e-01
  1.6833020e-02
 -6.0944194e-03
 -1.5398833e-03
  1.9238457e-01
 -6.3393205e-02
 -8.7716840e-02
 -8.2555729e-01
 -1.1751131e-01
  4.2684816e-02
  2.5259393e-01
 -3.8393753e+00
 -2.0830555e-01
 -4.9967360e-02
 -1.1753771e-01
  2.7655920e-01
  3.6130387e-01
  3.1595819e-02
  1.7644823e-01
  5.1042628e-01
  5.0225623e-02
  2.7708623e-01
 -1.8687675e+00
  2.2419162e-01
 -1.4938182e-01
  5.7226844e-02
  1.5211018e-03
  3.0755702e-01
  3.0512350e-02
  1.2753604e-01
  3.1180802e-01
  1.6483000e-02
  8.6431348e-01
  6.0465682e-02
 -1.2370984e-01
  1.5062551e-01
  5.9848022e-02
 -3.0991098e-02
 -2.9506272e-02
  1.2739690e-01
 -2.5036559e-01
  3.4909986e-02
  6.2226232e-02
 -7.2446898e-02
  1.3495841e-02
  2.6785778e-03
 -1.1733221e-02
  2.8185687e+00
  4.0114939e-02
  2.7268590e-02
 -1.1253240e-01
 -2.1936393e-01
  3.3580087e-02
  3.5709503e+00
 -1.6040012e-01
  5.4059628e-02
  1.1374430e-01
 -1.7670198e-01
 -8.4138051e-02
 -1.3347645e-01
 -1.8679690e-02
 -1.3235299e-01
 -2.0083655e-01
  1.3867430e-01
 -1.1686124e-01
 -1.5663238e-01
 -1.2046595e-01
  1.0390984e-01
 -1.4685570e-02
  5.7117529e-02
 -1.7731992e+00
 -1.4819661e+00
 -1.9720897e-01
 -1.4914752e-02
  9.0818517e-02
  6.4197473e-02
 -4.5191091e-02
  8.3951224e-03
 -2.9517233e-01
 -7.6884127e-01
 -1.3498539e-01
 -2.6339772e-01
  1.2717364e-02
  2.6884902e-01
  1.3889055e-01
 -6.4667076e-02
  3.9641216e-02
  2.9831226e+00
  1.0457384e-01
 -4.6901509e-01
  2.1517798e-02
 -2.8231555e-01
  1.6186722e-02
 -3.0373257e-01
  1.4002044e-01
 -5.9262677e-03
  5.6988972e-01
 -8.2239974e-01
  6.1536646e-03
  3.2788105e-02
  1.9090042e-01
  4.6603939e-01
  1.9744001e-02
 -8.4634647e-02
 -1.4109427e-01
  1.0413703e-01
  1.6516995e-02
 -6.2801182e-02
 -4.2416889e-02
 -9.2766464e-02
  6.6849045e-03
 -1.2268905e-01
 -3.1031396e-02
 -5.2854829e-02
  7.2849952e-02
  1.7056318e-01
 -1.3121156e+00
 -4.0042847e-02
  5.8534259e-01
  2.1566917e-01
 -6.0340244e-02
 -3.7041869e-02
  1.3544955e-02
 -2.7320597e-02
 -1.9754361e-02
  5.2741174e-02
  1.4715292e-01
 -2.0812258e-01
  5.0423808e-02
  1.2243517e-02
  1.9818722e+00
 -1.6595216e-02
  2.8586330e-02
  3.6327827e-01
 -2.4525796e-01
 -1.2400070e-01
  1.4468147e-01
  4.9829867e-02
  2.6299638e-01
  7.6875657e-02
  2.7622423e-01
  1.9943109e-02
 -1.0535833e-02
 -2.0864464e-03
 -1.0809256e-01
  2.6625469e-02
 -6.6554010e-02
 -6.0951054e-01
  1.3454730e-03
 -1.4485261e-02
 -5.1087719e-01
 -7.3277585e-02
  1.9116460e-01
 -1.2599181e+00
 -3.9447196e-02
  2.5849395e-02
 -2.4831768e-02
  5.1835690e-02
  7.4064255e-02
  3.1068027e-02
  4.4665027e-02
  1.4234893e-01
 -2.8099826e-01
  7.6628635e-03
 -1.7172163e-02
  1.4560530e-01
  3.4151566e+00
  1.4541184e+00
  2.0390451e+00
 -3.7221816e-01
  1.3536079e+00
 -1.3314274e-01
  2.2066054e+00
  2.3969691e+00
  2.3796777e-01
  3.9272034e+00
 -7.1352601e-01
  4.4694276e+00
  7.2407422e+00
 -5.4237795e+00
  6.4336292e-02
  2.5597501e+00
  4.5854058e+00
 -1.7766886e+00
  1.1010730e+00
  4.4480977e+00
  1.2150111e+00
 -1.2205728e+00
 -8.1791717e-01
 -6.3143224e-01
 -3.6877176e-01
  7.7940625e-01
  1.8490946e+00
  2.0540621e-02
 -2.0994713e+00
 -8.6714137e-01
 -8.0044281e-01
 -6.5613067e-01
 -5.3662336e-01
 -6.3292730e-01
 -4.1656075e+00
  6.9452417e-01
  3.8807502e+00
 -5.3051060e-01
  3.4695235e-01
  9.4848138e-01
  9.0741515e-01
 -1.7604320e-01
  4.0058866e-01
 -5.9536225e-01
 -2.3999119e-01
 -2.5836968e+00
  7.2329052e-02
 -1.7481742e-02
  1.2400833e-01
 -4.6675544e+00
  6.8604626e-02
 -1.3317195e+00
 -1.4577898e+00
 -2.7544367e+00
  5.3012323e+00
 -6.1282504e-01
 -4.0509591e-01
  2.1129413e-02
  2.6374328e+00
 -2.1885810e+00
  2.7406447e+00
  4.3602467e+00
 -8.0570564e-02
  3.7066844e+00
  6.8084621e-01
 -2.0357368e+00
  8.6767286e-02
  1.4095623e+00
 -2.1396984e-01
  1.2603273e+00
  1.7653602e-01
 -2.3627715e-01
  4.1922812e+00
  3.9767742e-01
 -2.4760589e-01
 -6.5951020e-01
 -2.8020163e+00
  1.5294590e+00
 -1.6554787e+00
  3.7577004e+00
  4.9279228e-01
 -6.2037921e-01
  1.1560397e+00
  7.7949613e-02
 -7.5707030e-01
  9.8379219e-01
 -2.1674361e+00
  4.8846431e-02
  2.3304464e-02
  1.9335576e+00
  1.9705938e-02
 -6.0127580e-01
 -2.5074514e-02
  4.1962652e+00
 -1.7221314e-01
  1.0884162e+00
 -6.5541819e-02
 -2.7122167e-03
 -3.1963978e+00
 -1.3997188e+00
 -4.8862290e+00
 -2.8263307e-01
 -3.7020535e+00
 -1.9592401e-01
  1.9690187e+00
  3.2603168e+00
 -3.5066352e+00
  2.2421935e+00
 -1.4079535e+00
 -2.4337580e+00
  1.8049271e+00
 -3.2321746e+00
 -1.3125178e+00
  7.9011852e-01
  8.4496588e-01
 -1.5454747e-01
 -3.4784970e-01
 -1.2113652e+00
 -2.1841571e+00
  2.9283017e-01
  2.8209321e+00
  2.1360681e+00
  6.9063711e-01
 -3.0261970e+00
  9.6202195e-01
  1.9337763e-01
 -1.3320202e+00
 -2.4813082e+00
 -1.4900274e+00
 -5.4685473e+00
 -3.6125916e-01
  1.2579173e+00
 -1.3320301e+00
  1.8319950e+00
 -3.5424042e+00
  1.3870724e+00
 -1.1510774e+00
 -5.9820324e-01
  2.5762653e+00
  6.1188024e-01
  3.0137546e+00
 -1.3444598e-01
 -1.2266912e+00
  1.5220645e-02
  6.2734094e-03
  5.3707261e+00
 -4.1859280e-02
 -9.4956987e-02
 -9.0377063e-02
 -1.6307868e-01
 -2.4743035e-01
 -3.2682853e+00
 -1.6916744e-01
 -1.2659025e+00
 -1.7229028e+00
 -2.5842658e-01
 -1.7669231e+00
 -1.4007534e+00
  8.2286006e-01
 -6.1993539e-01
 -7.8744924e-01
  2.4437511e+00
 -2.5911798e+00
  2.3764539e+00
  1.3685899e+00
  5.0151296e+00
 -9.4676441e-01
 -5.8517568e-02
  9.2971653e-01
 -1.4478801e+00
  1.9946328e+00
 -2.7373073e+00
 -4.8471552e-01
 -9.4591618e-02
 -1.7581396e-01
  7.3934066e-01
 -1.3310874e+00
 -2.5624142e+00
 -5.3828841e-01
  7.7876635e-02
  1.3597912e+00
  3.7063279e+00
  1.9288123e+00
 -3.2265186e+00
  2.9908307e+00
 -3.7568750e+00
 -6.6359490e-01
  3.6673135e-01
 -1.7438322e+00
  1.8185464e-01
 -7.3174375e-01
  3.1498304e-01
  6.7979825e-01
 -1.1742401e+00
 -1.9925693e+00
 -4.6108809e-01
  1.0145478e+00
 -3.4472400e-01
 -2.7096910e+00
  5.7819530e-02
 -3.4515781e+00
 -8.9481510e-03
 -1.0163901e-01
 -1.5395569e+00
 -8.7895028e-02
  1.3458689e-02
  6.4910465e-01
  2.3203947e-02
 -4.8825420e-02
  1.2226851e-01
  9.8439604e-01
  4.1823041e-01
  1.8431070e-01
 -5.3871449e-02
 -1.0931967e-01
 -7.2303586e-02
 -2.8775869e-02
  9.8482050e-02
  2.8758802e-02
 -1.3035849e-01
 -6.7299020e-01
  3.3442768e-01
  2.5908204e-02
 -1.1200263e-01
  2.1600069e-01
 -1.4814480e-01
  8.7702572e-02
 -6.4076111e-02
  8.5817456e-02
  2.2452694e-01
  5.3721851e-01
  1.0022464e+00
  6.9964662e-02
 -8.1768952e-02
 -5.6975726e-02
  4.3010283e-02
 -6.5954262e-03
  4.9529484e-01
 -9.0780770e-03
 -9.0331517e-02
  1.2468518e-01
 -2.4510002e-01
  2.2722910e-01
  7.8885965e-03
 -4.6636274e-01
  2.3868416e-01
 -1.2676229e-01
  1.6033316e-01
  7.5160399e-02
  1.2445399e-01
  3.9441055e-01
  7.6541580e-02
 -7.5944729e-02
  8.8304110e-02
  3.3362576e-01
  4.2418161e-01
  1.5570828e+00
  1.1303370e+00
  3.3398647e-02
  1.8970369e+00
 -6.2766977e-02
 -8.0312991e-01
  1.5326120e-01
 -1.7650200e+00
  5.7913639e-02
  1.8634790e+00
 -5.0211446e-03
  1.7810357e-01
  8.9066029e-02
  6.9310820e-01
  8.9036459e-03
 -8.4680611e-01
  4.0063849e-01
 -5.0357634e-01
  3.9253148e-01
  9.8948169e-01
 -5.1900971e-01
 -2.7053394e+00
 -1.7002648e-01
  1.9649704e-01
  6.7129165e-02
  1.4631466e+00
  4.7363567e+00
 -1.6403359e+00
  1.4666293e+00
  1.1749558e+00
 -1.9456790e-01
 -4.6023238e-01
  3.4586677e-01
  3.3651227e-01
  2.4176881e-01
 -2.0088522e+00
  4.4113118e-02
 -7.8773278e-01
  1.5160204e+00
  3.2507899e+00
  9.5615305e-02
  5.7469802e+00
  2.2649303e-01
  4.5044255e-01
  9.2001252e-02
 -5.9667602e-02
 -1.6941728e-01
  2.1015519e-02
 -1.3519779e+00
 -1.4126831e-01
  1.6977292e-03
  2.8660668e-02
 -3.2929206e-01
 -1.9601692e-01
 -2.1917669e-01
 -7.3406585e-02
 -1.1378010e-01
 -1.1323518e-02
  7.1357266e-04
 -2.6383841e-01
 -6.5898173e-02
 -2.2484792e-02
 -2.1430349e-01
 -1.0287001e-02
 -5.1021513e-02
 -6.9477305e-02
 -4.6994168e-02
 -4.4806086e-02
  8.3691701e-02
  6.8464178e-01
  1.1559182e-01
 -4.2980768e-02
 -4.1478939e-02
 -2.1627498e+00
  2.0227082e+00
  1.3025070e-02
  1.9146349e-02
  1.5871723e-01
  3.2055501e-02
 -1.0026342e-01
 -4.3022373e-01
 -1.5777901e-01
 -1.9131833e-01
 -2.0868978e-01
  8.2609646e-02
  2.8310743e-01
 -1.9345336e-02
 -5.9696758e-01
  2.3054395e+00
  9.2580445e-02
 -3.8513865e-03
 -1.0499571e-01
  6.7526415e-02
  1.0158164e-01
  2.1290240e-01
  1.6143765e-01
 -4.9072094e-02
  2.5443988e-02
 -1.0225912e-01
 -3.9721239e-01
 -2.6092410e-02
  1.6001929e-01
 -1.2904717e-01
  2.5709456e-01
  1.5204772e-01
  2.3924994e-01
  1.4901944e-01
  1.3283525e-01
  2.3131816e-01
  4.9177045e-01
  5.6337010e-02
 -7.0525184e-02
 -8.3462507e-02
  6.7936443e-02
 -1.1476783e-01
  1.9349892e-01
  2.3780169e-03
  2.0297785e-01
 -1.8015226e+00
 -7.9018110e-01
 -2.8066063e-02
  1.5440504e-01
  1.7174178e-01
  2.7260879e-01
 -9.2075743e-02
 -1.3937005e-01
  2.1152470e-01
  9.3502603e-02
  2.5089785e-02
  2.9167170e-02
  1.6491304e-01
  2.7149174e-01
  4.0544022e-02
  2.0724219e-01
  1.2643920e-01
  6.7028657e-02
  7.8848116e-02
 -6.5681018e-02
  1.9598175e+00
 -3.6825527e-02
  2.5720659e-03
 -1.5156404e-02
 -1.3001515e-01
 -2.1989161e-02
 -1.8330798e-01
 -8.2237118e-01
 -2.2212043e-02
  8.7968923e-02
  4.6633136e-02
  1.7899132e+00
  4.7310393e-02
 -9.7111642e-04
  4.7231442e-03
 -6.0561288e-02
  6.4808503e-02
  3.8141379e-01
 -1.3542086e-01
 -1.8829820e-01
  2.6205354e+00
  1.3622618e-01
  4.0928391e-01
  2.0711228e-01
 -8.6060137e-04
  1.6504174e-01
  1.3862047e-01
 -3.8110167e-02
  4.1870236e-02
  6.1806630e-02
 -7.3067419e-02
 -5.5445656e-02
  2.9644544e+00
  1.9843200e-02
  8.9305304e-02
  1.5935867e-01
  2.8763850e+00
  8.5690551e-02
  1.8069543e-02
  4.1949313e-02
 -1.2062906e-01
 -6.2824361e-02
 -2.2726115e-02
 -5.0576746e-02
 -1.3488102e-01
  1.5903817e-02
  1.8597797e-01
  1.5795121e-01
  6.5879501e-02
  1.4470092e-02
  2.2414978e-01
 -3.6894145e+00
 -9.2666186e-03
 -2.2937307e+00
 -6.5276876e-02
  9.1511436e-02
 -3.2005015e-01
 -1.6620163e-02
  9.8425858e-02
  1.5971776e-02
  1.7026879e-01
  6.9857970e-02
  8.7126065e-03
  9.5445618e-02
  1.5421966e+00
  1.8171370e-01
 -2.3515260e+00
 -3.3435748e+00
 -2.1311672e-02
 -1.7848421e+00
 -6.5708119e-01
 -2.2075243e+00
 -4.4181151e+00
 -7.0665824e-01
  1.7767720e+00
 -1.0687271e+00
 -5.3126328e-02
  1.1120807e+00
 -6.9680378e-02
  1.4996496e-02
  3.2961801e-02
 -1.8443160e+00
 -1.2621917e+00
  5.4208642e-01
 -2.9149586e-02
 -6.2777960e-01
 -3.9418867e-01
  8.5740723e-04
  3.9807200e-01
  1.3959123e+00
  2.5500455e-01
  1.8563722e+00
 -5.2967966e-02
  2.6403666e+00
 -1.1946032e-01
  3.5219243e+00
 -3.8187459e-02
  5.5319920e-02
  2.4680753e+00
 -8.9646679e-01
  8.0173850e-01
  2.1939552e-01
  1.1063273e-01
  1.7852651e-02
 -4.7930274e-02
 -8.3125454e-01
  6.8128079e-02
  5.4714984e-01
 -1.1396811e+00
 -1.1299217e-01
 -5.6977455e-02
  1.1208747e-01
  7.8181274e-02
 -1.6834281e-01
 -9.2026579e-01
 -2.3947407e-01
  6.3201427e-02
 -3.2671660e-02
 -1.0773783e+00
  3.5091478e-01
 -1.4150426e-01
 -8.8473123e-01
 -2.6953168e-02
 -7.8452448e-04
  2.5350481e-01
 -1.1746253e-01
  1.2053286e-01
  8.9510784e-02
 -4.6971142e-02
 -3.4541409e-02
  1.1525946e-01
 -2.3999725e-01
 -4.3307085e-02
 -2.4911261e-01
 -2.2126652e-02
 -8.1501320e-02
  3.8741147e-03
  1.4044125e-01
 -7.1182539e-04
  1.2828501e-01
  2.6183915e+00
  6.2609039e-02
 -3.5925859e-01
 -9.8811311e-04
 -1.8647734e-02
  2.7212627e-02
 -1.0345758e+00
 -7.5153003e+00
  1.6476919e-01
 -1.5125631e-01
  3.4445480e-01
 -4.0528703e-02
  4.2604193e-01
  1.3874845e-03
  2.4481118e-01
  1.4054198e+00
 -9.8701179e-02
  2.2938225e+00
 -4.8658829e-02
  4.8119840e-01
 -9.5623709e-02
 -1.7626549e-01
  2.0144617e-02
 -1.1804125e-01
 -4.2669751e-02
 -1.8474560e-02
  1.1567243e-01
  5.4179054e-01
  5.0296907e+00
 -8.6086029e-01
  4.2360976e-01
  3.6794207e-01
  7.2137719e-01
  3.9381683e+00
  1.2960544e+00
 -2.7002213e+00
 -2.1951301e-02
  2.6222513e+00
  7.5185791e-02
  2.5132933e-01
  2.1624807e-01
  4.7329241e-01
  6.8632223e-02
  2.9430201e+00
  5.4582924e-01
 -4.2034965e+00
  1.5414704e+00
  1.7382982e-01
 -1.8664509e-01
  1.4344293e-01
  3.2319009e+00
  1.2169152e+00
 -2.9409616e+00
  4.2798409e-01
  3.2844226e+00
  1.3498479e+00
 -1.0500247e-01
  2.6079710e+00
 -6.0792613e+00
 -4.4858083e-01
 -1.9488077e+00
  3.2127712e+00
  4.0376682e+00
  8.8736653e-02
 -4.1989768e-03
  1.3675795e-02
 -1.0761520e-01
 -3.5494719e-02
  3.5303153e-02
  7.3942757e-01
 -4.9422088e+00
 -2.7038980e-01
 -2.7420634e-02
 -3.7864270e-03
  1.0044722e-01
  6.0607158e-03
  1.0377267e-01
  4.0104922e-02
  4.7351891e-01
  1.7534441e-01
 -7.0616972e-01
  9.2190743e-04
 -3.2736894e-01
 -6.3918479e-02
 -7.8809366e-02
 -1.3487684e+00
 -1.7751323e-01
  2.6085809e-01
 -3.4599498e-01
 -3.5737336e+00
  1.1276942e-01
  1.0047976e-01
 -1.0503889e-02
 -4.8357886e-01
 -1.7353864e-02
  4.7684472e-02
  1.7855161e-01
  6.4612806e-02
  5.7329160e-01
  5.4321405e-02
  2.4879184e-02
 -5.1560933e-03
 -2.0723516e-01
 -3.6495991e-02
  6.6515342e-03
 -3.1969407e-01
  3.4589580e-01
  1.0269106e-02
  3.0631635e-02
 -2.7933228e-01
  3.0851012e-01
 -1.6507119e-01
 -3.8762122e-01
  1.0046433e-01
  7.6243348e-02
  8.6197361e-02
 -1.3006333e+00
  5.8547482e-02
  7.3001635e-01
 -3.8348112e-02
  2.2864202e-01
 -7.7710137e-02
  1.2325990e-01
 -1.6115224e-02
  2.9622856e-01
 -1.0816420e-01
  3.2612357e-01
 -2.2851008e-01
 -2.0965698e-01
 -5.2118379e-01
  2.2752662e-01
  7.8450406e-01
 -9.5420137e-02
  1.5758444e-01
  2.4801364e-02
  1.0564304e-01
  1.2786547e+00
 -6.2299967e-01
  1.3090943e-01
  1.0719575e+00
 -1.1263318e-01
 -4.1003975e-01
 -1.6163343e-01
  1.9341755e-01
 -5.7231665e-02
 -1.4894290e-01
  5.0141943e-01
  4.8288396e-03
  4.1998301e-02
  1.2990227e-01
  1.6492034e-01
  1.2332886e-01
 -3.5291016e-01
 -3.3013210e-01
  1.2664045e-01
  4.6229687e-01
  2.5682256e-01
  8.2916237e-02
 -7.4592657e-02
  4.7435760e-02
 -1.9088994e-01
 -5.2095909e-02
  4.6570089e-01
  1.2734029e-01
  2.6456586e-01
  1.0918374e-01
  2.3950974e-02
 -6.1083745e-02
 -5.4994974e-02
 -5.2297089e-02
 -1.2331510e-01
 -6.6265956e-02
 -8.2417749e-02
  8.0139719e-02
  1.4998069e-01
  2.3536010e+00
  5.3591784e-02
  1.3832900e-01
 -1.0602975e-02
  8.7215126e-01
  3.4636638e+00
 -3.2095098e+00
  6.2527518e+00
  8.4775848e+00
  1.6285192e+00
  4.0632567e+00
  2.4067650e+00
 -2.8131921e+00
 -1.2733922e+00
 -3.6279428e+00
  5.9909148e+00
  4.6717310e+00
 -3.3690839e+00
  4.9265857e+00
  3.3940354e-01
  1.7850392e+00
 -1.4051358e+00
  5.0845981e+00
  7.4635696e+00
  4.6520829e-01
  6.3139319e-02
 -3.7443962e+00
  1.1418899e+01
  3.6588576e-01
  2.9764774e+00
 -1.9085859e+00
  5.6676135e+00
  6.0417972e+00
  1.0423281e+01
  3.8870063e+00
  4.1223416e+00
  3.1338809e+00
 -3.2186306e+00
  4.9855170e+00
  1.9259362e+00
  3.2127914e+00
  5.4658675e+00
  1.1108669e-01
 -1.0339492e-01
 -4.8251837e-01
 -8.5832667e-01
  3.4736324e-02
 -7.3896551e+00
 -2.5327709e-01
  9.6677905e-03
  1.7865351e-03
  3.1188127e-02
 -7.2222525e-01
 -1.2887914e-01
 -1.7192099e+00
 -1.0605004e-02
 -6.2733036e-01
  2.9013115e-01
  2.0137384e+00
  1.9388221e-01
  1.3890103e-02
 -6.2288973e-02
 -8.2139060e-02
  2.0816524e-01
  1.2232096e+00
 -7.3282498e-01
 -1.5576252e+00
  3.5977472e-02
  9.3053979e-01
 -5.2871250e-02
 -1.9472080e+00
  1.5155296e-01
  5.8230054e-01
  3.3649762e+00
  1.0298214e-01
  4.8214090e-03
  3.1118832e+00
  1.9126436e+00
 -7.2854042e-02
 -1.4614207e-01
 -1.7508821e-01
  1.1100165e+00
  1.5966841e+00
  5.0912732e-01
  1.0409031e+00
  1.9284795e-01
 -2.2884672e+00
 -5.1664308e-02
 -1.2614604e+00
 -8.4357959e-01
 -3.1528839e-01
 -2.3546503e+00
 -2.7320433e+00
 -5.9768093e-01
  7.5919293e-02
 -1.4408643e-02
  1.4512996e-01
  5.9641276e-02
 -4.9754253e-01
 -6.3732398e-01
  2.2165878e-03
  2.2637521e-01
 -2.2877425e-01
  5.4258138e-01
 -7.4825153e-02
 -4.2070417e+00
 -4.8390798e-02
 -1.0399865e-01
  3.5473505e-01
  8.8827610e-01
  3.1378961e-01
  3.7471958e-02
  1.0019252e-01
  2.0705134e-01
 -1.1974447e+00
  4.0251076e-01
  7.1032576e-02
 -4.5880091e-01
 -1.5287399e-01
 -8.2505353e-02
 -4.5610422e-01
  4.8489161e+00
  3.3454734e-01
 -1.3453717e+00
 -4.2079604e-01
  2.5825212e+00
 -3.0085051e-01
  2.4478516e-01
  1.0570195e+00
  2.5309043e+00
 -1.1237540e+00
 -3.5274684e-01
  8.2656138e-02
 -3.5439441e+00
 -4.5711335e-02
  5.2241850e+00
  5.5973721e-01
  1.3966274e-01
  9.6527469e-01
 -4.4943936e-02
 -4.0894270e+00
 -3.4659351e-03
  2.5132704e+00
  1.5475267e-02
  1.3945335e-02
 -2.6376706e-01
  4.3700568e-02
 -4.4630889e-02
 -2.8685561e-01
 -2.0611708e+00
  9.3857355e-02
  5.3095836e-02
  1.4872245e-01
  5.1244203e-02
  5.5434763e-01
 -2.6659654e-02
 -3.7705917e-02
 -1.4891256e+00
  6.5411991e-01
 -1.9019820e-02
 -2.5526686e+00
 -6.9765359e-02
  3.4571905e+00
 -3.8954222e-01
 -6.0955501e-01
  3.4803445e+00
 -4.4790643e-01
 -2.2139197e-02
  2.8210858e-01
  2.4560808e-01
  3.5795234e-02
  3.4461913e-01
  5.9791297e-01
  4.4196537e-01
 -4.2746615e-01
  1.3745563e-01
  1.9431086e-01
  3.0765198e-02
 -5.2372623e-02
  4.3316749e-01
 -3.0036265e-01
  1.1736988e+00
  5.6373687e-03
 -5.6982166e-01
 -5.8041805e-01
 -6.1192369e-01
  6.6706675e-01
 -7.9575507e-03
 -6.7785881e-02
  2.7335137e-01
 -1.2357887e-01
 -1.3617843e-01
 -2.6902995e-01
  2.0568719e+00
 -3.9801648e-01
 -2.5504950e-02
 -1.1959989e-01
 -5.9793433e-03
  8.7220329e-01
  1.1979167e-01
 -8.1541783e-01
  2.4923554e-03
  2.9035211e+00
 -9.4239390e-01
  1.2259967e-01
 -1.3743199e+00
  1.7572215e-01
 -5.2120346e-01
 -8.3638245e-01
 -1.7472336e-01
  2.4016501e-02
 -1.5074299e-01
  2.7852988e-02
 -3.3237159e-01
  2.4276948e-01
  2.2948591e-01
 -1.5650696e-01
 -3.9144926e-02
 -1.2634142e-01
  1.4909233e-04
 -6.2053949e-02
 -8.6248584e-02
 -2.1369341e-01
 -3.4963861e-01
 -2.1877085e-01
 -6.2913179e-02
 -1.3853325e-01
 -3.6038172e-01
 -2.3131099e+00
  3.2617569e-02
 -1.5290494e-01
  3.9077125e-02
 -7.3843993e-02
 -2.1297155e-01
 -6.3608944e-02
  5.4808772e-01
 -8.2240313e-02
  2.4707712e-02
 -2.1982385e-02
  8.4699839e-02
 -1.4216915e-01
  4.7414363e-03
 -4.5488019e+00
  2.6104555e+00
  1.5957205e-02
  6.3219196e-01
  5.0056193e-02
 -1.1917173e-01
 -2.9891528e-02
 -1.8521883e-01
 -2.1833158e+00
 -1.7320308e-01
  1.3636073e-01
  5.1965423e-02
  1.0868162e-01
  6.0634162e-02
 -1.3421490e-02
 -8.5792959e-02
  1.9924897e-01
  1.3882800e-02
 -1.5931989e+00
  9.0385474e-02
 -2.0999932e-01
  2.8317781e-02
 -1.3343453e-01
  1.0789207e-01
 -1.2448242e-02
 -4.5247808e-01
 -2.4295616e-01
 -1.1757803e-01
 -9.2942886e-02
  5.4892845e-02
  7.2200894e-02
  9.9746790e-03
 -3.8802433e-01
  3.5657704e-01
  1.6126801e-01
 -3.7076083e-01
  2.8558490e-01
 -3.2896259e-01
 -1.2335416e-01
 -5.6481425e-02
  1.0265825e-02
  1.7367240e-02
 -1.2853377e-01
 -2.1272632e-01
  5.6263216e-02
 -2.8782859e-02
  1.2776460e-01
 -2.2787707e-02
 -1.8370028e-01
  1.1533440e-01
 -1.4430542e+00
 -3.6410746e-01
 -7.7255167e-02
 -3.2693833e-01
  1.8683992e-02
 -1.4506674e-01
  4.3162251e-01
 -1.7938801e+00
 -5.9789602e-02
  1.0106994e-01
  3.4111676e-01
  1.9195726e-02
  9.7457990e-02
 -4.5020547e-02
  1.8264264e-02
 -7.5901002e-02
  8.3874770e-02
  1.2831187e-01
  4.2426497e-02
 -2.8325766e-01
 -2.1374073e+00
 -3.1823444e-01
 -1.7484282e+00
 -4.1437931e-02
  2.6919010e+00
 -9.1556317e-01
  3.9210143e+00
  3.0421731e+00
  2.3948133e+00
 -4.6284232e+00
  7.0046884e-01
 -5.2607427e+00
 -4.3638601e+00
 -4.6607029e-01
  6.4908099e-01
 -5.8830881e-01
 -1.6172163e+00
 -2.6616080e+00
  7.0962751e-01
 -1.3355488e+00
  3.5997212e-02
 -5.5927360e-01
  3.7476197e-01
 -5.1940408e+00
  1.6419761e+00
 -5.5201703e-01
  5.6872416e-01
  2.2830575e+00
  2.6454797e-01
  2.7240639e+00
 -1.8614026e+00
  2.3886321e+00
 -8.3066285e-01
  9.7798550e-01
 -1.5600078e-01
 -7.4247974e-01
 -2.3627895e-01
  3.4560652e+00
  1.9058959e-01
  8.3398896e-01
  3.6924148e-01
  2.3281689e-01
  5.0189900e-01
  1.7641695e-01
 -7.9689604e-01
  6.3388184e-02
  5.5916004e+00
 -1.7158540e-01
  1.7129837e+00
  1.2333894e+00
 -9.3643509e-02
 -3.0269218e-03
  3.7697205e-01
  2.9910885e-02
  1.4572822e-01
  1.2039417e-01
 -5.2720621e-02
  8.4851369e-02
  1.1328904e-01
 -6.4970893e-01
  2.1391007e-01
  1.9715884e+00
 -7.4599698e-02
  3.3865154e-02
  1.9447121e-01
  1.4410284e-03
  1.5801463e-02
  3.0816129e-01
 -4.3454271e-02
  9.9825233e-02
  5.3479485e-02
  9.4187967e-02
  2.1282037e-01
 -9.2707533e-01
 -7.1500108e-02
 -2.0691469e-02
  1.0029154e-01
  9.2432247e-03
  4.1220549e-02
  3.1847678e-02
  4.8898682e-02
 -2.8829429e-01
  2.3858936e+00
 -1.0367329e-01
  1.8435502e-02
  6.5264374e-02
  1.3779034e-01
  2.8653985e-01
 -2.2062302e-01
 -4.4673856e-02
  1.4687249e-01
 -8.3905064e-02
  1.2652087e+00
 -3.3718882e+00
  1.3951479e-01
  2.7671615e-02
  1.7513081e-01
 -8.5725881e-02
  1.1555855e-01
 -1.9893060e-02
  7.7657580e-02
  1.1398540e+00
  8.1530315e-01
 -1.9057125e+00
 -1.7360665e+00
 -3.3622320e+00
  4.5306726e+00
  1.2013148e+00
 -5.0898952e+00
  2.2275373e-01
 -7.6601036e-02
 -4.8751017e-01
  5.8436567e-01
 -2.1229888e-01
 -1.4149415e-02
 -1.3085011e+00
  2.8810003e+00
  6.5449059e-01
  2.8207948e+00
 -1.4327971e+00
 -2.1363275e+00
 -1.7129958e-01
 -2.5488160e+00
  1.7686098e+00
 -2.6838152e+00
  4.0676398e+00
 -1.6829665e+00
  1.6616842e+00
 -2.7676418e-02
 -1.9684907e+00
  3.1155238e+00
  3.0678222e+00
 -2.1089580e+00
  5.9988860e-02
 -1.2831084e+00
  5.0144067e+00
 -3.1320894e-01
  1.7991022e+00
 -2.7020352e+00
 -8.8565934e-01
  3.0392385e-01
 -6.8200588e-01
 -9.3353164e-01
  2.4330862e-01
 -3.3731931e-01
  7.3333345e-02
 -7.4954256e-02
  7.1133912e-02
 -6.8944395e-01
 -7.9432406e-02
 -1.9332515e-01
 -2.4291132e-01
 -1.2210320e+00
 -3.0223234e+00
 -3.3485117e+00
 -2.4453423e+00
  1.7856584e+00
  5.0348282e+00
  2.9851205e+00
  6.7256016e-01
  1.7228538e+00
 -2.8108368e-02
  1.8047188e-01
 -1.7403258e-01
 -7.8862272e-02
  1.6655916e-01
  7.4382621e-01
 -7.5785702e-01
 -7.8512484e-01
  4.8914960e-01
  1.4752845e+00
  3.7125018e+00
  3.7728694e-01
  3.3323624e+00
 -1.4959294e+00
 -5.6530148e-01
 -5.2398267e+00
  1.6127825e-01
 -1.1285983e+00
 -1.4186776e+00
 -6.7928964e-01
 -2.8387930e+00
 -3.8860494e-01
  1.2163250e+00
 -1.8692272e+00
 -2.3896995e+00
 -4.6842173e-01
 -6.6039305e+00
 -1.6820463e+00
  1.0659784e+00
 -4.0227950e-02
 -1.1689240e-01
 -1.9474773e+00
  1.4161257e-02
 -2.1753903e-02
  1.8450666e-02
  6.6519789e-02
  8.2345106e-02
 -5.5074118e-02
  3.5386151e-01
 -4.4880550e-02
  2.0218517e-01
 -1.4611077e-01
 -3.7619032e-02
 -4.8015871e+00
  2.2533360e-01
  6.9383287e-01
 -1.3864539e+00
  3.0452988e+00
  2.0316370e+00
  3.0341094e+00
 -7.8575885e-01
 -2.2386501e+00
  1.2597948e+00
  3.1463060e-01
  3.3327756e+00
  2.2147433e-01
  3.3306992e+00
  1.7789365e-01
 -1.8243072e+00
  4.5833073e+00
  3.8671938e-01
  5.8298235e+00
 -3.1928498e-02
  1.2638985e+00
  3.0470684e-01
  3.2874243e+00
 -4.6779938e+00
 -6.0205203e-01
  1.5041152e+00
  3.5126552e-01
  3.0959387e+00
  1.9310900e+00
 -1.7693424e+00
  1.2982585e+00
 -3.1449697e+00
  2.5437438e+00
  4.4362161e-01
 -6.4219546e-01
  1.9845530e-01
 -6.1344180e-02
 -1.7995665e-02
 -4.5029897e-02
 -4.5606416e-01
 -1.1911195e-01
 -1.8401336e-02
 -2.7941740e-01
 -3.3760335e-02
 -8.7133959e-02
  3.3251371e-02
 -2.7221274e-01
  9.5479801e-02
 -1.7813593e+00
 -3.1387005e-02
 -2.4450943e+00
  1.5118226e-01
 -6.0736918e+00
  1.4771858e+00
 -2.1524894e+00
 -3.4143786e+00
  2.0925689e+00
 -2.0037618e+00
  3.8905078e-01
  1.4544736e+00
 -1.8805681e+00
 -9.8539524e-02
  1.5939546e+00
  1.2852689e-02
 -2.8899286e+00
 -1.6890764e+00
 -9.9732691e-01
 -1.7906187e+00
 -2.6847374e+00
  2.7316356e+00
 -7.1072084e-01
 -2.3478070e-01
  1.8651180e+00
 -4.2353439e+00
  2.1919701e+00
  1.3191063e+00
  1.4303974e+00
 -2.4171712e+00
 -3.5054722e+00
 -4.9477592e-01
 -1.5989982e-02
 -2.9664531e+00
 -6.1650330e-01
 -1.2676534e-01
  5.5661935e-01
  4.1997743e+00
  3.3012426e+00
  1.0333017e+00
  2.8797307e+00
  3.9176774e-01
  2.0145242e+00
 -9.9129722e-02
 -6.7169726e-01
 -3.9475128e-01
  6.4708865e-01
  8.9510446e-03
 -1.7673016e-01
 -3.2930276e+00
  4.8109051e-03
 -7.5263077e-01
  2.7413394e+00
 -1.6063853e-01
  1.6107491e-01
 -8.3538944e-01
 -6.4453202e-01
  7.8301320e+00
 -4.7142297e-01
 -1.5304679e+00
 -4.8042458e-01
 -4.2932540e-02
  1.0619416e-01
  1.7356066e-02
 -1.0159744e-01
 -1.6718011e-01
 -9.0332560e-02
 -2.7099999e-02
 -1.0788170e-01
 -4.2650172e-01
 -1.2422349e-01
 -6.2337756e-02
  6.5364522e-01
 -8.2936615e-02
  7.6398484e-02
 -1.2770572e-01
 -1.3534436e-01
 -4.1883599e-02
  1.3136086e-01
 -6.0622543e-01
 -2.6229449e-02
 -9.5191367e-02
 -1.3784167e-02
 -1.0113670e+00
  2.6256114e-01
 -2.5175855e-02
 -1.8478896e-01
  1.1032435e-01
 -9.6986450e-02
 -9.9189109e-01
 -1.8829612e-01
  1.0104008e-01
  1.7972952e-01
 -5.2460149e-02
 -1.4554318e-02
  5.7788748e-02
  1.4454888e-01
  3.4406625e-02
 -1.6357058e-01
 -7.9413326e-03
 -8.2265645e-02
 -2.0900662e-01
  3.0039212e-02
  5.5779672e-01
  3.1068587e+00
 -8.3489591e-01
 -1.1703448e+00
 -2.5516720e-02
  5.4086232e-01
 -8.1180638e-01
  3.9091113e+00
 -1.0898580e-01
  1.6118881e+00
  7.9379044e-02
  1.8436924e-01
 -3.3342052e-02
 -2.2286494e-01
 -2.0959423e+00
  4.0059727e-01
  6.8032312e-01
 -4.8189551e-02
 -2.7211007e-01
 -1.3026695e-01
 -3.2676139e-01
  9.2244685e-01
  6.0498361e-02
  2.8063890e-01
 -1.7117983e-01
 -4.3729730e-02
 -1.0453453e+00
 -5.2426451e-01
  9.4802350e-01
  1.5542266e+00
  1.7841037e-02
 -1.1922430e-01
  3.7503116e-02
 -7.0743248e-02
  4.5590749e-01
  2.9864652e+00
  2.8562629e-01
  1.1743147e-01
 -2.5295901e-01
  1.6993003e-01
 -5.9791613e-01
  1.4305817e-01
  5.3324807e-01
  7.2890613e-03
 -4.3865003e-02
 -1.9403279e+00
  1.4394592e-02
 -1.7828220e+00
  2.2801252e-02
 -2.4324526e-01
  4.2766154e-01
 -8.7227374e-02
 -2.9502645e+00
  1.3746204e+00
  5.2370553e+00
 -3.1580675e+00
 -6.3605466e+00
 -6.7203374e+00
 -4.2997775e+00
 -4.0440154e+00
  1.9825460e+00
  7.2883767e-01
 -1.5185878e-01
  1.1822411e-01
  7.1228617e-01
 -3.5557970e-01
 -1.3497461e+00
  6.1716717e-01
  1.5368570e-01
 -2.3861294e+00
 -4.8499494e+00
  7.4726772e-01
  2.0559120e+00
 -6.1123562e-01
 -5.3112233e-01
 -1.3011259e+00
  1.2098569e+00
  7.2980565e-01
 -1.2882456e+00
  1.0436465e+00
 -1.3267912e+00
 -2.1625471e+00
  6.0383044e-02
 -3.7954869e+00
 -3.0638759e+00
 -1.7045828e+00
 -1.2552060e-01
 -2.9027002e+00
 -1.3446520e-01
  4.8535757e-02
 -8.6461657e-01
  2.9691439e+00
  2.4729876e-02
  5.5230820e-01
  4.5515579e-01
 -1.3728711e-01
 -8.7423049e-02
  1.8664300e-01
 -3.6078960e-02
 -4.3164700e-02
  9.3938418e-02
 -8.4516037e-01
 -9.7336635e-02
  3.5590789e+00
  2.3148730e+00
  1.3796368e-01
 -2.9368746e+00
 -1.9598427e+00
 -5.3059764e+00
 -3.0434554e+00
 -3.5603509e+00
 -3.0247455e+00
  3.3019648e+00
  7.7867068e-02
 -6.5779263e-01
 -2.4198256e+00
 -6.0794592e-01
  1.7992887e-01
 -1.6168399e+00
  3.9734712e+00
  2.6924880e+00
 -3.1965418e+00
 -8.2782679e+00
  1.6008688e+00
 -1.3140296e+00
 -1.4705883e+00
  2.3928237e+00
 -2.4935281e+00
 -9.1083035e-02
 -1.6129371e+00
  2.0061524e+00
  5.4590058e-01
  1.1247224e+00
  7.2378534e-01
 -1.8295540e+00
  2.1552701e+00
 -7.4064884e+00
 -4.9242643e-01
  2.8824812e-01
 -9.8170924e-01
  1.5581447e-01
  1.7346038e+00
  2.5883543e-01
 -1.9387772e+00
 -1.9985050e-01
  1.2919296e+00
 -3.4460613e-01
 -2.6911447e-02
  2.9119868e-02
  3.3991348e-02
  9.9543333e-01
  1.8944651e-01
  2.5999539e+00
 -6.7960121e-02
  1.1795385e+00
 -2.8304163e-01
 -1.5805327e+00
 -1.9848801e+00
  1.6888024e+00
 -1.0154356e+00
 -2.1475949e+00
 -2.2528768e+00
  2.7543066e+00
 -2.1558354e+00
  4.5729968e-01
  2.9604704e+00
  1.3983521e+00
  7.7575874e-01
  1.7647520e+00
 -1.2583991e-03
 -7.5855870e+00
 -8.4986281e-01
  9.8238534e-01
 -1.4994147e+00
 -2.3709540e+00
  1.9139428e-01
  5.7094264e-01
 -1.3857923e-01
 -2.8069096e+00
 -4.5198756e-01
 -1.2605543e+00
  7.8419042e-01
  9.5417917e-01
 -3.7507012e+00
  9.0957415e-01
 -8.0133045e-01
  2.6996052e+00
 -2.0758302e+00
 -1.3447484e+00
 -6.9731510e-01
 -8.0818641e-01
 -9.6345827e-02
 -6.3117474e-01
 -6.7159522e-01
 -1.9899838e-01
  7.0736283e-03
 -5.0238695e+00
 -1.4605070e+00
  5.8433216e-02
 -4.5970652e-01
  2.1206632e-02
 -3.4278688e+00
  2.7005520e-02
  6.1006206e-01
 -2.9368314e-01
 -4.8296489e-02
 -4.6469913e+00
  6.9231510e-02
 -1.9484804e-03
 -6.4030892e-01
 -4.4326803e-01
  5.8870213e-03
 -1.2476325e+00
  4.7885779e-01
 -6.3398950e-02
 -1.1631846e-01
  3.6912873e-02
 -1.4264840e+00
 -2.3497531e-01
 -6.3719809e-01
 -5.6776930e-02
 -1.1375250e+00
 -6.7290235e-01
 -1.2017124e+00
 -6.2942773e-01
 -4.8439223e-02
  2.0933528e+00
 -8.6693293e-01
 -3.7855852e-02
  1.1758995e+00
  2.3617314e-03
  1.8687884e+00
  1.7680818e-01
  7.9510975e+00
 -4.2565319e-01
 -3.3942154e-01
 -1.9090096e+00
  1.4154997e-01
 -2.3890812e+00
  1.0661079e-01
  4.8436412e-01
 -5.2108115e-01
  1.0391531e-01
  1.9862545e-01
 -2.6941372e-02
 -2.5496786e+00
 -1.3405627e-01
 -4.5310149e+00
 -1.0568724e-01
  6.5540351e-02
  6.5077464e-03
  1.7461577e-02
 -3.7241352e-01
 -1.7508985e-02
  1.0867757e-02
 -5.1958662e-02
  3.5818920e-01
  7.5152665e-02
  2.2373113e-01
  4.8596266e-01
  1.5168277e+00
  9.0396419e-02
  7.2526866e-01
  1.7325662e-02
  1.1436765e+00
 -4.0064600e-01
 -4.6413285e-01
  1.6112142e+00
 -7.0466695e-04
  1.9956452e-01
 -1.4314486e-01
  7.8842402e-02
 -1.9588448e-01
  2.7105540e-01
  2.1602988e-01
  3.3908062e-02
 -2.3968091e+00
  1.4150810e-02
 -2.2128563e-02
  3.3022072e-03
 -2.2631809e-02
  8.0313452e-02
 -4.8103433e-02
  8.1232794e-02
  3.1781852e+00
 -2.1462581e+00
 -3.0794055e+00
  7.2904967e-02
 -2.3191717e-02
 -2.2837071e+00
 -1.6604921e-02
  3.2875219e-01
 -2.2392097e-01
 -2.4934967e-01
  1.7994874e+00
 -7.2792083e-02
  5.7323128e-02
  7.8151697e-01
  6.6217221e-02
  5.3595233e-01
 -7.0648208e-02
  1.4047666e-01
  7.5587004e-01
 -7.7597290e-02
 -2.5569038e+00
 -1.0535356e-01
  4.7651794e-02
 -4.1187617e-01
  2.2277427e-01
  8.2019515e-02
  3.0890214e+00
  3.1866884e-01
  5.7114130e-01
  3.9390364e-01
  2.8214911e-01
  1.0891355e+00
  4.1528706e-02
 -2.8874245e-01
  2.8156424e-01
 -2.6353058e-01
  7.9701282e-02
 -1.9708382e-02
  1.9120516e-01
  1.1584195e+00
 -2.3641089e-02
  1.5039033e-01
 -7.9375798e-01
  1.0856722e-01
 -2.5000903e-01
 -1.6541755e-01
 -1.4063121e-01
  3.1029314e-01
 -2.0051627e+00
  1.7687893e-01
  7.9092318e-01
  4.9067657e-02
  1.8023305e+00
  2.1584604e-02
  1.2620188e-01
 -5.6990553e-03
  7.4116372e-02
  1.0243530e-01
  5.6628608e-03
 -1.7827457e-02
  2.4737582e-02
 -4.4261155e-01
 -6.2662959e-03
 -1.5889591e+00
  6.1029490e-02
 -6.7965633e-01
  7.6582566e-02
 -7.7456498e-01
  4.4505367e+00
 -1.7627457e-01
 -4.4727795e-02
  1.3205060e-02
  2.6145315e-01
 -1.2483764e-01
  1.1035865e-01
  2.2158289e-01
 -1.8278854e-01
  5.3981938e-03
  4.2124619e+00
  1.1038983e-01
 -5.1752949e-01
  4.9857876e-01
 -1.3254324e-01
  3.1067533e-02
  5.6318488e-02
  1.8715237e-01
 -2.5065647e-02
 -5.2973813e-01
  7.9600491e-02
  3.3748664e-02
  1.6884279e-02
  9.5815204e-02
 -8.7634668e-02
  4.8433688e-02
 -1.6367711e-01
 -1.1899748e-01
  3.3457277e+00
 -4.1348960e-02
  8.8414937e-02
 -5.7957119e-01
 -9.7045690e-02
  1.0859276e-02
  7.3889531e-02
 -1.6944258e-01
 -2.3817635e-01
  1.9857192e-02
 -2.5360130e-02
 -2.7367038e-01
 -6.9099823e-03
  2.5763741e-01
  4.8563916e-02
  4.3186784e-02
  1.5053657e-01
 -1.2663938e-01
  8.5380614e-02
  9.7733878e-02
  1.8126898e-02
  2.7235473e-02
  1.2264015e-01
  7.9471670e-04
 -3.2492783e-02
  1.3712722e-01
 -1.5335126e+00
  7.5674555e-03
  3.1733118e-02
  4.7574547e-01
 -5.6978625e-01
  1.7706344e+00
  1.5502328e+00
  1.9706618e+00
  3.2293897e+00
 -4.3732042e+00
  2.9644141e+00
  2.3328249e+00
 -1.1618668e+00
  2.5172191e+00
  4.2704064e-01
  2.6532134e-01
 -6.4867817e-02
 -4.7965956e+00
  1.2314659e+00
  1.1414766e-01
  2.0871160e+00
  9.8279476e-01
 -3.3088593e+00
 -7.5017697e-01
 -1.0038656e+00
 -2.8501612e-01
  6.6458088e-01
 -2.5773830e+00
  1.4621508e+00
  2.7097957e+00
 -4.5577295e-02
  1.0483866e+00
 -2.4915020e+00
 -3.9169812e-01
  7.4531949e-01
  5.5901198e+00
  7.7960711e+00
  2.3192750e-01
  8.4032941e-01
 -1.2131083e+00
 -7.1506679e-02
  1.1750014e-01
 -8.8031471e-01
 -8.9076310e-02
 -1.9250104e-02
 -6.5583706e-01
 -5.5142544e-02
  7.0834053e-03
  2.4084673e+00
  2.9176193e-01
 -1.4657541e-01
  4.0549930e-02
 -2.5358322e+00
  1.3127835e-01
 -4.7417600e-02
  3.5894561e-01
  4.2787164e-02
  6.9614977e-02
  6.1961200e-02
 -1.5173085e-01
 -7.2987555e-03
 -6.4816140e-02
  9.1914810e-02
  3.3874828e-01
 -1.5330452e-02
 -1.3476007e-02
  2.9791132e-02
 -3.1406146e-01
  1.5401570e-01
  5.0107673e-02
  3.1325001e-01
 -1.2199441e-03
  1.3200502e-01
  9.6570492e-02
  4.1876350e-02
  7.9033618e+00
 -1.8515614e-01
  6.3652702e-02
  2.2979191e-01
  3.0095696e-01
 -2.2175260e-01
 -1.6770387e-01
 -4.9650156e-01
 -1.3710488e-02
  3.1819007e-01
 -1.4607280e-03
  1.1920338e-01
  1.0921002e-01
  4.0362994e-03
 -3.9789304e-03
 -5.8224297e-01
  1.7178917e-02
 -2.3100130e-02
  4.8756102e-01
  2.0827711e-01
 -1.4486717e-01
 -1.5163386e-01
 -1.7703448e-01
 -2.3655619e-01
  7.0808059e-01
  4.5888261e-03
  1.0106381e-01
 -1.9340463e-02
 -5.2619870e-03
  6.7663051e-02
 -2.6030514e-02
  9.2026837e-02
  3.3571172e-01
  6.9515324e-01
 -1.6331121e-02
  7.4607055e-03
  2.6640236e-01
  7.7965460e-03
 -1.7203798e-03
  2.8800968e-02
 -1.9296968e-01
 -1.7468244e-01
 -8.6145652e-03
  1.2879187e-01
 -1.1108912e-01
 -6.1465718e-02
  3.0168095e-01
  1.7454894e-01
 -4.0315725e-02
 -1.9852273e-02
 -4.7636838e-03
 -5.4098316e-02
  2.4613512e-01
 -3.5968360e-02
 -1.8500322e-02
 -2.4300860e-01
  7.5086051e-01
 -4.5766279e-02
  2.7523354e-01
  1.2106094e-01
  9.7153336e-02
 -2.5062472e-01
 -7.9755491e-01
 -2.9480176e-02
 -1.0039223e+00
  4.2040553e-02
  1.2443873e-01
 -4.9918938e-02
  8.7734098e-03
 -2.0470532e-02
 -2.6712921e-02
 -1.7006004e-01
 -4.1755041e-01
 -1.6768900e+00
  4.6133436e-02
 -1.0775349e-01
 -2.2235997e-01
 -2.2812428e+00
  1.6678237e+00
 -1.2748304e-03
 -1.3311189e-01
 -1.4656740e-01
  8.7560320e-01
 -6.9361269e-01
 -3.1620792e-01
 -1.8254679e-01
  2.8729918e+00
  4.0706968e+00
 -4.2221833e-02
  3.6231480e+00
  2.6927063e-01
  1.2432115e+00
  4.7740415e-02
 -1.1357941e-01
 -8.4555708e-02
 -1.2421795e+00
  1.4316975e+00
  2.0189314e+00
  4.2231302e+00
  6.3644074e-02
  1.3581002e-01
 -1.2383435e-01
 -2.5885386e+00
  9.6127415e-01
  6.6507357e-01
  3.3695955e+00
 -3.2975335e+00
  2.2715170e+00
  1.2517652e-01
 -4.0318422e+00
  1.9004172e-01
 -5.8912955e-02
  3.0958930e-02
 -2.4034755e+00
  7.3562264e+00
 -7.7648558e-02
 -2.0828364e+00
 -1.4187248e+00
  1.8737537e-01
  1.8715912e+00
 -5.7148866e-02
  6.6510469e-02
 -1.4634639e-01
  2.1819582e+00
 -1.1743991e+00
  1.7823352e-02
  2.5528789e-01
  1.2930928e-01
 -2.2891492e-02
  5.6084102e-01
 -3.8670974e+00
  6.8392102e-03
 -2.4761321e-02
 -2.1799541e+00
  2.8364782e+00
 -2.3909614e+00
 -1.6959177e-01
 -1.2185268e+00
 -1.5190490e-01
  9.8925263e-02
  1.9816522e-01
 -3.7974745e-01
 -9.5534213e-02
  2.1618551e-01
 -1.8223361e+00
  6.4250208e-02
  1.6177776e+00
 -6.4638838e-02
 -2.0102005e-02
  6.4247382e-01
  2.1721778e-02
  7.9592121e-01
  2.0008941e-01
 -1.7477367e+00
  1.2058176e-01
  5.0955862e-01
 -2.9030010e-01
  1.9771293e+00
 -1.4699426e-01
  3.8896433e-01
 -3.0461397e+00
  4.3835748e-02
  1.1053518e+00
  6.9289470e-01
  1.3753679e-01
 -2.1240452e-01
 -2.3695245e-01
  5.1850170e-01
  4.6029572e+00
 -2.7002083e-02
  1.3332227e-01
  9.3747371e-01
  1.9085091e-02
  1.4902723e-01
  3.0098224e-01
 -1.4020878e-01
  2.6820412e-01
  3.1194434e-01
 -3.4307446e-02
  1.3262938e+00
 -3.7707921e-02
  1.8882540e+00
  1.1903346e-01
  3.6935091e+00
  1.3006760e+00
 -1.7281753e-01
 -4.0333986e-01
  2.3090110e+00
 -2.8240234e-01
 -4.6630388e-01
 -5.5966353e+00
 -8.0694634e-01
  9.9762434e-01
  1.8288411e-02
  5.5188882e-01
 -2.6720977e-01
  5.2421512e-03
 -2.7752393e-01
  2.7233712e-02
 -8.7893730e-01
 -1.2740482e-01
  1.3196145e+00
  3.3156231e-02
 -5.2331954e-01
 -1.2372086e+00
 -3.2921743e-01
  2.9151699e-01
 -2.0883520e+00
  5.7653391e-01
 -2.7720755e-01
 -6.0508323e-01
 -2.5497272e+00
  8.5995758e-01
 -3.1784138e-01
 -4.0000644e-01
 -1.3027271e+00
  4.7750387e+00
  8.2829006e-02
  1.9538721e-01
  1.5613267e+00
 -1.8348588e-01
  5.6064446e-02
  4.7165477e-01
  7.0498782e-01
  4.8137191e-03
 -1.2239513e-01
 -2.5631988e-01
 -1.1997557e-01
  7.4207798e-02
  1.0664712e-01
 -1.7704759e+00
 -2.3980881e-01
 -1.1104580e-01
  4.1898945e-03
 -2.4034908e+00
  2.7600527e+00
  1.1649697e+00
  9.8608315e-01
 -4.8350334e+00
 -2.9814162e+00
  3.1260681e+00
  6.7316574e-01
  8.6225629e-01
  2.0951731e-02
 -1.4813703e-02
  2.0971088e+00
 -1.2567015e+00
 -1.7490018e-03
  1.6174142e-01
  1.3944402e-01
 -5.0613344e-01
  3.7750897e+00
  1.9578119e-01
  2.3484917e+00
  4.4740723e-03
  1.7827064e+00
  1.7371742e+00
 -2.4778585e+00
 -1.4157531e+00
 -2.4791001e-01
 -1.9681609e+00
  3.8473842e-01
 -1.9870155e+00
  5.3598911e-01
 -1.2748058e-02
 -7.7646708e-01
 -4.4973145e+00
 -3.4251699e-01
  1.4420371e-01
  4.9604421e+00
  5.3415208e+00
 -5.4009605e-02
  1.4219472e-01
 -4.0858336e-02
 -1.3727510e+00
  1.9782272e-01
  1.4315025e+00
  2.3329062e+00
  5.3289548e-02
 -4.4114988e-02
 -2.1629393e-02
 -4.2338288e-01
  7.2253816e-02
 -1.4637252e+00
  2.7548276e-02
  6.9059178e-02
  1.5920235e-01
  7.5667274e-01
 -2.0465455e-03
  6.4028941e-02
  1.4133413e-01
  2.2711529e-01
  5.1425314e-01
  1.9563448e-03
 -9.2078395e-02
  2.1775689e-03
  8.8729911e-02
  2.2979145e-01
  7.5191699e-02
 -3.2519508e-02
 -1.0852456e-01
  1.1950079e-01
  1.2723359e-01
 -1.1056681e-01
  8.4672838e-02
 -1.8206927e-01
 -7.2703870e-06
  1.5269235e-01
  2.0603889e-01
 -2.1579189e-02
  4.5721009e-01
  2.1906000e-02
  2.0581505e+00
 -4.3780240e-03
  8.3256401e-03
  3.4383208e-02
  1.5732253e-02
  1.5055777e-01
  5.8413911e-01
  2.6513478e-01
 -6.2048156e-03
 -3.4587994e+00
 -8.6485595e-02
  8.8295884e-02
 -3.9091107e-02
  7.7462671e-03
 -1.0206170e-02
 -1.5475507e-01
 -6.4755633e-02
 -9.3214470e-01
 -2.4827656e-01
 -1.8297674e-02
  8.2316585e-02
  1.3242034e+00
 -5.3363610e-02
  2.0348966e-01
  7.5053334e-02
  6.9250780e-01
 -2.7638790e-01
  7.3781723e-01
 -3.8150700e-03
 -4.8277161e-01
 -6.3036603e-01
 -2.4755919e+00
 -1.0326888e-01
  1.9699773e-02
 -1.5475037e+00
 -1.3859344e+00
  2.6399903e+00
  7.0480198e-02
  2.3530042e+00
 -1.6246365e-01
  1.0752075e-01
 -5.1906962e-02
  1.3713918e+00
 -2.8006494e-01
 -4.6202600e-01
 -4.6431933e-02
  9.4822183e-02
  1.8233316e-01
  4.3608427e-01
  1.2977782e+00
  2.9813820e-01
  9.6795875e-01
 -3.3350536e-01
  7.0270312e-01
 -3.4138659e-01
 -1.1862390e+00
 -3.9313231e-02
  5.8288682e-01
 -5.3156286e-02
 -2.2905496e-01
  2.0750744e+00
 -1.4779827e-01
 -1.1213448e+00
 -5.1474438e+00
  1.4453042e+00
 -3.9398856e-02
  2.1498813e-01
 -1.0241418e-01
 -6.8129875e-02
 -3.1516500e-02
 -1.0945988e-01
 -8.7210339e-01
 -3.9270308e-02
 -1.6221792e+00
  4.0148724e-02
  8.1120871e-02
 -9.5583487e-04
 -8.3789945e-01
  6.8588126e-01
  1.8533780e-01
 -2.5150552e-01
 -7.3948927e-02
 -7.6492244e-01
  6.3452143e-03
  7.7440716e-02
 -1.4247476e-01
 -3.2983713e-02
  2.3457499e-02
  4.1572727e-02
 -1.3997892e-01
  3.4468409e-01
  2.7624877e-02
 -2.5020024e-02
  3.9715216e-02
  2.3037257e-02
  5.4185968e-02
 -2.1846452e-01
  1.3889444e-01
 -4.2414166e-02
  5.1081896e-02
 -2.0199001e-01
  4.4346742e-02
  1.3082894e-02
  1.4829378e-01
  9.7839192e-02
 -1.3076045e-01
  2.8862670e-02
  5.7804395e-02
 -3.5896826e-01
 -3.2881141e-01
 -2.3962137e-01
 -1.4809739e-02
 -5.8015354e-02
  1.2688380e-01
  2.0272525e-01
  3.1963628e-02
 -5.8967716e-01
  2.6039246e-02
 -9.1750748e-02
  1.7592269e-01
 -3.5646274e-03
  3.6439317e-01
 -2.8704245e+00
  1.3364618e-01
 -4.4009991e-02
  3.5468831e+00
 -5.9213012e-02
 -8.4209390e-02
 -2.7932277e-01
  1.9185327e+00
 -9.8058581e-02
 -1.4771044e-01
 -1.7173253e-01
 -6.6862476e-01
 -3.4648073e-01
  1.1956942e-01
 -2.7697426e-01
 -2.9012648e-02
 -1.0746089e-01
 -4.1067638e-03
 -1.3833029e-02
 -2.4237761e+00
 -9.3972608e-02
  2.0365489e-01
 -4.2751467e-01
 -5.4783758e-02
 -5.1297698e-02
 -4.4167542e-01
  2.9496457e-02
  1.5157228e-03
 -8.1002943e-02
 -7.9360530e-02
 -3.2852480e-01
 -9.4847932e-02
 -9.7309109e-03
 -6.6806659e-02
  1.2073029e-01
 -1.8980414e-01
 -8.1034102e-02
 -9.1388971e-01
 -5.9848554e-02
 -3.9294407e-02
  2.7747683e-02
  1.7262565e-01
 -2.6751934e-02
  3.5738841e-02
 -4.1244373e+00
  1.6167102e-02
  2.1048957e-02
 -1.4336549e+00
 -8.1061892e-02
 -1.1069724e-01
  5.8741104e-02
  3.5526522e-02
 -9.6540213e-02
  7.4480176e-02
  6.6427314e-01
  1.7225283e+00
  9.3989216e-02
 -4.3652881e-02
 -8.5672058e-02
 -1.7422770e-01
  3.7062459e-02
 -1.3403173e-01
 -1.2983367e+00
 -3.3647198e-02
  2.8635103e-01
  8.8657796e-02
 -1.1412210e-01
  1.3783705e-01
  1.2787476e-01
  5.8174409e-02
 -5.7854112e-02
  8.1966475e-02
  7.8997992e-02
  1.7915206e-02
 -1.0738248e-01
 -5.1631495e-02
  8.1104189e-02
  1.0289678e-01
  6.0083430e-02
 -1.7646687e-03
 -1.2436217e-01
 -5.2270097e-01
  5.8283132e-01
  2.8608278e-03
 -1.2814288e-02
  1.1804793e-01
 -6.9775857e-02
 -7.4150041e-02
  2.2924317e-02
 -6.3463688e-02
  1.6015282e-01
 -8.8307364e-03
  8.7701321e-01
 -7.2081909e-02
  2.3095186e-01
  7.1441598e-02
  1.6131770e-02
 -2.5535339e-01
 -7.4391708e-02
 -1.1059968e+00
  1.5167314e-01
  5.6885559e-02
 -1.1422979e-01
  9.1253214e-02
 -2.5676399e-01
 -4.3016840e-02
 -2.1173215e+00
 -3.0094483e+00
 -2.6841335e+00
 -1.0350361e+00
 -3.2601511e-01
 -2.3755841e+00
 -7.1619254e-01
  4.0391898e-03
 -3.4286100e-01
 -3.2014428e-03
 -1.1156200e-01
 -2.0567423e-01
 -1.3096683e+00
 -1.7905387e-03
 -3.3809752e+00
 -1.0162991e-02
 -6.9387132e-01
  1.5546723e-01
 -8.4973645e-01
  3.0114477e+00
  5.1309437e-01
 -1.9581459e+00
 -1.8702744e-01
  3.1713498e+00
 -1.6461909e+00
  9.5574099e-01
 -6.7745256e-01
  2.6756325e+00
  2.3007719e-02
 -1.5819303e+00
  5.5722392e-01
  3.5031602e-01
 -3.6881855e-01
 -4.2242792e-01
  2.4482822e-01
 -1.9718939e+00
  2.9408579e+00
  6.4736530e-02
  5.2869731e-01
 -3.4060344e-02
 -1.7097838e+00
 -2.0759515e-02
 -1.4076303e+00
 -3.5745874e-01
 -1.0906823e-01
  1.0166114e-01
  9.7336560e-02
 -3.0945757e-01
  4.4453371e-02
  1.1597417e-01
 -1.2840523e-01
 -3.1342618e-02
 -1.0287799e-01
 -2.0357810e-02
  1.1858471e-01
 -1.0233434e-01
  1.2493709e-01
  8.2043931e-02
 -5.6146944e-01
 -5.9526064e-02
  6.9651627e-03
  1.2299993e+00
  3.6271092e-01
  3.8170636e-02
 -1.4610621e-01
 -1.2245510e-01
 -1.3261244e+00
  1.8076224e+00
 -2.7315108e-02
 -1.6430929e-01
  4.3187961e-01
  1.7182987e+00
 -1.4550920e-01
  4.2831732e-04
 -3.8729217e-02
  8.7181039e-02
  1.9088503e-02
 -2.7208456e-01
  4.4941995e-02
 -2.2752671e-01
  5.9488147e-02
  7.9008810e-02
 -6.0143355e-02
 -2.6414583e+00
 -4.5888701e-01
 -9.8960288e-03
 -1.1462468e-01
  2.8912741e-01
 -7.1343668e-02
 -1.8085586e-01
  2.0083617e-01
  7.5536460e-02
 -1.4239615e+00
  7.4206755e-02
 -8.5830400e-03
 -3.9902261e-01
 -6.8540193e-02
 -2.6964420e-02
  1.6560020e-01
  1.2460797e-01
 -1.5313460e-01
  1.1892676e+00
  2.9241810e+00
 -5.3889089e+00
 -3.4625146e+00
  1.4827516e+00
  8.4110222e+00
  2.4227835e-01
  6.9183826e-02
 -6.6712487e-01
  8.5943006e-02
 -3.1067362e+00
  1.3264774e+00
  5.3295177e-01
  1.6806169e-01
 -3.0373763e-02
  3.2191348e+00
 -1.1716815e+00
  9.1247928e-01
  2.8177223e+00
 -1.8037574e-02
  1.8997357e+00
  2.3422706e-01
 -1.4218009e+00
  2.3798194e+00
  1.5133399e+00
  6.1699414e-01
  2.4659214e+00
  2.3001857e+00
  4.1281810e+00
  2.5563467e-01
  1.6037713e+00
 -5.3412294e-01
 -3.8023536e+00
 -2.0718946e+00
  2.5518994e+00
  3.1643310e+00
 -2.1097188e+00
  3.5522395e-01
 -1.2442845e+00
 -2.6702058e-01
 -1.2170035e-01
 -2.4472386e-01
  1.5667914e-01
  1.5723960e+00
 -1.6013648e-01
 -1.7332390e-01
 -4.0805987e-03
 -2.9422136e-02
  2.2363876e-01
  7.4315393e-01
  8.2236594e-01
  2.6295196e-02
 -2.9768243e-01
 -5.2480545e-02
  2.0587662e-01
  2.8678596e-01
 -4.3617215e-02
  1.0703016e-01
  6.4929760e-01
  6.2345648e-01
 -8.7311521e-02
 -3.7616428e-02
  2.1157162e-01
 -2.8414005e-01
 -8.5746914e-02
  2.6991115e+00
 -3.0375419e-02
  1.0597436e-01
  7.9431035e-02
 -2.3071483e-02
  2.2223368e+00
  9.0844054e-03
  4.0030569e-02
 -9.9956676e-02
  3.4713630e-02
  4.6489101e-02
 -2.4780592e-02
  3.6418695e-02
  3.9906699e-02
 -2.6601082e-01
  2.7739123e-01
 -4.1013356e-02
  5.5002354e-02
  2.3027064e-02
 -1.1414747e-02
  1.6157897e-01
 -1.0273697e-01
  5.9994376e-01
  1.5282479e-01
  9.4309449e-02
  7.2434556e-01
  2.6760001e-02
 -7.3362865e-02
 -1.3748652e-01
  2.5711756e-03
 -8.4400482e-02
 -2.8977787e-02
 -5.3891856e-02
 -1.0098540e-01
 -1.8294325e-02
 -1.7862101e-01
  2.5693384e-01
 -3.0603494e-02
 -1.5053158e+00
  2.1304565e-02
  9.7855258e-01
 -1.5041062e-01
 -1.3966526e-01
  6.6246420e-02
  1.0149122e+00
  1.1345465e+00
  1.4612956e-01
 -1.5666960e-02
 -2.2276584e-02
  1.5369859e-01
  2.6071848e-02
  2.3265868e-02
  1.1718491e-01
  9.1288447e-02
 -1.6312940e-01
 -6.7872763e-02
 -8.8855803e-02
  2.5646589e+00
 -1.1610300e-01
 -2.3455831e-01
 -2.1471994e-02
  1.1657213e+00
 -1.8566059e-02
 -2.1960256e+00
 -5.3320717e-02
  9.7624496e-02
 -5.7066953e-01
  8.4701568e-01
  2.1368895e-01
 -2.4865197e-03
  2.5620800e-01
 -4.9953848e-01
  1.3105494e-01
 -7.3616728e-02
  6.7062311e-02
  1.8626373e-01
  6.1933935e-02
  4.7533862e-02
  1.1481083e-01
  8.5919291e-02
 -2.8600696e-02
  2.5245154e+00
  3.1829551e-02
  1.2065608e-01
 -1.0229348e+00
  8.3841324e-01
  1.2265234e-01
  1.1728578e-01
  2.4405482e+00
 -4.6156000e-02
  2.3695686e-01
  1.8242061e-01
  1.0449263e-01
 -1.0572178e-01
 -1.6057122e+00
  1.0428501e+00
  1.3219816e-02
 -3.2940999e-01
 -6.2231291e-02
 -4.4195022e-02
  1.4545172e-01
 -4.3373112e-02
  1.3375264e-01
  1.7632541e-01
  7.6502687e-03
  2.1345298e-01
  1.1770383e-01
  2.7956232e-01
  1.7701899e-01
 -1.2152918e-01
  6.0205538e-02
  1.3294972e-01
  9.0144795e-01
 -6.6961758e-02
  1.7892654e-01
 -1.4355546e-02
  8.1546634e-02
  1.4396614e-01
  3.5862736e-02
 -4.4616047e-02
  6.6717577e-01
  1.8132364e-02
  1.6640806e-01
  1.7639273e-01
  3.2442089e-03
  1.6398905e-01
 -2.7237821e+00
 -6.3237238e-01
 -6.7757837e-02
 -4.3554857e-02
  7.5614519e-02
 -3.3195850e-02
  1.3974901e-01
 -2.2783732e-01
  8.2358696e-02
 -4.6900980e-02
  2.1586461e+00
 -8.0432698e-02
  1.1789709e-01
  1.3521279e-01
 -2.4014577e-02
  2.3107266e-01
  2.9332815e-03
  7.0626184e-02
 -4.5207318e-02
 -1.6942857e-02
 -2.3733616e-02
  1.0076180e+00
  4.6905896e-01
  3.0843331e-02
 -2.4842810e-02
  1.2638849e-01
 -1.9253649e+00
 -2.2307120e-01
 -4.4175529e-01
  7.9516567e-02
  5.4236895e-01
  3.5621554e-01
  2.2701511e+00
 -1.6687948e-01
 -3.0277807e-02
 -2.7958617e+00
 -6.9479823e-02
 -6.1763808e-02
  7.0830034e-03
 -3.0760760e+00
  4.6664718e-01
  2.0898545e-01
  1.8616561e+00
 -1.6159978e+00
 -9.0914786e-02
  7.6187141e-02
  7.9026945e-02
 -2.3741031e-01
  3.3878448e+00
  2.8628087e+00
  3.5346095e-02
 -2.2608389e-03
  3.6123264e-01
  8.9757197e-02
 -8.5473824e-03
  9.4815483e-03
 -9.8758471e-01
  2.0094151e-02
 -7.5254239e-02
  5.5239642e-01
 -4.0896109e-01
 -2.6270440e-01
 -5.8275545e-01
  1.3004062e+00
 -2.1878485e-02
 -2.8879085e+00
  1.4963755e-02
  5.5597901e-01
  5.0163820e-02
  1.5003115e-01
 -1.2656278e-03
 -2.3585950e-01
 -1.2090975e+00
  2.4281578e-01
 -8.3336985e-01
 -2.7528517e-02
  1.0390643e-01
  1.1878783e-02
  1.4039703e-01
 -4.4111267e-01
  5.6426257e-01
 -2.2052170e-03
  1.0085665e-01
  5.3524733e-01
  6.1141247e-01
 -8.5213101e-01
 -1.5691351e+00
  5.8468827e-03
 -4.0688604e-02
 -1.4199834e-01
 -1.3215272e+00
 -4.7104899e-02
 -1.6147732e+00
  3.7601564e-04
  9.0059465e-01
 -4.0490858e-02
 -7.0133358e-01
  1.0133280e+00
 -9.2757767e-01
  1.3743763e+00
 -2.0332080e-01
 -2.1295294e-02
  7.6434797e-01
  2.4747355e+00
  6.5147798e-03
 -1.6099752e-01
  7.8143634e-02
 -2.0446017e-01
 -4.9026690e-02
 -1.3010307e-01
 -2.2156723e+00
  2.5267062e-01
  1.0240199e-01
 -1.9738509e-01
 -4.3298531e+00
  1.3467752e-02
  3.7184014e+00
  5.5399716e-01
  3.2620394e+00
 -1.4322761e+00
 -3.0555897e+00
 -2.1717806e+00
 -8.1395036e-01
  7.4198675e-01
 -2.3587010e+00
 -2.0007541e+00
 -2.4351110e+00
 -2.7620828e+00
  4.2031150e+00
 -2.3607428e+00
 -3.7246273e+00
 -1.1225319e+00
 -4.2550893e+00
  2.2017585e-01
 -2.8732445e+00
  2.8061062e-01
 -3.7471206e+00
  3.4118481e+00
 -3.2038600e+00
 -4.4168792e+00
  1.1682004e-01
  3.1846716e+00
  1.8098593e+00
 -3.3361912e-01
  5.9848785e-01
  3.3602607e+00
  2.9504282e+00
  3.4754746e+00
  2.3976412e+00
  1.6391530e+00
 -3.5504799e+00
 -3.1871638e+00
 -3.1702247e+00
  4.4285264e+00
  2.8834610e+00
 -3.7901261e+00
  2.9949119e+00
  2.7010554e-01
 -3.1267574e+00
  2.6207023e+00
 -5.3727536e+00
  9.8802447e-01
  9.6804661e-01
  3.4614277e-01
  3.7066290e-01
 -2.5751047e+00
  3.4972725e+00
  4.5877461e+00
 -3.5915737e+00
 -2.6734419e+00
 -3.6387458e-01
  3.4199941e+00
 -2.3375044e+00
  2.3163502e+00
 -2.6822383e+00
 -5.5343311e-02
 -3.9062788e+00
  2.5298219e+00
  2.8159721e+00
  2.7761109e+00
  2.9677632e+00
 -1.5009270e+00
 -3.4952872e+00
  1.0297579e+00
  1.1407141e-01
  1.0841689e-01
 -9.4341540e-01
  3.0551083e+00
 -2.6228118e+00
 -1.2871239e+00
  3.0765590e-01
  5.4870969e-01
  2.2123544e+00
 -5.1574717e+00
 -1.8697356e+00
  3.6798346e+00
  1.5379213e-01
 -3.2790039e+00
 -4.0076208e+00
 -1.8049984e-01
 -2.7455935e+00
 -6.3872319e-01
  5.4960573e-01
 -3.2238491e+00
  2.5798695e+00
  2.9360104e+00
  2.9044499e+00
  3.1372695e+00
  7.5829577e-01
  3.7558215e+00
  8.0247420e-01
 -2.5821722e+00
 -2.4326267e+00
 -3.2921190e+00
 -3.3587909e+00
  1.8481919e+00
 -1.1616268e+01
 -1.1994381e+00
 -1.3857709e+01
  1.1421577e+00
  6.9687805e+00
  7.5021582e+00
  1.9977530e+00
 -2.1812880e+00
  3.4022050e+00
  7.6400840e-01
  1.0646113e+01
  1.2168424e+00
 -6.7441530e+00
  3.9101458e+00
  1.1816922e+01
  4.9111376e+00
  2.2116877e+01
 -8.5745317e-01
  6.2886777e+00
 -1.5962400e+00
  1.5297446e+01
 -5.6347346e+00
  1.3740234e+01
  7.3511720e+00
  5.5002660e-01
 -1.3962860e+01
 -1.1164755e+01
 -1.2876896e+00
 -7.6092732e-01
 -1.3026630e+01
 -1.0790442e+01
 -1.0537636e+01
 -3.9276879e+00
 -5.5197597e+00
  3.9729855e+00
  1.7044100e+01
  1.2978685e+01
 -3.8703790e+00
 -1.0608173e+01
  7.9153409e+00
 -1.4343137e+01
 -2.2046973e-01
  1.1842613e+01
 -1.1878620e+01
  1.0678534e+01
 -1.5602812e+00
 -1.5928798e+00
 -1.4067003e+00
 -3.3170013e+00
  6.2345481e+00
 -1.2047409e+01
 -1.7561108e+01
  1.3610914e+01
  1.2495582e+01
 -2.8090551e-01
 -1.3566299e+01
  1.2833439e+01
 -7.1235738e+00
  1.1518116e+01
 -6.0679083e+00
  8.6437864e+00
  7.7611238e-01
 -8.1779871e+00
 -1.0979722e+01
 -8.0820274e+00
  3.1856120e+00
  1.5622548e+01
 -4.3008099e+00
  5.7114559e-01
 -8.4479487e-01
 -1.5788683e+00
 -5.9932780e+00
  1.0772661e+01
 -4.4908476e-01
  1.5554080e+00
 -4.3701601e+00
 -6.9150805e-01
  2.0177763e+01
  1.8197670e+00
 -7.1990285e+00
 -7.0499265e-01
  6.9077768e+00
  2.1277416e+01
 -5.9595692e-01
  1.0847086e+01
 -6.5505278e-01
 -5.7353801e-01
  1.2815338e+01
 -7.4703898e+00
 -1.3801311e+01
 -6.3462610e+00
 -1.0238510e+01
 -2.3351703e+00
 -1.3305426e+01
  8.3941531e-01
  1.0399343e+01
  8.3480177e+00
  1.5932943e+01
  1.4466908e+01
 -1.6613801e+00
 -2.2440772e+00
  3.8054621e+00
  2.7055633e+00
 -3.4612790e-01
  3.9173126e-01
 -1.1030600e+00
 -1.4901370e+00
 -6.4192444e-01
 -3.4268847e+00
 -1.4598989e+00
  1.7813818e+00
  1.8176444e-01
  4.0801924e-01
  6.6687102e+00
  1.7268439e-01
 -1.2880158e+00
  9.2237853e-02
 -9.4550341e-01
  1.0828890e+00
  4.8227426e-02
  1.0959464e+00
 -2.6931512e+00
 -2.8358614e+00
 -2.0884824e-01
 -2.5893633e+00
 -1.3903028e+00
  1.1775256e-01
 -4.3612680e+00
  5.9912286e+00
 -2.3557796e+00
 -3.4428856e+00
 -1.8351833e+00
 -2.3220711e+00
 -1.8032753e+00
  5.6171387e-01
 -9.2106366e-01
 -2.2515173e+00
 -3.1683762e-02
  4.8181596e-01
  2.7491312e+00
  4.5681041e-01
  2.4675679e-01
  5.7084229e-02
  5.5558461e-01
 -8.3958849e-02
  1.9042213e-02
  6.2961385e-02
  8.2336828e-02
  9.6627794e-02
 -3.3465867e+00
  2.6554095e-02
 -7.3418778e-01
  1.2744421e+00
  7.7014631e-01
 -7.4789739e-01
  1.0600727e+00
  9.0646917e-01
 -1.3024499e+00
 -9.0396583e-01
  2.2438736e+00
 -1.4454281e-02
 -6.3934028e-01
 -4.9843764e-01
 -2.8044745e-01
 -9.8036093e-01
  4.8418978e-01
  7.5338078e-01
  4.7337750e-01
 -9.4997562e-02
  2.3873368e-02
  1.7082205e-01
 -3.9898479e-01
  6.3222758e-02
  1.0194180e+00
  9.0525758e-01
  2.7127443e-02
  6.6434687e-01
 -9.6938483e-02
  2.4122094e-01
 -2.9894944e-02
  1.1745027e+00
  5.7483363e-01
  8.5267085e-01
  1.3575124e+00
  2.5348319e-03
 -1.2209393e-01
 -3.1375837e-01
 -1.4398060e+00
  2.1049133e-01
  9.0593040e-02
 -5.4599471e-02
 -1.8548901e-01
  2.4038630e+00
  5.1917091e-02
  1.6213506e-01
  1.3707577e-01
  2.0865405e-01
 -4.8593447e-02
  3.5114795e-02
  3.1578976e-01
  2.6520750e-01
  1.7954871e-03
  1.5568764e-02
 -1.5262187e-01
 -1.3944091e+00
  3.8211588e-02
  6.6465952e-02
  3.0926358e-02
 -3.9657524e-01
  1.3081630e-01
  3.2177562e-01
  6.9537789e-01
  4.8690066e-02
 -8.1723118e-01
 -1.7651673e-01
 -3.3398640e-01
  5.1795255e-02
 -6.2987930e-01
 -1.8263496e-01
 -6.0588997e-02
  1.0992157e-01
 -3.7227361e+00
 -2.7933234e-01
 -1.2120816e-01
 -1.6050589e-01
  5.1918678e+00
  3.5838950e-02
  7.6167262e-01
 -1.6676915e-01
 -1.0509506e-01
  1.7549971e-02
 -1.9272974e-02
 -3.4995326e-01
  1.0896899e-01
 -2.6020970e-02
 -3.4474680e-01
 -9.6948028e-02
 -1.0452107e-01
 -5.1455164e-01
 -1.6902603e-02
 -1.3536979e-01
  9.8881677e-02
  8.9035600e-01
 -2.5405282e-01
 -4.9999028e-02
 -2.9414294e-02
  2.6576942e-01
 -7.1716547e-02
  8.1656136e-02
 -5.6562005e-03
 -5.1729515e-02
 -1.8258064e+00
  2.9279782e-02
  1.2041632e+00
 -2.8825693e-02
 -3.4320831e-02
 -2.8722623e-01
 -4.0592921e-01
 -7.6800905e-02
  1.2331538e-01
  7.4299648e-02
 -5.2068377e-01
 -4.3655294e-01
  6.4359814e-02
  2.2654815e-01
 -2.2386346e-02
  3.1858513e-01
 -1.8813585e-01
  2.8516536e+00
  1.0883673e-01
  3.7720948e-02
  7.6979645e-02
 -1.3906172e-01
  2.6698911e+00
 -3.7244733e-02
  4.5840032e-02
  1.2774999e+00
  3.8536072e-02
 -4.6562779e-01
 -3.7324857e-02
 -1.3490108e-01
 -7.4316442e-02
 -1.1879892e-01
  1.8658992e-02
  9.9921770e-02
  1.7728388e-02
 -4.6623607e+00
  1.5980838e-01
 -1.0928917e-01
  5.2068057e-03
  1.2055366e-02
  2.4111901e-01
 -9.4834697e-03
 -3.8589232e-03
  2.3660323e-01
  1.3907315e-01
 -5.0312001e-01
 -1.6252705e-01
 -8.6972807e-03
 -2.6739445e-01
 -1.8012479e-01
  7.5349160e-02
  7.7108157e-01
  6.1995804e-01
 -2.5278756e-01
 -7.3715851e-02
 -1.3699239e-01
  8.3040800e-03
 -1.4507693e-01
 -1.6545083e-03
 -1.2776884e-01
 -8.0699700e-01
 -3.4289303e-01
  4.5447629e-02
 -6.8552032e-02
  5.2447790e-01
 -9.2790117e-03
  2.5703490e-02
  6.9220841e-01
  1.1821999e-01
  2.6014898e-02
 -3.5506761e-01
 -6.3565564e-01
  7.4968465e-02
 -8.0370802e-01
 -1.7934127e-01
 -9.5469162e-02
 -2.2945337e-02
  3.9815847e-02
 -1.8477084e-01
  1.3787268e-01
  1.3259292e-01
 -5.7465428e-01
  2.1284804e-02
  2.6163176e-01
  1.6638377e-03
  7.0743911e-02
 -4.6052106e-02
  2.3818295e-01
 -1.6894267e-01
 -3.2204118e-02
 -2.9304624e-04
  2.5065273e-02
 -2.6625621e-01
 -3.4634713e-02
  2.4814385e-01
 -1.3168816e-02
 -1.3601010e-02
  9.0037513e-01
  8.5859910e-02
 -2.0051232e-02
  1.9027109e-01
 -5.1210588e-03
 -1.4031358e-01
 -2.7636415e-01
  1.6008118e-02
 -2.5875333e-01
 -2.3296804e+00
  7.8010991e-02
 -1.7237963e-01
  7.0755559e-01
  1.1157786e-02
 -2.1506951e+00
  1.2842527e-02
  4.0116068e-02
  1.6510987e-01
 -1.1626781e-01
  1.1685698e-01
  2.3930497e-01
  2.2495015e-01
 -1.0580992e+00
  3.1002110e-03
 -1.0082434e-01
  3.2278824e-01
 -3.8914490e-02
  9.3109168e-02
 -7.5083129e-02
  2.2109289e-02
 -2.9954076e-01
 -7.4084140e-02
  6.3513629e-02
  1.9985420e-01
 -1.7107024e+00
 -4.2283595e-01
 -7.4560218e-02
  7.4563332e-02
 -5.5033559e-01
 -6.4369321e-01
 -1.8094553e-02
 -8.2761841e-03
  1.3274063e-01
  5.4177012e-02
 -1.0242084e-01
 -3.3248837e+00
  1.1103655e-01
  1.3864475e-01
 -4.9011865e-01
  9.2913575e-02
 -2.1740314e-01
  1.5177685e-01
  5.8214980e-01
 -4.7984108e-02
  2.0828567e-02
 -1.6412429e+00
 -5.5939863e-03
 -7.4856197e-03
  3.9498585e-01
 -9.8889068e-02
 -2.3226407e-01
  5.9696883e-01
  2.1400084e-01
  1.2837071e+00
 -2.7512196e-01
  1.1269454e-02
 -1.6219739e-02
 -7.5749464e-02
 -2.7028766e-01
 -8.7532163e-02
  2.5500584e-01
  3.2551650e-02
 -2.2501806e-02
 -7.7444144e-02
  2.3987765e+00
 -1.4340882e-01
  3.9736254e+00
 -8.8468924e-02
 -2.3435112e-02
 -1.1401420e-02
  2.0509169e-01
 -9.3443438e-02
 -5.5044878e-01
 -4.3355307e-04
 -3.7405497e-01
  9.3339294e-02
  4.5376262e-04
 -4.1327894e-02
  4.4906896e-01
  1.0848897e-01
 -1.0260613e-01
  2.3872757e-01
  1.5893190e-01
 -7.7653271e-01
 -1.7366261e+00
  3.6190894e-01
  1.2668090e+00
 -9.0065159e-02
  2.7563405e-01
 -4.0811086e-03
 -1.8270450e-02
  1.0626544e-01
 -2.5916404e-01
  2.5561482e-01
 -2.6499009e-02
  1.7025080e-01
 -5.5103149e-02
  1.2228862e-01
  7.5906478e-02
 -8.3739972e-01
  4.6411578e-02
 -1.7945942e-01
 -7.9116300e-03
  8.7983268e-01
  3.6081150e-01
  1.9235031e-01
  8.6806454e-02
 -3.0020868e-02
  1.0870513e-01
 -1.3744716e-01
  8.7082259e-02
  1.9624317e-01
 -1.3133547e-02
  3.6479336e-01
  2.3954657e-01
  3.7120074e-02
 -3.1107375e-03
  3.5472814e-02
  2.1910653e-01
 -1.8787697e-01
  3.2523163e-03
  2.4347724e-01
  6.5112568e-02
  1.2609734e-01
 -5.3388014e-02
 -9.2921786e-02
 -5.6237347e-02
  6.6921033e-02
 -1.3520675e-02
  5.5251199e-01
  7.6001698e-01
 -1.1334832e+01
 -1.1349103e-01
  6.2670749e-01
  1.4060935e-01
  4.0617894e-02
  2.5958087e-02
 -6.7563439e-03
  3.0501589e-01
  1.1900406e-01
 -6.3001528e-02
 -2.3093140e+00
  8.1543505e-02
 -9.4867490e-02
  5.8903109e-02
 -1.6442633e-01
 -1.1773030e-01
  1.3257834e-02
  9.3542691e-03
  5.9459556e-02
  1.9009966e-01
 -3.4115878e-01
  1.2384692e-01
 -1.0019728e-01
  2.6409650e+00
  1.4042200e+00
 -2.7099028e-01
  2.2928057e+00
 -3.4293973e+00
  4.1645178e-01
 -1.2886336e-01
 -3.5440302e+00
  1.1597172e-01
 -2.6287226e-02
 -1.5274163e-01
 -6.1857950e-02
  8.7625909e-01
  2.0317377e-01
 -2.6106995e-02
 -1.3223936e-01
  3.1376684e-01
  2.1215954e-01
 -5.7486278e-01
 -3.8736802e-02
 -1.9999943e+00
 -1.5522505e+00
  1.5693559e-01
 -2.2217722e+00
  2.3217542e+00
  1.2216129e+00
 -9.1927689e-01
 -1.3500080e+00
 -3.0366464e+00
 -1.8672463e-02
  5.5993360e-01
  1.6138695e-01
  6.1250366e-02
 -3.4723537e+00
 -3.2622840e-02
  2.5770441e-01
 -2.0047837e-01
 -2.6903871e-02
 -2.1768527e-01
 -5.3271747e-01
 -2.6105592e-02
 -4.3829996e-02
  1.3621907e-01
  4.7256002e+00
 -3.2441862e+00
  1.5556981e-01
 -2.4605464e-02
 -9.0588406e-02
  2.4666293e-01
 -6.2258113e-02
 -1.5841368e-01
  4.6265043e-02
 -3.8835198e-02
  7.6551668e-02
  3.4153166e-01
 -4.2632360e-02
 -1.1749013e-01
  1.5555453e-01
  3.7672815e-01
 -4.7602765e-02
  8.2380839e-02
  7.0570707e-02
 -1.8287197e-01
 -1.2710674e-01
  5.8304197e-01
  1.2701191e-01
  7.4466571e-02
  9.2109852e-02
 -3.5353607e-01
 -1.8059181e-02
 -3.0523095e-01
  5.6408964e-02
  4.7159210e-02
  2.5955096e-01
 -1.3085423e+00
  2.0657444e-02
 -3.2829276e-01
  3.3247154e-02
 -1.0715679e-01
 -9.2666954e-02
 -6.1359710e-01
  1.8945478e-01
  1.0691284e-01
 -2.5199273e-01
  1.5584593e-01
  1.5917356e-01
  1.5086325e-01
 -6.0650043e-04
  1.9618814e+00
  1.5414320e-01
  9.3978308e-02
 -6.5959394e-02
  1.1814710e-01
  1.0257110e-02
  2.4902416e-02
 -5.4625995e-02
 -4.8918679e-02
 -1.3479045e-01
 -2.9680037e-01
 -2.3565715e-02
 -1.8413064e-01
 -1.0946706e-01
 -1.8264610e-01
  1.2032550e-01
 -8.8572234e-02
 -4.2388735e+00
 -3.2782624e+00
 -1.3039099e-01
 -3.4614027e-01
  2.0273112e-01
  4.9378812e-02
 -1.8356867e-02
  1.9061458e-01
 -1.3043541e-01
 -1.7061874e+00
  4.3806750e-01
 -1.7168424e-01
  4.8512321e-02
  8.2710385e-01
 -1.4491595e-02
  2.9725155e-02
  2.0784233e-02
 -1.5008484e-01
  1.6873464e-01
 -3.2189012e+00
  1.3794565e-01
 -1.6107793e-01
  2.0853220e-01
 -1.7660320e-01
 -1.4902362e-01
 -2.9007879e-01
 -5.8535777e-02
  9.2827320e-02
  1.3709435e-01
  2.4179302e-01
 -4.6681523e-02
 -9.6434772e-02
  2.0087771e-01
 -1.8946160e-02
  3.2151628e-02
 -5.5559404e-02
 -2.8568630e+00
 -1.4700472e-02
  1.9898693e-01
  1.9668033e-03
 -1.9824341e-02
  2.4643226e-01
  4.0214392e-03
 -6.5437123e-02
 -5.1347274e-01
  8.1840163e-01
 -5.1570797e-01
  1.9516215e-01
  1.4348038e+00
 -3.0857632e-01
  2.6347742e+00
  2.2986805e-01
 -4.7157890e-01
  3.0306382e-02
  3.8844132e-01
 -7.8382961e-02
  2.1338390e-01
  1.4447545e-01
 -1.2806530e-01
  1.4267474e-01
 -1.3162418e-01
  1.7740739e-03
 -1.4647147e-02
  9.8321944e-01
  1.5083013e-02
 -4.7704744e-01
 -3.0796202e-02
 -3.0563322e-01
  1.6925205e-01
  1.0767066e+00
 -3.7303781e-03
  1.8306522e+00
 -5.7818550e-01
  6.8824157e-02
  2.1809101e+00
  1.9203682e-01
 -3.2525532e-02
 -8.0157919e-03
  6.2311465e-01
 -9.5431209e-02
  1.6559488e-01
 -2.3212448e-01
 -4.1278984e-02
  3.6994874e-01
 -1.7203465e-01
  1.5434071e-01
 -3.1414524e-02
  6.4267717e-02
  3.3647424e-01
 -4.9827024e-01
  8.4233880e-03
  2.2759416e+00
  1.1255945e+00
  3.1341100e-01
  1.0320369e-01
 -2.3095956e+00
 -4.0641294e+00
 -7.8056431e-01
 -2.4620768e-01
  5.5400735e-01
 -2.8825777e+00
  3.8103778e+00
 -7.7256806e-02
  7.9504070e+00
  7.5012082e-01
  8.6922728e-02
  1.7089587e+00
  4.9215951e+00
 -2.1980047e-02
 -1.5717837e-01
 -4.3571211e-02
  4.4566240e+00
  3.9095986e+00
  4.7842184e-01
 -2.6372061e+00
  7.7471185e-01
  1.7985747e+00
  2.0802797e-01
  7.1456140e-01
  1.1014616e-01
  2.0657890e+00
  8.5243106e-01
  2.0141670e-02
  1.9478683e+00
  3.8751998e+00
  2.5571489e+00
 -3.5899017e+00
  2.6870697e+00
  3.1084764e+00
 -3.2340560e+00
 -1.7841997e+00
  4.1135035e+00
  1.0864750e-01
 -1.9725258e-02
  8.6724430e-02
  1.0253471e-01
 -4.1245092e-02
  1.3253532e-02
  9.8034479e-02
  1.4674859e+00
  5.3350240e-01
  3.4172902e-01
  1.3598106e-02
  1.8589447e-01
  1.0446099e-01
  2.8173915e-01
 -1.1279757e-01
  3.4703568e-01
 -6.9870509e-02
  1.3359140e-01
 -1.3988653e-01
  1.2120944e+00
  5.2316613e-02
 -1.2321697e-01
 -2.0941438e-01
  5.3631861e-02
  3.3663452e-02
  1.1542568e-01
  7.3447955e-01
  7.2525099e-02
 -9.2572602e-04
  7.4113086e-03
 -5.0650842e-02
  2.6479226e-01
 -1.3863662e-01
  9.2331693e-02
 -1.1507507e-01
  2.9192045e+00
  1.3784811e-01
  5.3341735e-02
  1.7989745e-02
  6.4136100e-01
 -2.1680703e-02
  1.5914845e-01
 -4.4026952e-02
 -4.2704460e-03
 -2.2770065e-01
  1.0203499e-01
  2.1700536e-01
 -2.1679750e-02
  2.8630942e-02
 -3.3561775e-01
  2.3449006e-02
 -2.0653887e-03
 -1.1381872e-01
 -2.7652901e-02
  3.9615180e-02
 -2.2921634e-01
  4.8520181e-01
  3.3359244e-02
  3.4172859e-02
  1.7548751e+00
 -1.8947062e-01
  5.0510228e-02
  1.6896415e-01
 -1.5877809e-01
 -3.2883522e-01
 -7.8616565e-01
  1.7279863e-01
  5.6621355e-01
  1.4475083e+00
 -8.0258471e-01
 -1.1580894e+00
 -3.4667261e-02
  9.3707293e-02
 -9.6655732e-01
 -2.2735994e+00
  2.9130068e-02
  7.8518633e-03
 -5.0807372e-02
 -2.9478505e-02
  8.9275487e-02
  1.0264138e-02
  1.2034109e-01
  6.6753969e-02
 -1.2903644e-02
 -6.2877634e-03
  1.9618046e-02
 -1.6244149e-02
 -3.8913295e-02
  3.8599480e-02
  1.5161918e-01
 -2.4482085e-01
  2.3852278e-02
 -2.5407702e-01
  2.7157766e-01
 -1.0367819e-01
  2.5763257e+00
  1.6223796e-01
  1.1219608e-01
  1.1347497e-01
 -1.7632909e+00
 -2.3242507e+00
  4.5266390e-01
  7.5523800e-01
  1.7433786e-01
  2.4248546e-02
 -8.8964202e-02
  2.9239606e-03
  1.3435993e+00
 -7.4409939e-02
 -1.9227301e-01
  1.6893382e-01
 -4.4024594e-02
  2.5518015e-02
 -4.4464625e-02
  2.8576729e-01
 -3.1694104e-03
 -2.0470810e-01
 -3.9862967e-01
 -9.1038805e-01
  1.8142349e+00
  1.3054219e+00
 -3.9617248e+00
 -1.3388293e+00
  3.9570401e+00
 -1.7376124e+00
 -2.2429867e-01
 -2.2443423e+00
  3.8734151e-03
 -1.6491500e-01
 -1.2668761e+00
  5.6713161e+00
  6.2721410e+00
 -2.0433836e+00
  5.7644968e+00
  1.7474160e+00
 -1.0926428e-01
  1.5842393e-01
 -1.7537735e-01
  2.6138259e-02
  2.4844503e+00
 -1.4066770e+00
 -1.1206142e-01
 -1.4588933e+00
 -5.5733109e-01
  1.8251718e+00
  3.6399703e+00
  2.0697687e+00
 -1.0720123e+00
  2.1988663e-01
  1.8743259e+00
 -5.8205056e-01
 -7.4799109e+00
  3.9537363e+00
 -1.6735986e-01
  1.1349179e-02
 -3.1742942e-01
 -1.6263710e-02
 -2.9647982e-02
 -7.2647765e-02
 -4.8496884e-01
  1.0316174e-01
  5.1614176e-03
 -6.2895104e-02
  3.2932252e-02
 -1.1781039e-01
  1.5300884e-02
  1.9898746e-02
 -2.3951806e-01
  1.1337087e-01
  1.3286704e-01
 -2.8866022e+00
  2.7827495e-01
 -9.5876582e-02
  1.2745522e-01
  7.4416190e-01
  1.0479008e-01
 -1.9549295e-01
  1.8402582e-02
 -4.9768645e-02
  1.3823546e-02
  2.0398956e-02
 -1.0976813e-01
  1.0282310e-01
  9.7926751e-02
 -2.6155539e-02
  1.6340598e-02
  6.9798023e-02
  5.7009172e-02
  8.3294893e-03
  1.1841775e-01
 -2.9113036e-01
  3.4925258e-01
  8.1149943e-02
 -1.0886388e-01
  4.0217452e-02
 -6.3139133e+00
 -3.1933479e-02
  1.5466422e-01
 -1.6481653e-01
  1.8385659e-01
  2.2711647e+00
 -1.4037693e-01
  9.3971290e-02
  1.7169488e-03
 -8.7182604e-02
 -7.5724535e-02
 -2.0445548e-02
  3.2478902e-02
  1.0811900e-01
 -7.2378566e-04
 -3.3089403e-02
  3.8084116e-02
  2.1559639e-02
 -4.7697123e-02
  5.7343125e-02
 -1.7774393e-01
 -3.1881344e-02
  1.1949924e-01
  3.8805026e-01
 -9.1535747e-02
  8.5095274e-01
 -2.4440899e-01
  2.5775149e-01
 -3.1508023e-01
  1.2037937e-01
 -2.5701299e-01
 -1.7254510e-03
  1.3599479e-01
  4.4330787e-02
  3.2510847e-02
 -2.6865795e-01
  1.3704616e-01
  1.2965157e-02
 -7.2803716e-03
 -9.3660438e-03
 -4.6893013e-01
 -4.6015739e-02
  1.4311834e-01
  9.2839070e-02
  2.0267060e-01
 -4.7390953e-02
 -3.8661048e-01
  1.6296551e-01
  2.1369989e-01
  2.1882774e-01
  1.1555582e+00
 -2.8235797e-02
 -5.1279657e-02
 -1.5459591e-01
  1.4530917e+00
  1.2197703e+00
 -4.6738517e-02
 -2.5177947e-01
 -1.2910314e-01
 -6.2756799e-02
 -1.3742977e-01
  5.9376489e-02
 -6.0012817e-01
  1.0802387e+00
 -1.0716558e-02
 -5.7684500e-02
  2.0450822e-01
  9.8135792e-02
 -1.1782539e-01
  1.1808748e-02
  6.4475469e-02
 -4.3224609e-01
  9.7301856e-02
 -5.1674604e-01
 -3.9191697e-02
 -1.3956924e-01
  2.3140955e-01
 -2.3952781e-01
 -1.8565831e-01
  1.0702530e-02
  2.0530251e-01
  2.0602316e-02
  6.0158964e-02
 -1.4042310e-01
 -2.6893798e-01
  3.5713892e-02
 -1.8907964e-02
  4.3726213e-02
 -3.3256423e-02
  7.3907763e-02
  4.3180404e+00
 -2.1836909e-02
 -4.5514125e-02
  9.3067937e-02
 -8.5117787e-02
 -1.5455048e-01
  8.8794246e-02
 -1.0974268e-01
  6.0842047e-03
 -5.2093023e-01
