nep4_zbl 2 O Ga 
zbl 1 2
cutoff 6 4 418 127
n_max 8 6
basis_size 12 10
l_max 4 2 1
ANN 100 0
 -2.9123678e+00
  7.2370625e-01
  1.5174639e+00
  1.9168118e-02
  1.3580611e+00
 -1.0630497e+00
  1.9369251e-01
  1.0476935e+00
  3.7352076e-01
  2.4547472e+00
 -2.3144187e-01
 -5.2983272e-01
  8.5238717e-02
 -9.1498333e-01
  5.6569111e-01
  2.7906747e+00
  2.6099980e-01
 -1.3270521e-01
 -8.2289553e-01
  2.2421377e+00
 -2.1290312e+00
  2.5683275e-01
 -7.1549141e-01
  2.3033638e-01
  4.0083164e-01
 -1.0693494e+00
 -2.5463444e-01
 -9.7073418e-01
  1.4510538e-01
 -1.9128980e-01
  7.1384174e-01
 -1.2180734e+00
  6.3757226e-02
 -1.3920660e+00
 -3.9858906e+00
 -6.8139272e+00
  7.3593313e-01
  5.7548858e-02
  1.0923138e+00
  7.2529739e-01
 -9.3367571e-01
  1.2442685e-01
 -1.1263794e-01
 -2.3464191e+00
  2.8798845e-01
 -1.9802324e-01
  2.4070399e+00
  5.3046644e-01
  2.4235552e-02
  7.2974080e-01
 -2.5359702e-01
 -1.1025079e-02
  1.8036200e-02
  1.4016185e+00
 -5.4367739e-03
  3.4010954e-02
 -3.8584206e-01
  5.5840397e-01
  2.2133099e-01
 -1.5467916e-01
  9.0822464e-01
 -1.9098258e-01
 -7.6436603e-01
  1.7026845e-01
 -3.1224069e-01
  7.1605134e-01
 -5.6795619e-02
  3.2981548e-01
 -4.8065301e-02
  6.5046757e-02
 -3.0757800e-01
  1.3066944e-01
  6.6907220e-02
 -1.2283543e-01
 -6.0972586e-02
 -8.3455674e-02
 -1.1895087e+00
  3.0954394e-02
  5.0035799e-01
  1.3794101e+00
 -4.0916708e-01
 -1.9215623e-01
 -2.0481873e-02
  9.3634304e-04
  6.5913990e-02
  1.2514959e-01
 -8.2486257e-02
 -1.0858399e-01
  9.4827935e-02
  3.0033448e+00
  5.8609271e-01
  2.5430092e-01
 -8.0450527e-02
  9.0764396e-02
 -1.4993668e-01
 -7.7877909e-02
  3.1250852e-01
  3.0037209e-01
  1.1185819e-01
 -8.8220328e-02
  3.3738282e-02
  1.4811559e-02
 -1.3642602e+00
 -2.9971865e-01
 -7.5246108e-01
  4.4796664e-01
  1.0067620e-01
  1.6582377e-02
  2.3710088e-01
  7.9422273e-02
 -9.1974251e-02
  1.1300178e-01
 -1.3632911e-01
  2.3045433e-01
  1.4791524e-01
  1.1280255e+00
  9.4241835e-02
 -6.6529405e-03
 -4.6312626e-02
  3.6910232e-02
  2.7057117e-01
 -1.3391972e-01
 -3.5918680e-01
  1.1444894e-01
 -3.3839983e-01
 -2.6657608e+00
  9.5445523e-03
 -1.6801642e-01
 -2.0281079e-01
  1.9997659e-01
 -1.9511560e-02
 -2.1166098e-01
 -9.7807395e-01
 -1.2579838e+00
  3.1260252e-02
 -5.8038795e-01
 -5.2294321e-02
 -1.2462942e-01
 -7.2563127e-02
 -1.7811209e-01
 -8.6718202e-02
 -2.8219515e-02
 -1.9304658e-01
  1.1646960e-01
  6.1079615e-01
 -1.2060990e-02
 -2.1632852e-01
 -2.9891985e-04
  6.3767672e-02
  4.3557340e-01
 -1.5721153e-01
  2.5600481e-01
 -1.5046394e-01
 -2.1606285e-02
 -1.6669318e-02
 -1.8211253e-02
  8.4133536e-02
 -2.1019461e-02
 -9.4548327e-01
  4.1301477e-01
  8.7377474e-02
  3.4109656e-02
 -6.1490145e-02
 -2.1666451e-01
  2.2297277e-01
  1.4341894e-01
  2.1614467e-01
 -8.0897592e-02
  4.2419475e-02
  8.4217921e-02
  1.6992811e-02
  1.9144448e+00
 -2.4623163e-02
 -4.0661356e-01
 -9.6961632e-02
  6.6382311e-02
  3.6629362e-03
  1.2440389e+00
 -8.1509344e-02
 -1.3696729e-01
  8.1990808e-01
  9.8276943e-02
  3.9445944e-02
 -8.7535076e-02
 -2.2631076e-01
 -3.0166206e-01
  6.1703432e-01
 -5.1362509e-01
  2.1645100e-01
 -3.0097333e-01
 -2.2498253e-01
 -4.9677722e-02
 -1.5036027e+00
  5.7401381e+00
  4.4106260e-01
 -1.7522948e-02
  1.2663691e+00
 -1.7793995e-01
  7.5559503e-01
 -3.3664224e-01
  2.8559366e-01
 -2.2850631e-02
 -9.5155083e-02
 -8.8988580e-02
 -3.9242661e+00
  1.2260075e+00
  2.7433250e+00
  5.0515418e+00
 -3.3810029e+00
  2.1905873e+00
 -3.7901254e+00
 -5.7540327e-01
 -1.2422115e+00
 -2.3040172e-01
  2.3243323e-01
 -2.3440540e+00
 -9.8328769e-01
  1.6484606e+00
 -2.6697561e-01
  1.3768256e+00
 -1.7779988e+00
  2.1589589e-01
  3.8239193e+00
  6.0141015e-01
  1.3397776e-01
 -2.9661345e+00
  1.3069553e+00
 -8.4234458e-01
 -2.2733951e+00
  9.4261068e-01
 -8.2845205e-01
 -1.0844032e+00
 -3.7506921e+00
  8.9554846e-01
  3.6604506e-01
 -1.3645079e+00
  1.1669271e+00
  1.2321587e-01
  2.5859967e-01
 -1.0023646e+00
  7.4246950e-02
 -2.4704626e+00
 -5.3993005e-01
  1.8215084e-02
 -1.1306471e-01
 -1.1229460e+00
 -5.2938920e-02
  1.2993802e-01
  1.1026211e+00
 -2.4363689e-01
 -5.3421658e-01
  1.1209587e-01
 -1.6487385e-01
  3.2536935e-02
  3.5826573e-01
 -1.6301535e+00
  3.0627263e-01
 -7.8615093e-01
  7.5840479e-01
  2.6022589e-01
  8.4626786e-02
 -1.7658010e-01
 -1.3860187e-02
  3.6160991e-02
  2.7124903e+00
  4.1005257e-01
  1.3114313e+00
  8.1064588e-01
  1.2931472e+00
  1.1020151e+00
 -1.0799382e+00
 -1.8208342e+00
  4.3430611e-01
  2.4693437e+00
  2.5775459e-01
  8.6099917e-01
  2.4786508e+00
  2.4095792e-01
  1.3490790e+00
 -4.6071583e-01
 -9.6020043e-01
 -8.1947762e-01
 -3.7028980e-01
 -4.9669491e-03
 -3.5075423e-01
 -3.1453413e-01
  1.1492935e-01
  1.5083359e-01
 -3.0058928e+00
  6.5032881e-01
  9.3339211e-01
  9.9261649e-02
  1.4615920e+00
  7.3253349e-03
  3.5407424e-02
 -5.1109511e-01
  5.7063915e-02
  9.5067523e-02
 -4.7581890e-01
 -1.3247081e+00
  5.8576990e-02
  1.2244234e-01
 -1.4540175e-02
 -6.7104273e-02
 -1.7666136e+00
 -6.4771198e-02
  6.4352822e-01
  1.7667071e+00
 -2.0645759e+00
 -2.1788396e-01
 -7.5957251e-01
 -5.7942176e-01
 -3.5579756e-01
 -6.0209729e-02
  1.0646740e+00
  1.2941730e-01
 -1.7434911e-01
 -1.6678284e-01
  8.4959650e-03
  4.0749135e+00
  1.2009306e-01
  4.7276535e+00
  1.0616469e+00
 -1.8302619e-01
  1.0370688e+00
  3.5793501e-01
 -3.2395035e-02
  1.6882234e+00
 -3.4838063e-01
 -1.5863985e-01
 -4.3693715e-01
  1.3442886e-01
 -5.6320157e-02
 -7.8229642e-01
 -7.9196936e-01
 -1.1041481e+00
 -7.7554333e-01
 -1.7644538e+00
 -5.3847688e-01
 -2.2234026e-01
  2.2471854e-01
 -9.1531831e-01
 -1.0532794e-01
  5.0239694e-01
  3.1605117e-02
 -2.8166574e-01
  4.7146808e-02
  7.7129148e-02
 -3.1785142e-01
 -4.7436012e-03
 -1.2700264e-01
 -6.3690215e-02
 -3.2100224e-01
 -9.0985358e-02
  3.1665418e-02
 -8.3539259e-01
  2.3303080e-01
  2.5766144e-02
 -1.2782100e+00
  6.3912350e-01
  8.0809629e-01
 -1.6567905e-02
  3.8208175e-01
 -5.3939354e-01
 -2.2050409e+00
  2.5381665e+00
 -1.6458572e+00
 -3.7257686e+00
  1.9302187e+00
  2.4888048e-02
  2.2140489e+00
  1.2479997e+00
  4.8275318e-02
 -6.5615922e-02
  1.9763563e+00
 -1.4961036e+00
  4.3482167e-01
 -1.5341425e+00
  2.3040292e+00
  1.4012777e+00
  2.2879076e+00
 -5.4336369e-01
  9.1975771e-02
 -1.3604059e+00
  4.0695968e-01
  1.1411690e+00
 -8.9959300e-01
  9.0927750e-01
  1.8243556e-01
 -2.6844666e+00
  5.6405878e-01
  3.4591225e-01
 -1.1211095e+00
 -8.2253076e-02
  5.1967168e-01
  4.1093066e-01
 -1.0505017e+00
  7.2123848e-02
  8.7025130e-01
 -6.5158673e-02
 -2.0327332e+00
 -1.3009684e-02
  3.3286508e-02
  4.1509040e-02
 -3.3264214e-01
 -9.7450800e-03
 -2.7373460e-01
 -3.6956710e-01
 -1.0362565e-01
  7.4618858e-01
 -2.2461572e-01
  6.8107247e-01
 -3.0751197e+00
 -4.8910189e-01
  7.5726420e-01
  7.5868636e-01
 -3.2494429e-01
 -1.1749457e+00
  3.6220807e-01
  1.0032260e-01
 -4.1030914e-01
  2.6356360e-01
 -1.4890192e+00
  1.6907342e-01
  3.6492738e-01
 -1.7940929e+00
 -1.0852373e-01
 -3.8179615e-01
  1.0262276e-01
 -6.8005562e-01
  2.3773213e-01
 -4.6682307e-01
 -4.1578734e-01
  5.3622913e-01
  4.2358491e-01
  1.9417042e+00
  2.7683690e-01
  1.9305661e-01
 -4.7151115e-02
 -3.6528084e-01
 -1.1600272e-01
  1.9473784e-01
 -2.2662347e-02
 -1.3324150e-01
  4.1012302e-01
 -3.1102613e-01
 -4.0060613e-02
  1.4873941e-01
  5.2592926e-02
  3.9252296e-02
 -3.3774216e-02
  5.3069588e-02
 -3.5050390e-03
  2.5051340e-01
  1.2102666e-01
 -3.3032301e-01
 -2.8852370e-01
 -2.0731616e-01
 -7.4770659e-02
  1.7433506e-01
 -1.5605024e-01
  5.7127249e-01
 -2.6576674e-01
  6.6944987e-02
 -1.4971629e-01
  3.1130418e-01
 -2.1087092e-01
  2.3339844e-01
 -2.1639137e-01
  2.6425626e-03
 -4.8353165e-02
  2.9400915e-01
 -2.0510769e-01
 -2.0883138e+00
  1.4688128e-01
  1.7978610e-01
  4.1422009e+00
  4.2118746e-01
 -3.6165658e-02
  6.3905156e-01
  1.2499984e-01
 -2.9794973e-01
  3.2303628e-02
  7.9327606e-02
  4.9410334e-01
 -5.3936224e-02
  5.1383864e-02
 -2.9900990e+00
  2.5959200e-01
  2.8707759e-02
  3.5581070e-01
  4.3772250e-01
 -1.3503456e-01
 -5.6391776e-02
 -2.5147277e-01
  7.3429547e-02
  2.5118521e-01
  5.6888819e-02
  3.8957205e-01
  2.8501275e-01
  1.7616108e-01
  2.4691586e-01
 -3.3184409e-02
  7.5093466e-01
 -2.0039862e-01
  2.2457605e-02
  5.6572869e-02
 -8.0737576e-02
  1.1012732e-01
 -5.2044642e-01
  2.3076482e+00
  3.0365150e+00
 -3.1237137e-01
  6.1263502e-01
 -9.3583691e-01
  4.5379195e-01
 -1.9750025e+00
 -9.8288454e-02
  1.7071574e+00
  2.4876966e+00
  2.2333807e-03
  1.5448860e-03
  5.1779468e-02
 -2.1879004e-01
  4.8153612e-01
 -1.6406912e-02
  1.2238033e-01
 -1.4663211e-01
  1.6060209e+00
  1.1520201e+00
 -1.1995764e+00
  2.1149533e+00
  1.4770925e+00
 -6.5861094e-01
  1.0167756e+00
 -3.1056362e-01
 -4.3911386e+00
  2.3152220e+00
  3.1681907e-01
  1.3315071e-01
 -1.1360744e+00
 -1.5977657e+00
 -3.7048456e-01
  5.6291479e-01
  3.2506686e-01
 -3.3552441e-01
 -2.2264203e-02
  3.0134103e-01
 -1.1431423e-02
  8.7972902e-02
 -9.0919107e-02
  5.4033744e-01
 -2.5102785e-01
  4.2911822e-01
  4.2665780e-01
 -9.9790823e-03
 -3.9322391e-02
 -1.4619172e-01
 -3.1531963e-02
 -3.7534085e-01
 -3.8168645e-01
 -2.2113892e-01
  2.4668637e-01
 -3.4090526e-02
 -2.1062694e-02
  2.6304764e-01
  2.4265449e+00
 -4.0241707e-02
  1.7460442e-01
  4.4378552e+00
 -6.0720653e-03
 -4.8682177e-01
  2.3912086e-01
 -2.1275243e-01
 -2.6610008e-01
 -1.4015861e-01
 -9.2892043e-02
 -3.7897894e-01
 -2.0704816e-01
 -5.4130014e-02
 -2.2041282e-01
  3.8096672e-01
  1.1178285e-01
  5.3784214e-02
 -3.5378769e-01
 -8.9033134e-02
  1.0607892e-01
  3.2473606e-01
  4.6677861e-01
  6.6676803e-02
  5.4923138e-03
  3.7763676e-01
 -1.5204957e-01
 -2.7599728e-01
 -2.7066056e-02
  4.1549925e-02
  4.6546005e-02
 -9.1984773e-01
  3.8758773e-01
  2.5672406e-02
  2.5823468e-02
  1.3385719e-01
  1.5135291e-02
  4.3628338e-01
 -1.7352271e-01
  1.4557469e-01
  1.7915959e+00
 -5.3034779e-02
  1.1510971e-01
  8.9679307e-01
 -2.1799920e-01
  9.2776805e-02
 -1.6157727e+00
  2.8252540e+00
  1.3286345e+00
 -3.3988082e+00
  1.1063646e+00
 -1.8952433e-02
  2.6236792e+00
 -3.4650859e-01
  1.7503512e-01
  1.5218557e-01
 -6.3065064e-01
 -1.8948227e+00
  1.7261562e-01
  4.0428472e-01
  7.3526376e-01
 -1.4558612e+00
  1.1619656e+00
 -5.7002907e+00
 -9.4096476e-01
 -3.2964012e-01
  1.5368122e-01
  1.0699394e+00
  1.1675668e-02
  9.3984741e-01
 -1.1792663e-01
  1.1112703e+00
  2.8444174e-01
 -1.1753402e+00
  3.2246373e+00
 -8.1427920e-01
  5.8449680e-01
 -1.2749214e+00
 -5.2697766e-01
 -1.0253716e+00
  1.8582106e-01
 -6.2353778e-01
 -7.5850642e-01
 -2.9099807e-02
 -1.3709454e-02
  1.8583956e-01
  1.1677136e-01
 -7.1296167e-01
 -3.9806449e-01
  3.7160665e-02
  9.4782013e-01
  1.2778305e-01
 -1.8054411e-02
 -4.2061922e-01
 -7.2912648e-02
  3.2512742e-01
  4.7222070e-02
 -3.9206856e-01
  1.3641924e+00
  1.3979681e-01
 -1.0277775e-01
 -6.2410887e-02
 -8.4722571e-02
  1.2025928e+00
  9.6231145e-01
  4.0802988e-01
 -4.2888910e-01
  2.9069802e-01
 -2.9358798e-01
 -5.9241754e-01
 -6.8338789e-02
 -2.1996433e-02
 -1.9107392e-01
  1.1568806e+00
  4.9730252e-02
  4.2368183e-01
 -3.0803936e+00
  1.8942387e-01
 -9.8418808e-01
  6.2615001e-01
  1.0396167e+00
  1.0241877e-01
  4.4385383e-01
 -2.4563845e-01
 -1.4637039e+00
  3.3202878e-01
  5.2691048e-01
  1.1681597e+00
  9.2332149e-01
 -1.8114839e+00
 -4.3140951e-01
 -5.3447032e-01
 -2.8987296e-02
  8.9767184e-03
  2.3864205e-01
 -7.6398261e-02
 -5.5535998e-02
 -4.4009034e-02
  6.3187979e-02
 -1.2490638e-01
 -1.2661566e-01
  6.9553256e-02
 -9.5697081e-01
 -3.5013664e-01
  8.9146149e-01
 -2.4269197e-02
  2.9899720e-02
 -3.5609554e-02
 -9.3872422e-01
 -2.7409003e+00
  2.7210495e-01
 -6.3203108e-01
  1.9932940e+00
 -6.3986540e-01
 -2.5575638e+00
  4.6612841e-01
 -3.8166125e+00
  5.1237881e-01
 -4.6166959e-01
  8.2933491e-01
  1.8276254e+00
  1.3735707e+00
 -8.1126511e-01
 -1.6670748e+00
  1.5374592e-01
  3.4481108e-01
  6.0297798e-02
  1.5793353e+00
  8.0657154e-03
 -1.9215666e+00
 -7.4159807e-01
 -1.7061404e+00
  2.3845708e+00
 -1.2012148e+00
  9.7715956e-01
  2.1556606e+00
  2.6394075e-01
 -1.6746058e+00
 -9.5700097e-01
 -1.5060644e-01
  4.7841704e-01
 -7.4658453e-01
  1.3430394e+00
  2.2210173e-01
 -1.8507409e-01
  1.3363404e+00
  2.1729484e-02
 -5.1020271e-01
 -2.1330465e-01
  1.1398132e+00
  1.0317659e+00
 -6.1679679e-01
  2.0102656e-01
 -1.9239233e-01
 -2.5111893e-01
  2.7215248e-02
 -4.8103888e-02
 -3.2864380e-01
  3.1219655e-01
 -1.7773850e-01
 -5.8680201e-01
 -7.2694105e-01
 -6.0442519e-01
 -1.2550494e-01
  5.6653641e-02
 -6.8060321e-01
 -8.3147275e-01
 -8.7061077e-01
 -7.5286186e-01
 -1.1230828e+00
 -6.5136594e-01
  4.0644094e-01
  3.6532530e-01
  4.9785072e-01
 -8.4193879e-01
 -7.4402440e-01
  1.7617951e-01
 -7.1353412e-01
  1.4407676e-01
  4.5388330e-02
 -2.9455798e-03
 -5.0763571e-01
  3.7340781e-01
  6.4419113e-02
 -1.4160233e+00
  1.5862535e+00
  5.4436173e-02
 -4.9176731e+00
 -6.9042146e-01
 -3.6027759e-01
 -4.8807275e-01
 -1.0205427e-01
 -2.8014827e-01
  6.9440238e-02
  2.9431790e-02
  3.1767510e-02
  1.4238659e-01
  9.2162579e-02
  4.5240188e-01
  1.3273177e-01
 -1.0661320e-01
  9.5683619e-02
  4.2116597e-02
 -1.5970716e-01
  3.9733574e-01
 -2.1023819e-01
  1.9890305e-02
  1.0834830e-01
  1.7314431e-01
 -1.1145948e-02
 -6.1241126e-01
  6.0027544e-03
  9.3428688e-03
 -9.9534982e-01
 -3.9848086e-01
 -1.2402032e-01
 -1.0389095e-01
  5.4398917e-02
  5.0312728e-01
  2.3231283e-02
 -6.4160332e-02
  5.4424948e-01
 -6.7686731e-01
 -2.2400272e-01
 -5.2264486e-02
  9.4311662e-02
  1.2736046e-02
 -2.4187315e-01
  3.8989354e-02
  1.7671293e-01
  9.2297167e-01
 -2.9705436e+00
  1.4265576e-01
  1.3783326e+00
 -1.6185302e-01
  4.2813674e-01
  9.5530547e-02
 -1.7515550e+00
  2.0029608e-02
 -6.3914520e-01
  1.9044203e-01
 -2.8730051e-03
 -2.6802933e+00
  1.6719995e-02
 -4.7451490e-01
 -6.4261399e-02
  1.0707497e-02
 -3.3725685e-01
  1.9997815e+00
  1.5470934e-01
 -1.8028407e-01
  2.3014393e+00
  1.3196878e-01
  5.5894524e-02
  6.5419944e-03
  9.9398613e-01
  2.2933793e-01
  2.6291892e-01
  7.8192554e-02
  2.3975698e-02
  2.2114776e-02
 -3.2330070e+00
 -3.5887873e+00
 -1.1899099e+00
  2.9231517e+00
 -1.0632997e+00
  2.1315914e-02
  1.5441382e+00
 -2.0197487e+00
 -3.1366107e+00
 -7.9255313e-01
  3.1722221e+00
  4.5503979e+00
 -9.1837758e-01
  1.0478339e+01
  9.2321272e+00
  1.0647773e-02
  5.7097930e-01
  1.3459187e+00
  1.8661767e+00
  7.5050896e-01
  1.7110888e+00
  2.4430072e+00
  9.1358703e-01
  2.1570613e+00
  7.8403866e-01
  1.9357696e+00
  6.4562523e-01
  1.2054765e+00
  3.8641670e+00
  2.6084974e-01
  2.0710900e+00
  2.7710886e+00
  1.3558723e+00
 -7.2562766e-01
 -1.0173247e+00
  1.5691886e+00
  2.5670576e+00
  1.2823055e+00
 -8.0658332e-02
  1.8305745e-02
  1.0096504e-01
  8.0247337e-01
 -6.0449980e-02
  8.5239999e-02
  7.8993273e-01
 -7.5819328e-02
 -8.2688265e-02
  1.4266476e-01
 -1.7952193e-01
 -5.7336451e-03
  4.6513554e-02
 -2.9408708e-01
  1.9550290e+00
  1.6377442e+00
  1.2665068e+00
 -1.1149732e+00
 -2.0486042e-01
 -1.9662112e-01
  2.4599159e-01
  1.0417856e+00
  7.6837504e-01
 -3.3809623e-01
  1.2831584e+00
  7.2884953e-01
 -9.2384791e-01
  7.3300105e-01
  5.4242074e-01
  6.1136597e-01
 -1.4132263e-01
 -2.2762895e-01
  8.0344146e-03
 -2.9218109e+00
 -1.1123608e-01
  4.2435080e-01
 -2.1653121e+00
 -3.0859587e+00
  9.3347825e-02
 -9.2532611e-01
 -1.2482631e+00
 -8.4550619e-01
 -5.7386808e-02
 -8.7403613e-01
  1.2242556e-01
  2.6584971e-01
  5.5068448e-02
 -3.7492924e+00
 -4.6089026e-01
 -1.2244128e+00
 -3.2178190e+00
 -1.5214702e-01
 -4.3973431e-02
 -6.1869377e-01
 -1.6531672e-01
 -2.3552411e+00
 -1.6306279e-02
  6.3281938e-02
  5.7372127e-02
 -2.5518175e-02
 -1.7013130e-01
 -6.5856785e-02
  5.8739823e-01
 -3.0916327e-01
 -9.6654840e-02
  2.2002967e-01
  3.7867418e-03
 -5.1407143e-02
 -3.2371316e-02
  4.2938423e-01
 -1.0068481e-01
 -3.3218644e+00
  3.6342140e-02
  5.9133489e-04
 -8.8872097e-02
  4.6963599e-02
 -5.2808871e+00
 -4.0213480e+00
 -2.6286948e-01
 -1.5904142e+00
  2.9586828e-01
  3.4330347e-01
 -3.3593753e-01
  1.7085637e-01
  5.4841116e-02
 -1.4951280e+00
 -1.1074065e-03
  1.0372864e-01
  1.7428925e-02
 -7.5832739e-02
  1.8867745e-01
 -2.4711002e-02
 -1.6966217e+00
  1.0066775e+00
  2.6174128e-01
  1.0285385e-02
  1.6442071e-01
 -3.9968919e-02
 -6.6433549e-02
  4.4463855e-01
 -1.4755654e-01
  3.1244713e-01
  5.0678447e-02
  1.9782260e-01
  5.3958774e-02
  4.1434504e-02
 -3.6063021e-01
  7.2754037e-06
 -2.0832752e-01
  4.5302644e-02
 -7.1157865e-02
  2.9596324e+00
 -5.5508369e-01
 -5.6120262e-02
  4.5802515e-02
  1.3421739e-02
 -5.0605202e-01
 -1.1069258e+00
  2.2453286e-01
  3.8986367e-01
 -3.5966452e-02
 -1.9014822e-01
 -9.3059115e-02
 -2.0173432e-01
  6.4655453e-02
  5.7909250e-01
  3.5295752e-01
 -2.3748213e-02
 -6.1339313e-01
 -5.2991879e-01
  3.2867938e-01
 -2.3342159e-02
  4.2451859e-01
 -1.1001702e-01
 -1.9613821e-02
 -1.9929602e+00
  1.5574281e-01
  7.5457469e-02
  2.0310092e+00
 -1.1162587e-01
 -1.3330363e-01
 -2.3847273e-01
  3.3219087e-01
 -2.7894741e-01
  5.3199804e-01
 -1.8563141e+00
 -5.3352696e-01
  8.9950615e-01
  1.1015433e+00
 -7.8324831e-01
 -4.0294062e-02
  7.2811306e-02
  1.5833901e+00
 -1.2847893e-01
 -1.4786154e-01
  4.1213477e-01
  4.4339433e-01
 -1.3746035e-01
 -7.0869222e-02
 -1.5781641e-01
  1.3371779e-01
  9.5750801e-02
 -7.3163921e-01
  5.4788172e-01
  5.5262756e-02
 -4.8327446e-01
  4.5728394e-01
 -2.4472544e-01
  4.3947142e-01
 -1.8842471e-01
 -1.0605330e-01
  4.1536161e-01
 -4.8779592e-02
 -2.3541667e-01
  1.2876792e+00
  3.9004791e-01
  2.3166038e-02
 -1.0096204e-01
 -1.1344064e-01
 -2.8580830e-01
 -1.3465810e+00
  7.7538587e-02
  1.0211971e-01
  5.4445195e+00
 -2.2297990e-01
  2.4006231e-01
 -2.5060534e-01
 -6.9522984e-02
  1.5833314e-01
  5.5002731e-01
 -2.0504987e+00
 -1.4321756e-01
  2.1019085e-01
  7.0919192e-01
 -4.3559718e-01
 -9.7145967e-02
 -1.7919701e+00
  1.4240860e+00
 -4.1980764e-01
 -4.0904582e-01
 -3.1377780e-01
  7.0230313e-02
 -5.7052527e-02
  8.4350020e-01
  1.0364220e-01
 -2.2976558e-01
  2.8563195e-01
  6.4077981e-02
  4.7968920e-02
  1.0085820e-01
 -7.5013536e-01
  8.4185392e-02
 -3.6040443e-01
 -4.6689960e-01
  1.1130927e-01
  2.7761418e-01
  7.5122654e-01
 -1.1706970e+00
  1.1314587e-01
  2.5130606e-01
  9.3251824e-02
 -1.4335931e-02
 -4.4162989e-02
 -3.9711404e-01
  1.7174194e+00
 -3.0362129e-01
 -1.3900542e-01
 -6.9712353e-01
  2.2015820e+00
  4.2464238e-02
 -9.6324384e-02
  2.7079874e-01
  1.0896538e-01
 -1.4239064e-01
 -1.8035079e+00
 -3.1496540e-01
  1.2568052e+00
  6.0760565e-02
 -7.1443389e-03
  5.2252591e-01
  3.8641855e-02
  1.5123948e-01
 -2.2057448e-01
 -1.5670452e-01
  3.3633360e-01
 -1.5744823e+00
  8.9647906e-04
  3.0478131e-02
  1.4566666e-02
 -1.5075155e-01
  4.1379154e-02
  2.5099561e-01
 -3.9288270e-01
  1.9337951e+00
  4.1269042e-02
 -1.1442142e-01
 -1.2129552e-01
  7.6280482e-02
  3.0106083e-01
  2.3224920e-02
 -1.1404172e+00
 -4.7799340e-03
  1.1067287e-01
 -9.1330731e-01
  5.1589429e-01
 -7.8851059e-02
 -1.7157204e-01
 -7.0882940e-01
  7.4423826e-01
 -1.7533815e+00
  9.6971011e-01
 -4.3464251e+00
  2.9828644e-01
  8.8402367e-01
  2.0454526e+00
  4.8588029e-01
  1.7392110e+00
  2.3218358e+00
  5.5473093e-02
 -2.9422994e+00
  1.2257116e-01
  6.1456656e-01
  9.4954312e-01
 -4.4864282e-01
 -1.6970292e+00
  3.3799815e-01
 -8.2876402e-01
  3.0884734e-01
  1.3066742e+00
 -2.3067997e-01
  6.5891397e-01
 -2.8818579e+00
 -1.1016265e+00
 -1.2792951e+00
  2.0683669e-02
  1.0401461e+00
 -2.5070965e-01
 -1.4898951e+00
  1.0109854e+00
  4.7654471e-01
  1.9360710e+00
 -1.2251956e+00
  2.4271417e+00
  3.0248654e+00
  1.9275846e+00
  2.4281068e-02
 -4.0777561e-01
  5.7708129e-02
  3.6856300e-01
  1.4049393e-01
 -1.4743899e+00
  1.1019769e-01
 -1.2905607e-01
  1.9606204e-01
  2.5425011e-01
  3.9066963e-02
 -3.0167371e-01
  9.8255110e-01
  1.0809603e-01
  5.3463802e-02
  3.8178414e-01
 -4.0746484e+00
 -2.9436111e-01
 -2.3789074e+00
  2.2689164e-01
  1.0092549e+00
 -3.0265336e+00
  8.1073266e-01
  4.5820853e-01
 -4.6728563e-01
 -1.1632887e+00
  9.7859269e-03
 -2.0414605e+00
  1.0163951e-01
  4.1168523e+00
 -1.3952845e-02
 -1.4852464e-01
  2.4912572e-01
  3.1581521e-01
  1.2113189e+00
 -1.5104284e+00
 -2.7166510e-01
  1.7282352e+00
  4.6670972e-03
  3.6089256e-01
  1.1367384e-01
  1.4051746e+00
 -1.0153848e+00
  4.5844337e-01
  1.6296782e+00
  6.9010460e-01
 -1.0685220e+00
  1.2663246e+00
 -1.7160232e+00
  2.3274126e+00
 -1.4271154e-01
  1.7176105e-01
 -1.3412665e-01
  6.2150019e-01
 -4.0506802e-02
  1.0031001e-01
  2.9463856e-04
  3.3812454e-01
  6.7373681e-01
  2.8711937e-03
 -8.3394296e-02
 -1.2620677e-01
  5.8908939e-02
  2.3718159e-01
  3.1390750e-01
 -7.1015191e-01
  2.1693370e-01
 -4.9411333e-01
 -2.8492670e+00
  8.9697111e-01
  9.0032265e-02
  7.4708903e-01
  9.6818858e-01
  1.0108115e-01
 -2.1716793e-01
 -1.0023197e+00
 -8.5780543e-01
 -7.2770022e-02
  2.8962353e-02
 -1.4663616e+00
 -1.2935939e-01
 -2.1477947e-01
 -4.1458252e-01
 -2.0012271e+00
 -1.0071339e-01
  2.5083419e-02
 -2.3397782e+00
 -8.5392582e-01
  2.5482430e+00
 -3.8744169e-01
 -8.3569455e-01
  3.9733863e-01
 -1.2565596e+00
  2.5273594e-01
  2.7838712e+00
  2.7816573e-01
  1.1948885e+00
  1.2516918e+00
  1.1386540e-01
  6.8227732e-01
 -2.8687706e+00
  1.0340536e-01
 -8.7762676e-02
  2.8420505e-01
  1.1584193e-01
 -1.8863527e-01
  1.2959936e-01
 -2.6022428e-01
  4.3477412e-02
  1.2674731e+00
 -2.7040604e-01
  8.0861425e-01
 -1.5531695e-01
  4.8025686e-02
 -3.4430417e-01
 -2.7571011e-02
 -1.5159838e-01
 -2.6196821e+00
  7.0570283e+00
 -2.5039480e+00
  1.3932562e+00
 -7.0875533e-02
 -2.4148588e+00
  6.6092348e-01
 -1.5938455e+00
 -7.1720797e-01
 -8.1831321e-02
 -2.5293494e-02
  8.2707770e-02
  5.7596128e-02
 -7.1763241e-01
  6.7458980e-02
  8.5338384e-01
  4.8981750e-01
  3.9109626e-01
  4.6080802e-02
  4.5824844e-01
 -5.6310359e-02
  3.7068706e+00
 -1.8600866e+00
  4.4641262e-01
 -2.6332049e+00
  2.0571005e+00
  2.4575555e+00
  1.2000232e-01
  5.3775544e+00
 -3.9735159e-01
  1.3684295e+00
  1.0515075e+00
  1.8710595e+00
  5.7858670e-01
  5.7991898e-01
  2.1205011e-01
 -3.3490846e+00
 -3.8891740e-02
 -1.7258132e-02
 -7.7333415e-01
  1.4529049e-01
 -3.6956149e-01
  6.8785576e-03
 -1.4545116e-01
  3.5141747e-02
 -2.5727892e-01
 -9.5863515e-01
  6.2469923e-01
  2.3893251e-01
  7.9561830e-02
 -2.1772456e+00
 -1.1508741e+00
 -1.6940451e+00
  2.0065622e-01
  9.8861672e-02
 -4.3211231e-01
  1.4411511e-01
 -7.0891243e-01
  1.8700878e-01
  7.0786881e-01
 -1.7691107e+00
 -1.8821645e+00
  3.1413320e-01
 -4.3897158e-01
 -3.3858149e+00
 -1.5982427e-01
 -1.0344329e+00
 -1.5268354e-02
  1.4090894e+00
 -6.4923096e-01
  1.4738210e-01
 -1.2356811e+00
 -1.6550860e+00
 -1.0121326e+00
  1.8270311e-01
  1.2210117e-01
  1.0775187e+00
  1.8832198e+00
 -4.1838164e+00
 -8.1310362e-02
  2.1665236e-01
 -6.6725570e-01
 -1.6272801e-01
 -2.5333929e-01
 -2.4300203e-01
 -5.0494212e-01
 -3.3521599e-01
 -3.9954428e-02
  7.6076254e-02
  9.8801094e-01
 -7.2750010e-02
 -1.9563271e-01
 -1.7576025e-01
  3.8457379e-01
 -1.0606344e-01
 -5.0052177e-02
  5.4074571e-02
  6.4424776e-02
 -1.3082670e-01
  1.5912403e-01
 -3.1452667e-02
  1.1195237e-01
 -8.2754165e-01
 -2.3092136e+00
  2.6934133e+00
 -1.5058476e-01
  3.0483171e-01
 -2.3760953e+00
  1.8627375e-01
  3.8509455e-01
 -1.2239535e+00
  1.1956547e+00
  1.2232452e-01
 -3.4373963e-01
 -1.0785792e-01
 -1.5150176e-01
  1.6714643e-01
  1.0469659e-01
 -5.8805948e-01
 -4.0415832e-01
  7.4885893e-03
  7.5971998e-02
 -1.0845951e+00
  2.1390481e+00
 -3.8869807e-01
  7.0408121e-02
  2.2648925e-01
 -8.5835958e-01
 -2.9147011e-01
  6.7187600e-02
  6.2745398e-01
  5.0784868e-01
  8.9204139e-01
 -1.7964813e-01
  2.5356054e-01
  7.1005806e-02
 -3.5509208e-01
  4.0159017e-01
 -6.5505594e-02
  1.4135779e-01
 -5.6483410e-02
  7.9876341e-02
 -8.0458738e-02
  3.0741965e-02
 -5.0833687e-02
 -1.4524329e-01
 -8.7266281e-02
 -8.6038150e-02
 -7.1404658e-02
 -6.0084921e-01
 -2.7809936e-01
  2.1997251e-01
  2.7887229e-02
  4.1479233e-01
 -2.8863132e-01
 -8.8382326e-03
 -1.5234110e+00
  4.2205926e-02
 -2.8262511e-01
  1.0640626e-01
  3.4472687e+00
 -3.7813146e-02
  3.6027210e+00
  9.6410759e-02
 -7.3580690e-02
  1.3564109e+00
 -1.4746028e-01
 -2.6197454e-01
  9.7067356e-01
 -3.9495993e-02
  4.6430536e-02
 -4.4465277e-02
 -1.9163750e-03
 -3.6339942e-01
  1.3712299e-01
  1.1431737e+00
 -1.6074657e+00
  9.3855458e-01
 -1.4242611e-02
 -1.0644929e-01
 -1.9005637e-01
 -4.2855498e-01
  1.3199589e-01
 -8.7402508e-02
  2.0809337e-01
  4.3723945e-02
  1.3758482e+00
 -4.8342939e-03
  6.7030177e-02
 -2.7620926e-01
 -3.5289904e-01
 -1.5806766e-01
 -4.8742309e-02
  1.2448784e-02
  5.8316596e-02
  5.8794993e-01
 -2.8295705e-02
 -6.4850283e-01
 -2.2563708e-01
  1.0596799e-02
  4.5334971e-01
 -6.1085209e-02
  4.6248999e-01
 -4.6047885e-02
 -6.1252989e-02
 -2.8331625e-01
  5.9755236e-01
  2.6362376e-02
 -5.2598935e-01
  3.0152526e-01
  1.9124000e-01
 -1.9117366e-01
  1.0274235e-01
 -9.8357452e-03
  1.6568394e-01
 -2.0548839e-02
 -2.0291953e-01
  2.4077427e-01
 -1.2801285e-01
  1.1168952e-01
 -1.3483530e-01
  1.6402769e-01
  1.3143787e+00
 -6.6764820e-01
  1.8656464e-02
  8.1765875e-02
  2.3401143e-01
 -4.5141050e-01
 -4.9450457e-02
  7.6539449e-02
 -2.8474949e-02
 -3.3508569e-01
  1.0783146e-01
 -1.8364729e-02
 -1.8107320e-01
 -2.8869453e-01
 -1.8107226e-01
 -9.9526353e-02
 -3.1866831e-01
 -5.4180080e-01
 -5.0365359e-01
  9.4050407e-02
  2.1158661e-01
 -3.4956837e-01
 -7.1626224e-02
 -2.8433533e-02
  7.1797944e-03
  1.1629220e-01
 -2.7662864e-02
 -3.7531044e-02
  3.7210992e-01
 -9.1615461e-02
  1.2725363e-02
 -2.6336191e-03
  2.1137421e-01
  2.8652167e-01
 -1.5335351e-01
 -9.5009454e-02
  1.4327894e-01
 -7.0214152e-02
  9.2689313e-02
  2.2563286e-01
 -1.0410628e-02
 -3.0665653e+00
  1.0702287e-01
  2.8771227e-02
  1.0887429e+00
 -7.1728684e-02
  2.7352804e-01
 -7.6297767e-02
 -1.4151946e-01
 -5.9013177e-02
  6.6029817e-01
  2.8996203e-02
  1.3291570e+00
  1.5260661e-01
 -3.0345327e-01
  7.0929945e-01
  5.6044258e-02
  1.6509602e-02
  4.2660270e-02
 -4.2884710e-01
 -1.7703736e-01
 -1.1942034e+00
  1.3748699e-01
  1.9207299e-02
 -4.0495759e-01
  2.6353112e-01
 -3.2101225e-02
  8.1533782e-02
  5.2005082e-02
 -6.3617006e-02
 -7.9341441e-02
 -6.9201156e-02
  3.5338080e+00
  4.3225907e-02
 -3.2593247e-01
 -3.2991731e-01
 -2.1752973e-01
 -2.2677380e-01
 -1.6813388e-01
  6.7256652e-02
  2.4599450e-02
 -8.7746911e-02
  2.5823166e+00
 -1.5772232e-01
 -2.0144265e+00
 -1.2734464e+00
  1.7645673e+00
 -2.0142304e-02
  4.5481673e-01
  3.1886868e-02
 -1.0993973e-01
  4.1016126e+00
 -1.8258404e+00
 -1.5007117e-01
  4.0645555e-01
 -7.8105360e-02
 -9.8686405e-02
 -4.9520570e-01
 -8.4406829e-01
 -1.9137101e-01
 -1.8195882e-01
  2.1708510e+00
 -6.0356826e-01
 -3.1154323e-01
 -1.7580035e-01
  1.2628428e+00
 -5.1484931e-01
 -6.5533563e-02
 -9.5068240e-01
  1.0976417e+00
 -7.8618377e-02
 -1.3083417e+00
 -7.6485431e-01
  3.8455873e+00
 -3.4786221e-01
 -3.3437195e+00
  2.6658481e-01
 -1.0403508e+00
 -1.9254488e-01
  6.5396249e-01
  2.2513758e-01
  2.5322044e-02
 -6.3757765e-01
 -9.9713989e-02
 -1.1654544e-01
 -6.3693666e-01
  9.7971573e-02
 -2.7594902e-02
  4.3306902e-01
  2.6072519e-02
 -1.2467822e-01
  7.3834263e-02
 -3.8887763e-01
  1.5099083e-01
  7.8247644e-02
 -8.7685756e-02
 -3.1030986e+00
 -1.0250767e+00
 -5.3349826e-02
  8.2867183e-02
  1.5203965e+00
 -4.0011510e-01
 -1.6757420e+00
  5.8160245e-01
 -3.3296896e-03
  1.7525807e-01
  1.9119222e-01
 -3.7465185e-01
  2.5737703e+00
  3.5862204e-01
 -9.4203526e-01
  1.9006674e+00
  5.2734441e-01
  5.9918290e-01
  8.8189036e-01
  1.6088209e+00
 -3.7066936e-02
  5.7249075e-01
 -3.5553077e-01
 -1.0468979e+00
 -1.1051012e+00
 -1.1465987e+00
 -1.9148670e+00
  4.6387050e-02
 -4.6499774e-02
 -4.6011209e-01
 -8.7759149e-01
  6.9228631e-01
 -2.3598115e+00
  2.0177382e-01
 -3.5233775e-01
  8.0097809e-02
 -1.3270109e+00
 -4.8041773e-01
 -8.5545674e-02
  1.1848424e-01
  8.3764859e-02
 -5.9127364e-02
  4.1313449e-01
  6.2751070e-02
  4.6362734e-01
 -2.2104535e-02
  1.3127832e-01
 -3.0135882e-01
 -4.0583298e-02
 -9.2878616e-01
  4.5262742e+00
  3.3538601e+00
  1.4758172e+00
  2.0444245e+00
  1.3497000e+00
  1.3566903e+00
 -2.1095653e+00
  5.4973097e+00
 -3.8229277e+00
 -1.8425004e-01
 -3.8801846e-01
  3.4600142e-02
  1.0527266e+00
 -5.8718604e-01
 -2.2740905e-01
  4.2193821e-01
  1.4855014e+00
  3.2629651e-01
 -8.6990744e-01
 -1.9227725e-02
 -1.0379778e+00
  1.4310361e+00
  9.0077555e-01
 -1.4488803e+00
  5.6059706e-01
  1.5067360e+00
 -3.4124396e+00
  5.4141409e-03
  9.4530487e-01
  1.4530141e+00
  6.8907332e-01
  7.9520561e-02
 -2.2400673e-01
 -7.5001061e-01
 -4.3800287e-02
 -7.8617781e-01
 -1.0207957e+00
  8.5583016e-02
 -6.8375283e-01
  9.3770452e-02
 -1.2723394e-01
 -1.4701504e+00
 -5.0837493e-01
 -5.7180658e-02
 -1.2915577e-01
  5.7255302e-02
 -7.7547538e-01
 -5.5414177e-02
  1.3544430e-01
  2.8063491e-01
 -1.8975446e+00
  4.0049847e-02
 -1.5693115e+00
  7.3541060e-02
  1.0577844e-01
 -9.4210394e-02
 -6.6103980e-02
  1.6787114e-02
  2.8634914e-03
 -2.6059508e-02
 -1.3520782e-01
 -1.4973116e+00
 -2.5440502e-01
 -2.1753948e-02
 -5.2222449e-02
  2.3349173e-01
  3.1804511e-01
  4.9378294e-01
 -4.5773748e-02
 -1.8071445e-02
  2.3681886e-02
 -3.1252992e+00
  6.9653116e-02
  6.9085442e-02
 -3.1954817e-02
 -6.6698778e-01
 -6.8991937e-02
  3.4919877e+00
  7.9150516e-01
  1.1966168e-01
  2.3726171e-01
  1.2650271e-01
 -8.0650419e-02
  8.4598517e-01
 -3.7533801e-02
  5.7326365e-01
 -1.5891815e+00
  2.2258818e-01
  8.0169111e-02
 -4.8923357e-03
  6.9403937e-03
  1.4533441e-01
  1.1065193e-02
  3.5416552e-01
  1.7470349e-01
  1.5954542e-01
  8.4638214e-01
 -2.8648719e-02
 -7.8556135e-02
  9.9669151e-02
 -3.5930762e-01
 -5.9884298e-01
 -4.9731058e-01
 -3.2211664e-01
 -4.6750266e-02
  5.9990104e-02
 -1.0218922e-02
  2.2127667e-02
  2.7251694e-01
 -1.3069998e-01
  8.4894389e-02
 -1.3583353e+00
 -6.4497918e-02
 -1.0442384e-01
 -2.0789050e-01
 -1.5214665e-01
 -7.0202433e-02
  4.4869665e-02
 -3.2277137e-01
 -6.1817184e-02
 -8.6070493e-02
  1.9019035e+00
 -7.0600890e-02
 -2.4697809e-01
 -5.1250434e-01
  8.7907338e-01
 -6.8832800e-02
 -2.2120015e-01
 -2.2111198e-01
 -4.6461868e-01
  1.5013473e-01
  2.3370573e-02
  1.3682309e-02
 -1.2941785e-02
  7.7430234e+00
 -2.5112173e-01
 -6.6410160e-01
  1.6797531e-02
 -5.2588433e-01
 -2.0155908e-01
  1.9285110e-01
 -2.5774509e-01
  1.9303319e+00
 -2.3324899e-02
 -5.1150393e-02
 -2.0182484e-01
  2.0692958e-02
 -2.4853778e-01
 -5.7440296e-02
  1.3023730e-01
 -1.5869403e-01
  1.0932241e-01
 -4.6795040e-01
  9.8939937e-01
 -1.1314063e+00
 -1.5799704e-01
  2.6573901e+00
  1.9934991e-01
 -4.2980947e+00
  3.9867046e-01
 -1.4791329e+00
 -1.3791894e+00
  1.9865908e-01
 -2.5377035e-01
 -1.1766823e-01
  1.1041919e+00
  5.6866910e-02
 -2.5802258e-01
 -1.8446070e-01
  5.0748296e-02
  6.4119995e-02
  5.3251463e-01
  4.3673977e-01
 -8.6626440e-02
  9.1534418e-01
  1.6111221e+00
 -1.0841130e+00
  1.3220592e-01
 -1.4570536e-01
  1.1096210e+00
  3.9457366e-01
  9.8081195e-01
  1.2495179e+00
 -2.6465735e-01
  4.4790995e-01
  2.2397046e-01
 -7.8980491e-02
  4.6417234e-03
 -3.0509335e-01
  2.2335971e-02
  1.2100783e-01
  4.0035126e-01
 -5.8697098e-01
 -1.4981974e-02
 -1.0236136e-02
  3.3032998e-02
 -3.8813625e-02
 -3.7454984e-01
 -4.2261669e-01
  2.5859408e-02
  2.6927623e-01
 -3.1493046e+00
 -7.7849042e-01
 -5.5590773e-01
 -8.0652326e-02
  3.6164589e+00
  7.3089087e-01
 -9.4787455e-01
 -2.1738110e+00
 -6.0016517e-02
 -3.3730009e-01
  1.2494799e+00
 -2.3823268e+00
 -1.7948769e+00
 -9.0486534e-02
  4.0234011e-01
 -2.5848193e-02
  1.2801775e+00
 -2.8879252e-01
  3.2604825e-01
 -3.3855847e-01
  3.5008645e-01
  7.3313206e-02
 -6.8572946e-02
 -2.2545373e-01
  8.6226970e-01
  5.0622553e-01
  1.3003695e-02
 -4.7774935e-01
 -1.5690372e+00
 -2.3206899e+00
  9.7093987e-01
 -7.5129189e-02
 -5.3650308e-01
 -8.5497811e-02
 -1.1083196e+00
 -4.6981018e-02
 -2.6358211e-01
 -3.5619169e-01
  1.7122419e-01
 -1.2012944e+00
 -1.3231018e-01
 -1.1441737e+00
  1.3116671e+00
  4.6699095e-01
  5.4681238e-02
  1.2115344e-01
  1.0171511e+00
  2.3676807e-01
 -1.7449097e-01
 -5.8746688e-02
 -2.4010287e-01
 -7.5191811e-02
 -4.0038520e-01
  2.1793439e+00
  2.1536310e+00
 -1.8897518e+00
  1.0725160e+00
  8.3122328e-02
 -9.1570973e-02
 -6.1643940e-01
  6.4276183e-01
 -2.0001338e+00
  3.9798251e-01
 -5.3838030e-02
 -2.8340778e-01
  6.1884664e-02
  5.9174173e-02
  2.4224904e-01
 -3.9565560e-01
 -1.0648270e-01
 -3.7814018e-03
 -4.1157395e-01
 -5.4408747e-01
  4.3815367e-02
  1.4990063e-01
  6.9991261e-02
 -9.2198610e-01
 -3.0375087e-01
 -3.0909029e-01
 -1.1493852e-01
  1.9364552e+00
 -2.1222467e-02
  4.7871828e-02
 -1.0680511e+00
 -4.0509486e-01
 -1.0504893e+00
  2.8778332e-01
 -5.6520468e-01
 -1.6197650e+00
 -8.5933197e-01
 -4.2558179e+00
 -4.0818790e-01
  6.9003239e-02
  8.3161539e-01
 -5.7771134e-01
  9.4299310e-01
 -1.2254468e-02
 -7.3039763e-02
 -8.0337092e-02
  1.0407376e-01
  6.2824711e-02
 -1.1642454e-01
 -2.6566524e-02
  5.5351842e-02
 -1.4048675e-01
  1.9249575e-01
  2.8581405e-01
 -2.4920802e-01
  2.7794173e-01
 -2.5009146e-01
 -1.1575759e-01
 -2.9208699e-01
 -7.9603428e-01
 -3.6720392e-01
 -8.4806345e-02
  2.0145689e-01
 -5.7776172e-02
 -8.7125674e-02
 -1.2674900e-02
  2.4646132e-01
  2.0523421e-02
  1.2457142e-01
  2.5881544e-01
  1.6321160e-01
  1.3033661e-01
  1.8661958e-01
 -2.0395845e-02
  3.9068627e-01
 -1.6782235e-01
  7.9174332e-02
  3.2784367e-01
 -2.7171161e-02
 -4.1000190e-01
 -3.8092318e-01
 -1.4008055e-02
 -4.6612233e-02
 -3.3476812e-01
 -9.6202624e-01
  5.5560213e-01
 -4.8869908e-01
  6.7900834e-03
 -2.1842997e-01
 -2.4490743e+00
 -1.2460826e-01
 -9.5647596e-02
 -9.8599037e-03
  2.3505369e-02
 -4.7363803e-01
  4.7618517e-01
  2.6353516e-03
  1.5045369e-01
  8.6317343e-01
  7.2303325e-02
 -5.0806761e-01
 -3.0041814e-01
 -7.6305962e-01
  3.7292495e-01
  2.5217249e+00
  2.7698040e+00
  2.5384314e+00
 -2.5342138e+00
 -4.4273412e-01
  5.6647384e-03
  4.6559510e+00
  1.9786017e-01
 -8.8867861e-01
 -1.0206670e+00
 -2.3141323e-01
  1.5957811e-01
 -6.1630082e-01
 -1.5382853e-01
  3.6653358e-02
  1.4530347e-01
  1.1053635e+00
 -9.7214043e-02
 -3.5615616e+00
 -9.7777468e-01
  1.5115638e-01
 -3.5577874e+00
 -3.5795085e+00
 -1.4769585e+00
  9.9396002e-01
 -6.1406350e-01
  2.0287198e-01
 -1.1706812e+00
 -3.0720520e-01
 -9.7710377e-01
  2.7674303e+00
 -2.2938182e+00
 -3.9521313e+00
  1.7255241e+00
 -3.0276546e-01
  7.6185152e-02
 -3.6394098e-01
 -8.1560135e-01
  1.1940415e-01
  4.0344113e-01
  4.7303295e-01
 -8.9021373e-01
 -1.3767940e-01
  4.6287838e-02
 -3.2470405e-02
  5.3615248e-01
  2.2388451e-01
 -2.1206031e-02
 -3.0965391e-01
 -9.6996623e-01
 -3.3680234e+00
 -1.4747707e+00
  2.4582415e+00
  2.3731363e+00
  2.5442445e+00
 -1.8950555e-01
  1.9802310e-01
 -4.2424941e+00
  5.3467054e+00
  1.6115546e-01
  2.1431565e-01
 -5.1935023e-01
 -1.3320740e-02
  7.7674291e-03
 -7.3433155e-01
  1.1463157e+00
 -1.5116938e+00
 -4.4331613e+00
 -5.3156048e-01
 -4.2677722e+00
 -5.9703821e-01
 -1.0304512e+00
 -4.2665291e-01
 -3.2639039e-01
  2.5836375e+00
  1.6821183e+00
 -3.4634800e+00
 -1.5801604e+00
  2.1162496e+00
  9.7236496e-01
  1.5141481e+00
 -2.8129247e-01
  2.4076685e-01
 -1.1638504e+00
  1.5364931e+00
 -2.2326010e-01
 -4.3013114e-02
 -8.8078730e-02
 -2.2696590e+00
 -1.3749325e-01
  3.7837517e-03
  1.1728916e+00
  1.6580877e+00
  2.8773332e+00
  1.0635635e-01
  1.2737987e+00
  1.4141463e-01
 -7.9830505e-02
  5.7088411e-01
 -1.8460639e-01
  1.0916290e+00
 -1.3760398e-02
  7.3963881e-01
  3.5923669e+00
 -3.2057135e+00
  1.2290188e+00
  1.8289859e+00
 -5.6980353e-02
 -1.1607225e+00
 -3.9578694e-01
 -8.1664670e-01
 -6.3740718e-01
  2.7753347e-01
 -1.1369462e+00
 -1.0002598e+00
  1.9730443e-01
  2.1706846e+00
 -1.3853815e-01
 -5.1269114e-01
  7.7892345e-01
  2.3035377e-02
  1.1448903e-01
  2.7408007e-01
  2.3533371e-01
  6.2948346e-01
  7.4588758e-01
 -2.3642279e-01
 -2.0317197e-02
 -1.0413469e+00
 -6.6740334e-01
  2.1061733e-01
 -1.7033198e-01
 -1.0250299e+00
 -5.2259201e-01
  1.7601942e+00
 -2.8965120e+00
  2.0153780e-01
  8.7742738e-02
 -1.3357069e-01
  4.3472120e-01
  1.0285319e-01
 -7.0897758e-02
 -3.3195025e-01
 -6.4712211e-02
  2.4590840e+00
  2.2479486e-01
 -1.1722071e-01
 -9.0050489e-02
 -5.2190834e-01
 -7.4450403e-01
 -1.5090695e-01
 -3.9228141e-01
 -2.1626115e+00
  4.1182381e-03
 -2.8466601e+00
  8.7925293e-02
 -5.1724117e-02
 -2.5606287e-01
 -8.1543773e-01
  1.9692329e+00
  6.5030164e-01
  6.4803392e-02
  1.5923975e-01
 -4.1213417e+00
  3.4677641e+00
  5.5461103e-01
 -2.4090630e-01
 -1.0365530e+00
  2.7921352e-01
  9.4516015e-01
 -5.4596312e-02
  6.2369499e-02
  1.6497998e+00
 -2.0278223e+00
  4.2482457e+00
  7.2394498e-02
  3.0994985e-02
 -6.4182335e-01
 -1.2549159e-01
  9.0738004e-01
 -1.4533208e-01
  1.3780626e+00
  2.2319521e-01
 -4.0481553e+00
 -9.0092897e-02
  4.7066420e-01
  2.3683269e+00
 -1.0288296e+00
  2.2777793e-01
 -4.7463842e-02
 -3.1189928e-02
 -1.8823279e-01
  2.7662805e-01
  2.2178231e-02
 -6.3677272e-03
 -5.0451282e-02
  1.3414045e-01
  2.6428342e-01
  1.5997249e-01
 -8.3828978e-02
  3.8088337e-01
 -1.3000551e-01
  8.0547184e-01
 -8.4355253e-01
 -4.1130994e-02
 -1.3295062e+00
  2.4986699e-02
 -2.1823604e-01
  5.0052755e-02
 -2.9708943e-01
 -3.8743460e-01
 -2.9433274e-01
 -6.9456297e-01
  4.4920778e-01
 -1.5569085e-01
  9.0824358e-02
 -3.4143802e-02
  1.1091325e+00
 -5.2830830e-02
 -3.0509843e-02
  3.4387965e-02
 -2.6611093e-01
 -2.0598544e-01
  5.8871019e-01
 -2.8457108e-01
  3.2188764e-01
 -2.1634839e-01
 -2.0343456e+00
  1.2656727e-01
 -9.9898183e-01
 -2.5565911e-02
 -1.4091122e+00
 -9.5280731e-01
  4.9103993e-01
 -3.4844205e-01
  1.3908933e-01
 -9.8622262e-01
  4.8142143e-02
  9.2865907e-02
  5.4501861e-01
 -1.1474002e-01
 -1.5198538e-01
  4.8180558e-02
  3.6025643e-02
 -8.5571088e-02
  2.8081898e-02
  6.1261144e-02
 -8.2950659e-02
  5.3718632e-01
  2.0061100e-01
  2.1174046e-01
  3.0882367e-01
  6.9519944e-02
 -2.2331503e-01
  8.5953844e-01
 -1.2127919e+00
 -5.8345817e-02
 -6.8070585e-01
 -2.6271995e-02
  2.1870622e-01
  5.7863879e-01
  1.0661383e-01
 -3.5369331e-03
  1.9625542e-01
 -1.6351314e-02
  2.2229443e-01
 -1.8373599e-02
  5.2961014e-02
 -4.1813049e-02
 -3.1313723e-01
  1.6483525e-02
 -5.7044154e-01
  8.0160153e-01
  8.4610701e-02
 -2.6255199e-01
 -6.0285246e-01
  1.2548716e+00
 -3.5047807e-02
 -1.5333933e+00
  1.4870743e-01
  2.4550982e+00
  1.2705092e-01
  8.5357986e-02
  5.1314098e-01
 -1.9093293e-01
  5.9101927e-01
  1.1609648e-02
 -5.1365979e-02
  2.0999086e-01
 -5.3395063e-01
 -1.6530804e-02
 -4.5928529e-01
  6.9869256e-01
  2.0227221e-01
  3.7789166e-02
 -1.1236476e-01
 -3.2508232e-02
  1.6913940e-01
  3.3803269e-01
  3.0730096e-01
  3.2725278e-01
 -3.5240364e-01
  1.0950278e-02
 -1.6999595e-01
 -5.0639492e-02
  4.3777245e-01
  2.3024769e-01
 -1.0342428e-02
  1.0666534e-01
 -1.4991195e-02
  3.2915905e-01
 -3.1207001e-02
 -3.5876876e-01
 -4.9021980e-01
 -1.1994223e-01
 -1.9563563e-01
 -1.1779021e-01
 -9.2788935e-02
  1.0905823e+00
  4.4716640e+00
 -3.1572244e-01
 -2.4914022e-01
 -1.4001846e-01
  4.4136548e-01
 -2.9997494e-02
  1.3607100e-01
 -7.4243121e-02
 -2.4329958e+00
  1.9350173e-01
  3.1864393e-01
 -3.6031136e-01
 -2.9252391e+00
 -1.8761192e-01
 -1.2658653e+00
 -5.0943816e-01
 -2.4126735e-01
  1.4724465e-01
  7.8697497e-01
 -1.7628638e-01
 -1.5534408e-02
  1.6108084e-01
 -4.8006468e-02
  1.3992155e-01
  1.9021246e-01
 -3.1153280e-01
  3.7393138e-01
  7.7434264e-02
 -8.8589758e-02
  5.0631803e-01
 -3.0575880e-01
 -4.5590052e-01
  1.2872316e-01
 -2.0497979e-01
 -2.4214442e-01
  1.0880332e-02
  6.9727547e-02
 -1.4916444e+00
  7.8041732e-01
  1.4712569e-01
  4.4917548e-01
 -1.7791013e-01
  4.1548824e-01
 -9.8577499e-02
  8.7599665e-01
 -1.5612911e+00
  7.1607715e-01
 -1.5180138e-02
 -1.1269422e-01
 -2.6626772e-01
 -4.3780336e-01
  3.0400571e-01
 -2.0693806e-01
 -2.4043755e-01
  1.2055293e-01
 -1.5025093e-01
 -2.3721679e-01
  2.5129473e+00
  2.6706925e-01
 -5.0548464e-01
  5.8019441e-02
 -2.0454159e+00
 -1.1572970e-01
  1.7637366e-01
 -4.1869164e-02
  2.2078151e-01
  9.7705328e-01
  1.5163230e+00
  1.5510392e-03
 -1.2252393e-01
 -1.0972768e-02
 -1.6938716e+00
 -6.1941171e-01
  7.6464646e-02
 -1.3126495e-01
 -1.0773666e-01
 -1.1695118e-01
 -5.8253425e-01
 -3.4133375e-01
  1.0103042e-01
 -1.5256436e-01
 -5.4927830e-02
  3.9570905e-02
 -6.8665831e-03
 -7.1314432e-02
  2.6251715e-01
 -3.2891828e-01
 -2.8598571e-02
 -2.3628225e+00
 -2.4117753e-01
  9.5388240e-01
  1.9918380e+00
 -1.7861711e+00
  1.2151920e-01
  1.1488882e-02
  8.1936795e-01
 -2.0068431e-01
  5.4357249e-02
 -1.9130607e-01
 -1.1982229e-01
  2.5094861e-01
  7.1241391e-01
 -1.0981272e+00
  1.3274883e+00
 -7.6662254e-01
  1.2101478e-01
  1.0016463e-01
  1.1891873e+00
  1.6137918e+00
 -1.2516619e-01
  1.7534188e+00
 -9.3434012e-01
 -3.1878324e+00
 -1.3682481e+00
  3.8067155e-02
 -1.7573260e+00
 -3.7238846e+00
 -1.5896685e+00
 -1.2485611e+00
 -7.0252991e-01
  5.6135118e-01
  2.3130453e-01
 -2.5781187e-01
 -1.7375293e+00
  1.5258363e+00
  1.7643271e-01
  4.3710855e-01
  1.4084935e-01
 -4.6975517e-01
  3.6041251e-01
 -1.1857227e+00
  1.5784030e+00
 -1.0458540e-01
  1.5134760e+00
 -1.5462551e-01
  3.0729957e+00
  4.2883438e-01
 -1.3344421e+00
  1.7296596e+00
 -2.7918658e+00
 -4.3551316e+00
  7.1642480e+00
  1.5029575e+00
 -1.7593131e+00
 -3.8248687e+00
  6.8509948e-01
  2.7737160e+00
  7.6462656e-01
 -5.4915464e-01
  1.2737011e+00
  2.5357881e-01
 -6.2572563e-01
  1.0780245e+00
  3.7929985e-01
  1.2690762e+00
  4.9106702e-01
 -1.0773816e+00
  3.9306645e+00
  4.7143972e-01
  8.7901199e-01
 -1.2980057e+00
 -2.6578808e+00
 -2.1255575e-01
  3.8747782e-01
  2.8978755e+00
  2.1164525e+00
 -2.6331267e-01
 -2.7707827e-01
 -3.8062024e-01
  4.8352468e-01
 -6.8755192e-01
  2.7444324e+00
  4.3511698e-01
 -1.5095359e+00
  7.5036776e-01
 -5.8897048e-01
  4.8595283e-02
 -2.2939175e-01
  5.2885073e-01
 -3.2772371e-01
  3.5446247e-01
  8.1044704e-02
  1.2200931e+00
  3.9820316e-01
 -1.6563380e-01
 -5.7359379e-02
 -9.7375643e-01
 -2.2379921e-01
 -6.1497074e-03
 -1.1260049e+00
 -2.0688032e-01
 -1.4137255e-01
 -3.1453550e-01
  3.4862769e-01
 -1.1689610e-02
 -2.9446352e-01
  4.8856072e-02
  5.2335680e-01
  1.5125762e-01
  1.5514683e-03
  2.0125680e-01
  2.4273219e+00
  1.4767691e-01
 -1.7982014e-01
  1.1191578e+00
 -3.7666345e-01
  1.1336923e+00
  2.6424341e-03
 -1.8277806e-01
 -3.3212684e-02
 -5.7271999e-01
  2.9827898e-02
  5.0528353e-01
 -1.9487113e+00
  3.4760943e-01
 -4.0729296e-01
  1.1481170e-01
  1.6202737e-01
  8.3389932e-01
 -7.2708279e-01
  4.4972808e-03
  5.8869046e-01
  7.3454306e-02
 -4.8160350e-01
 -1.9908334e-01
 -1.9606149e-01
  2.2705242e-02
 -4.0510795e-01
  3.7081167e-01
  4.0155884e-02
  1.7651880e+00
  1.5524267e+00
  3.3782842e+00
 -1.8000943e-03
 -2.7788825e-02
  2.5807060e-02
 -1.4236075e-01
  2.7775014e-02
  2.2518346e-01
 -5.4410972e-02
  1.0000386e+00
  2.8374004e+00
  3.5370789e+00
 -4.2360508e-01
 -9.8898059e-01
 -7.6282912e-01
  1.4935611e+00
  3.0929718e+00
 -2.5606787e+00
  2.8332555e+00
 -6.1913276e-01
  2.6937191e+00
 -9.0101552e-01
 -4.6433034e+00
  4.1733260e+00
 -1.6911328e-01
 -4.0814743e+00
 -2.0309954e+00
 -6.3718176e-01
  1.1304773e+00
  1.0420518e+00
  4.4182426e-01
 -3.9820008e-02
 -9.6231616e-01
 -5.3608721e-01
  4.3349293e-01
 -1.0642726e+00
  2.5232065e-01
  6.6779673e-01
  1.5490496e+00
 -2.0341558e+00
  8.6137617e-01
  2.0582097e+00
 -1.5217495e-01
  8.0075502e-01
 -3.8966978e+00
 -1.3477960e+00
 -4.2369521e-01
 -6.8536782e-01
 -3.7910473e-01
  2.0181647e-01
  9.5721692e-01
  4.4762317e-02
  7.4047685e-01
 -2.1609876e+00
  1.4357704e+00
 -7.9287690e-01
  2.0727035e-01
 -2.8467290e+00
 -7.8905694e-02
  4.4656623e-02
  3.5536950e+00
 -1.1977777e+00
 -4.8761806e+00
 -3.0902166e+00
  4.1026749e-02
 -3.2662663e+00
 -1.5245393e-01
  1.1041644e+00
 -2.8392560e+00
  4.8289437e+00
  1.5007518e-01
  2.0950065e+00
 -5.7854074e-01
 -1.6144493e-01
  9.0804774e-01
 -9.8745465e-02
  4.4550219e+00
 -1.0624377e+00
  1.5497938e-01
 -7.9813711e-02
  1.9192508e+00
  1.5983574e+00
  7.2980917e-01
 -1.8266463e+00
 -3.7700140e-01
 -6.0200381e-01
  2.9618689e-01
 -1.0637688e-01
 -1.1916896e+00
  1.4752749e+00
  1.6605145e-01
 -2.4171452e-01
 -3.0464277e-01
 -4.9701393e-01
 -1.4200437e+00
  2.7285168e+00
 -8.6585870e-03
  8.9632529e-01
  4.7799814e-01
 -1.3411535e-01
  1.1553532e-01
 -1.1477245e-01
  1.9659079e+00
 -2.4281676e-01
 -2.6158077e-01
  2.0340705e-01
  6.5454406e-01
 -5.3676182e-01
  4.0625727e-01
  5.7768852e-01
 -1.1363326e-01
  1.0204660e+00
  5.3737605e-01
  1.6423239e-01
 -3.6712062e-02
  8.2073790e-01
 -4.8045531e-01
 -6.4591575e-01
 -1.1208589e-01
 -2.0690621e-01
 -1.4555079e+00
 -2.6406783e-01
  1.0487141e-01
 -2.4605149e-02
 -4.2248675e-01
  2.6611958e-02
 -4.5690450e-01
  1.6167469e+00
 -1.6756089e+00
 -9.5507598e-01
  1.5022933e-04
  1.1949505e-01
 -1.2818011e+00
 -3.4231901e-01
  3.3749975e-02
 -4.0026452e-02
  9.0169944e-02
  5.8460575e-01
  8.1540741e-02
 -1.2657747e+00
 -5.2557278e-01
  3.4831497e-01
 -8.2916126e-02
 -3.0198210e-01
  3.5207540e-01
  1.5201840e+00
 -6.5779144e-01
  5.3378589e-02
  5.1492527e-02
  1.5851632e+00
 -3.4892629e-03
 -5.7419125e-02
  2.3838441e+00
 -1.1035281e-01
  3.3194551e-01
  3.7731069e-01
  3.2499844e-01
  5.6614661e-01
  2.9818313e-02
 -1.5839477e-01
 -4.4128284e-02
 -2.0455594e+00
 -2.2523420e+00
 -1.1912109e+00
 -4.4961834e+00
 -1.2870166e+00
  9.1627294e-01
  1.8639169e+00
  2.3954017e+00
  1.9140505e+00
  2.8927579e+00
  9.2691654e-01
  1.0270819e-01
  1.6178483e+00
  3.6294365e-01
  2.6968220e-01
 -3.9886630e-01
  4.0236282e-01
 -3.9142588e-01
 -3.9155230e-01
 -1.5762035e+00
  1.5771836e-02
 -2.2479405e+00
 -2.7503309e+00
  5.3367705e+00
 -3.3948879e+00
 -8.7539709e-01
  2.8903392e-01
 -1.0457104e+00
  9.7737767e-02
  7.9828560e-01
 -6.4649269e-02
 -1.2254448e+00
 -4.5553780e-01
 -3.3268425e-01
  3.4498659e-01
 -1.2148860e+00
 -2.4803069e-01
 -2.6263649e+00
 -3.7959152e-01
 -4.1927513e-02
  6.1368749e-02
 -2.7779579e-01
 -3.0720803e-01
 -1.8836470e+00
 -2.2301788e-02
  1.0688144e+00
 -5.4823363e-01
  8.3841518e-02
  9.0845458e-02
 -1.9078150e+00
  5.0250951e-02
 -3.5590272e-02
  1.1376195e-01
  1.5952569e-01
  2.3212151e-01
  3.4481287e-01
 -2.7376180e+00
  1.6585730e-01
  1.1743668e-01
 -1.3330103e-01
 -6.7794925e-01
  1.9179061e-02
  2.4927788e+00
  5.7371300e-02
  1.1704249e-01
  4.2207385e-03
 -2.2761014e-01
 -1.6309060e-01
  1.5677884e-01
 -2.4170056e-01
  3.5083225e-01
 -1.2400936e-01
  2.5979453e-01
  7.8249991e-02
  1.0591565e+00
 -1.5237377e-02
 -1.4309357e-01
 -4.3191943e-01
 -1.5985219e-02
 -9.9625073e-02
 -1.5923826e-01
 -1.1240488e+00
 -1.1036934e+00
  5.0614655e-01
 -4.1226402e-01
  1.5107037e-01
 -2.5092292e-01
 -4.6970010e-01
  3.3374950e-02
 -6.6093400e-02
  1.3140747e-01
 -3.0682120e-01
  1.3924411e-01
 -1.5832707e-01
 -1.5789627e-01
 -6.4371586e-02
  2.1643886e-01
 -3.3533800e-01
  4.1019548e-02
 -3.3012727e-01
 -1.6636813e-01
  3.7432861e+00
  7.4442428e-01
 -2.0844672e-02
 -2.0463617e+00
 -4.5552940e+00
 -3.2751601e+00
 -2.3445561e+00
  4.2070737e+00
 -2.9050932e+00
 -1.5400867e+00
 -2.3796062e+00
 -2.8718956e+00
  6.1693640e+00
 -1.9864242e+00
 -3.1021099e+00
  8.1644211e+00
 -3.0461612e+00
  3.0922165e+00
  1.4146936e+00
  6.6235356e+00
  2.4184306e-01
  1.2858289e+00
  2.1632271e+00
  1.2303336e+00
 -1.3508697e+00
  2.6426969e+00
  9.4845045e-01
  6.2802386e-01
 -8.0563527e-01
 -7.7577907e-01
  1.3687648e+00
  2.2712696e+00
  4.7356977e+00
  4.3178082e-01
  1.0123703e+00
 -6.1448699e-01
  3.1359747e-01
  4.4931534e-01
 -2.4158046e-02
  1.7205300e+00
 -2.2253828e-01
 -7.3912108e-01
 -3.5771435e-01
 -3.9120901e-02
  8.2929187e-02
  2.5672269e-01
  2.2505721e-01
 -4.9622944e-01
 -7.1596541e-02
 -6.1518019e-01
  9.6015520e-02
 -3.5138416e-01
 -5.2086648e-02
  2.1227140e+00
  1.3996481e+00
 -2.5043833e-01
  3.5329029e-01
 -3.4345546e-01
 -1.5361376e+00
 -1.2804254e+00
 -4.1119342e+00
 -1.1306161e-01
  1.2773740e-01
  1.2543833e+00
  9.5172995e-01
  7.1089977e-01
 -2.7581940e+00
 -1.8538122e-01
  5.1248342e-01
 -1.8961885e+00
  5.2449117e+00
  4.1071978e+00
 -1.2664689e+00
  7.7512759e-01
 -1.3523766e+00
  6.6584504e-01
  3.4754708e+00
  6.3734472e-01
  3.1116939e+00
 -3.6913280e+00
  1.5658734e+00
  3.7086639e+00
 -2.0349784e+00
 -1.2214762e+00
 -1.0062939e+00
 -5.0340064e-02
 -5.5701649e-01
 -1.6827966e+00
  3.0372341e+00
  2.0346863e+00
 -1.0982852e+00
 -7.5332023e-02
 -1.3112327e-01
 -2.6844674e-01
 -2.8619629e-01
 -3.9070106e-01
  7.8806669e-01
  6.7561823e-01
 -4.2985883e-01
 -3.1570904e-02
 -2.3843884e-01
  1.1968482e+00
 -3.0350327e-01
 -6.0218799e-01
 -1.1757067e-01
 -4.0053021e-02
 -1.9447413e-01
  1.5593114e-01
 -9.7871464e-01
  3.1624931e-01
  2.3234119e-01
  3.4553999e-01
  1.3750105e-01
 -9.1806436e-03
 -5.6703396e-02
 -7.2777152e-01
  3.8607185e+00
  8.3616656e-01
  1.2171557e-01
 -7.4437849e-02
 -5.8582138e-02
  5.5326635e-01
 -1.4040945e-01
  6.4584375e-03
 -3.3215854e-02
  1.1810838e-01
 -3.1369240e+00
 -5.6220226e-02
 -2.0848052e-01
 -2.1209966e-01
  6.1584543e-02
  1.9353689e-01
  1.3030614e-02
  1.6091679e-01
  1.7004675e-01
  2.8070590e-02
 -2.0835893e-01
  1.2899684e-03
 -1.6224894e-01
  2.5013745e-01
 -6.6788355e-03
 -6.8966900e-03
 -4.9774680e-01
  1.7636108e-01
 -4.7715598e-01
 -2.0260596e-01
 -3.4286130e-02
 -3.0040523e-02
 -4.6004987e-01
  1.4262392e-01
  7.9251148e-02
 -1.4735092e-01
  2.8522737e+00
  2.6676072e-02
 -3.0013615e-01
 -9.8426759e-02
  2.1702535e-02
 -1.0959212e+00
  8.2747751e-01
  9.4484878e-01
  1.4377305e-01
  1.3803674e+00
  1.3687542e-01
 -3.3692494e-01
 -1.0602924e-01
 -2.7400829e-02
 -2.4059277e+00
  7.2077103e-02
 -1.1374378e-01
  1.0475435e-01
 -7.5989091e-01
  1.5350465e+00
  2.5518608e+00
  3.6686429e-01
  6.3520707e-03
 -3.9142737e-01
  1.6604840e+00
  2.0572266e-01
 -1.2248524e+00
 -2.5511496e-02
  2.5366696e-02
 -2.7255765e-01
 -9.5347613e-02
 -3.2017088e-01
 -3.6197727e+00
  5.9473405e+00
  1.4023179e-02
  1.1864658e-01
  3.0324392e-02
 -5.5327624e-01
  1.0829628e-01
  7.1696588e-04
 -1.2505637e-01
  1.6375503e-03
  3.2793231e-02
 -2.4448115e-02
 -2.8342814e+00
 -8.5144520e-02
  9.0140328e-02
  3.4738727e-02
  1.8068850e+00
  1.3781484e-02
 -1.2354247e-01
  1.3356984e-01
 -3.5999113e-01
  1.4435653e-01
 -1.0214374e-01
 -2.2694600e+00
  1.0282648e+00
 -6.4590520e-01
  4.9818188e-01
 -2.5812230e-01
  7.9664832e-01
  7.5905812e-01
  2.4576926e+00
  1.9905180e-01
  1.0704352e-02
  2.9576075e-01
  3.5458097e-01
  4.7732346e-02
  3.3281505e-01
  1.2713690e-01
  1.2752971e-01
  5.6995142e-02
 -1.0228482e+00
  1.2063593e-01
  7.3008500e-02
  2.8967852e-02
 -4.3303645e-01
 -2.5701272e+00
 -1.6545922e-01
  8.8186598e-01
 -1.3140523e-01
 -2.7685339e-02
  1.1874839e+00
  3.7087798e-01
 -4.2557917e+00
 -4.6763605e-01
 -1.0150561e-02
 -2.8832552e-01
  1.5278044e+00
  3.9643006e+00
  9.5978218e-01
 -2.0637617e-01
  1.0508946e-01
  3.5479043e-02
 -1.5640116e+00
  7.1635328e-02
  8.1969336e-02
 -1.0059589e-01
  1.6498511e-01
  8.1016608e-02
 -2.0764838e-01
  1.2632278e-01
  1.1973727e-01
 -1.4984341e-02
 -8.9942314e-02
  6.8741953e-01
 -4.4076964e-02
 -6.6547304e-01
  3.3986583e+00
  2.1636328e-01
  4.3468390e-02
  2.4511144e+00
  4.6160701e-01
 -5.8596164e-01
  1.0001639e-01
  7.8519203e-02
 -2.5667949e-02
 -4.4324137e-02
  1.8485416e-01
 -5.3131884e-01
  5.2574207e-03
  4.9812654e-01
 -1.1521974e-01
 -1.4093673e-01
  4.1766323e-02
 -1.0615151e+00
  8.8552606e-01
  1.0245119e+00
 -1.2484604e+00
 -5.4784554e-01
 -4.9548858e-01
  1.2015510e-02
  5.1967537e-01
  4.7240087e-01
 -6.0302019e-01
  1.4228028e+00
 -1.4119939e+00
  1.5381249e+00
  6.1087567e-02
  3.8399351e+00
  2.7363947e-01
 -5.9188300e-01
  5.3837553e-02
  3.1896286e-02
 -4.3352365e-01
 -2.1877949e-01
  2.3656297e-01
 -1.3946886e-01
 -6.1498827e-01
  9.7599286e-01
  2.5862086e+00
  2.4796201e-01
  5.1867690e-02
 -9.4290935e-02
 -1.0006779e-01
 -3.2309418e+00
  3.1474211e+00
  3.3788369e+00
  4.8553901e+00
  6.2429061e+00
 -7.9172814e-01
 -2.5200474e+00
  4.7691936e+00
  2.3136520e+00
  5.0557861e+00
  2.9943099e+00
 -1.6891199e+00
 -1.7408178e+00
  2.7302402e-01
 -6.9227576e-01
 -1.2202139e+00
  7.1562916e-01
 -2.0074017e+00
 -1.0136188e+00
  4.2469206e+00
 -3.0431197e+00
  4.2326428e-02
  2.3082775e-01
  2.7656221e+00
 -3.6558771e+00
  1.0337861e+00
  4.0300706e-01
 -3.6249503e-01
  1.4704251e+00
 -2.9484696e+00
 -2.1806107e+00
 -1.8708727e+00
  5.5994010e-01
  4.7334781e+00
  3.0307704e-01
 -7.1805125e-01
 -1.1685979e+00
 -2.9574314e-01
  1.4312491e+00
  2.3526090e-01
 -1.5486604e-01
 -4.0805325e-01
  7.4825948e-03
 -6.3610125e-01
  2.7432996e-01
 -1.9364231e+00
  1.5135435e+00
 -2.8034273e-01
  2.0431036e-01
  3.7200212e-02
 -3.3552784e-02
  8.6775785e-03
  1.4206545e+00
  4.3923917e-01
 -1.5502113e+00
 -2.3700457e+00
 -2.5532513e+00
  3.4827979e+00
 -2.2275515e-02
  6.1415167e+00
 -1.5287739e+00
 -1.2354666e+00
  1.6487112e-02
 -1.2356352e+00
  1.0956001e+00
  7.8166574e-01
 -1.6612333e+00
 -3.5690770e-01
 -3.1866649e-01
  3.9311461e+00
  5.3127751e+00
  1.6971673e+00
  1.3626845e-01
 -3.0012247e-01
  7.4262935e-01
  1.3293146e+00
 -1.3286544e-01
  1.8999927e+00
  8.7548447e-01
  8.8619739e-01
  1.2083960e-01
  4.3141004e-01
  1.6163247e+00
  9.0321526e-02
  2.3398335e+00
  2.9826021e-01
  6.7891574e-01
  7.6034802e-01
 -1.0631104e+00
 -2.3108292e-01
  8.3885890e-01
 -2.7038503e-01
  1.0744673e-01
  4.7161080e-02
 -1.3022156e-02
  4.0118871e+00
  3.0725968e-01
  8.5362971e-01
 -3.1655124e-01
  5.8514170e-02
  1.4390108e-01
 -1.8906611e-01
  1.4336599e-01
  6.9144905e-01
 -4.3667354e-02
  6.2246960e-01
  1.3265707e-01
  5.0461572e-02
  1.1758563e-01
 -3.3460925e+00
  5.8691233e-04
 -1.7791414e-01
  2.3057376e-01
 -6.2521249e-01
 -6.8251923e-02
  3.2850191e-01
 -3.1532812e-01
  4.4114217e-01
  1.2386579e-01
 -1.8466018e+00
 -2.9798472e-01
  4.2185432e-01
  1.0860825e-01
  6.3598782e-01
  1.4750689e-01
  3.3757696e-01
 -1.3666903e+00
 -4.2405236e-01
 -8.5231555e-01
 -3.1506427e-02
 -2.4365692e-01
 -2.9630644e+00
 -6.9550812e-01
 -1.1182392e+00
  4.0729579e-02
 -3.2634301e+00
 -9.9735045e-01
 -2.8335112e-01
 -1.3901629e-01
 -2.0543652e+00
 -1.0308781e-01
 -3.5796118e-01
 -1.3151751e-01
 -3.2210758e-01
  3.5678655e-01
 -3.6497624e-03
 -3.2673567e-03
 -1.2024142e-01
  6.6821955e-02
  1.8745905e-02
 -1.0716006e+00
  3.5632439e-02
  1.1502625e-01
 -5.2619003e-02
 -1.0571070e-01
 -2.0251949e+00
  4.1119232e+00
  6.2173706e-01
 -1.8361361e+00
 -3.2054308e-01
 -9.0238921e-02
  3.6769645e+00
  9.0596601e-03
  1.6967261e+00
 -5.6568157e-02
  3.0051973e-01
 -4.7105205e-01
  3.3982845e-03
  1.8842354e+00
 -6.2722899e-02
 -4.3527085e-01
 -1.4330019e-01
  7.1170127e-01
  3.2885507e-01
  3.9323874e-02
  1.5745507e+00
 -4.1195455e-01
  1.0000966e+00
 -9.0731204e-02
  1.1011026e+00
 -3.0898552e+00
  1.6283742e+00
  2.8360686e-01
  6.7185402e-01
 -4.2252094e-01
 -4.1470277e-01
 -2.2528276e-01
 -1.3913427e-03
 -1.7850471e+00
  1.1643130e+00
 -9.0730809e-02
 -7.1982309e-02
 -5.0407354e-02
 -8.1394315e-02
  4.0291584e-01
  3.9467972e-02
 -3.7412405e-01
 -2.6767936e-02
  1.4189914e+00
 -1.4422792e-01
  1.4431691e-01
 -2.3116932e+00
  3.3000729e-03
  6.1471060e-02
 -2.2080493e-01
 -5.2905577e-01
  6.6464253e-02
 -5.3580314e-01
  1.2530036e-01
  2.6038185e-01
 -2.3889341e+00
 -4.2512711e-02
 -6.1705828e-02
 -2.4912970e-01
  1.0133113e-03
  8.5961789e-02
  1.7523004e-01
  1.7818254e-01
 -1.2821505e-03
  1.9923729e+00
  1.7981131e-02
 -8.8909917e-02
  1.6823652e-01
 -1.7367293e-01
 -1.9989049e-01
  6.5593794e-02
 -4.2718291e-01
 -4.9583755e-02
 -1.3151580e-01
  1.0753073e-01
 -1.9931790e-01
 -2.6441577e-01
  2.3724544e-01
 -5.9426473e-03
 -1.5061007e-02
  5.0311271e-02
 -1.1475821e-01
 -1.2457456e-01
 -3.4387361e-02
 -8.0967024e-02
 -4.1735032e-01
 -5.7934117e-01
 -1.0708776e+00
  2.6858652e+00
 -4.8280701e-02
  5.0067693e-02
  9.4137318e-02
 -1.3215415e-01
  1.1834390e-01
  3.4502515e-01
  1.2580402e+00
  1.6128854e-01
  1.1858926e-01
  7.5779393e-02
 -1.9882599e-01
 -1.4629084e+00
  1.2920520e+00
 -1.3871862e-01
  2.5805373e-02
 -3.7876940e-01
  3.7215548e+00
  3.5930485e-02
 -3.3182687e-01
 -3.8099360e-02
 -3.5369575e-01
 -3.9836667e-02
 -3.3229515e-01
 -8.9406699e-02
  1.6061120e-02
  2.2932987e-03
 -9.8430283e-02
 -3.8570678e-01
  1.8675357e-01
 -5.1100659e-01
  4.1602907e-01
  3.2029499e-03
  4.8528399e-02
 -2.5095263e-02
  1.5766236e+00
  3.8211492e-01
  6.3845855e-01
  2.2395903e-01
 -2.8617704e-01
 -2.2078302e+00
  1.5969366e-01
 -2.1915011e-01
  1.7686403e-01
  3.2932699e-02
 -1.3764097e-02
  3.6705658e-02
 -8.4860933e-01
 -2.0722947e-01
  1.8197191e-01
 -6.1393775e-02
  2.4976801e-02
 -1.2360626e-01
 -6.1105096e-01
 -9.6228356e-03
 -2.8870741e-01
 -1.3785143e-02
 -1.2137285e+00
 -1.2051985e-01
  1.0176085e+00
  1.0454476e-01
 -2.4878381e-01
 -4.4184007e-02
 -1.4081150e-01
  3.6147094e+00
  5.9986854e-01
 -2.2827437e+00
  4.8587391e-01
 -1.5229001e+00
  5.8336884e-01
  3.3679816e-01
  3.0223024e+00
  4.0511246e+00
  1.3024920e+00
 -2.8306477e-02
  6.5440047e-01
  1.0875951e-02
 -2.4644201e+00
 -4.1933556e+00
  2.7022727e-02
  1.6752368e+00
 -1.9450743e+00
 -2.9612312e-01
  3.0727309e-01
  8.1840163e-01
 -1.0284219e+00
  9.3199082e-02
 -6.7817736e-01
 -7.4175227e-01
  7.9352933e-01
 -1.1357955e+00
  2.3682101e+00
 -9.9755806e-01
  2.1969441e-01
 -1.3198586e+00
  1.3821554e+00
  3.9295670e-01
 -5.9395649e-02
 -1.3197898e+00
 -3.5824156e+00
 -2.4741201e-01
 -2.6008554e-02
 -6.8602458e-02
 -1.9563775e+00
  2.0629294e-02
  2.7521232e-01
 -6.9797063e-01
 -6.7720741e-02
  1.9604605e-02
 -3.8675210e-01
  5.0660528e-02
 -8.9216566e-01
 -1.3899305e-01
 -4.9823186e-01
 -7.9793915e-02
 -2.3984783e+00
 -8.4197694e-01
 -6.6807193e-01
  1.5447766e+00
  2.8873287e-02
  2.6815019e+00
 -2.0323417e+00
  7.4305362e-01
  7.1083736e-01
 -1.2051824e-01
  1.3453427e-01
 -1.9791842e+00
 -6.2827924e-03
  8.3903790e-02
 -1.2270402e+00
  1.8259162e-01
 -2.0681922e-03
 -2.8196132e-01
  3.3571205e-01
  3.1457970e+00
 -2.8210330e-01
 -5.4543283e-02
  1.8922336e+00
 -7.9289168e-01
 -4.4095612e-01
  2.5641093e-01
  2.0808132e+00
 -1.1371005e+00
 -2.9912596e+00
  9.6294212e-01
  3.1583682e-01
 -4.5245090e-01
  1.1503731e-01
 -1.2453487e+00
  6.8289703e-01
 -1.8503639e+00
  3.8216169e+00
 -8.0364332e-02
  1.8764038e-01
 -3.8889296e-02
 -4.5860812e-02
  9.4493747e-01
  1.8716490e-01
 -1.0310373e-02
 -3.2925982e-02
  6.1576616e-02
  1.3208204e-02
  1.4072473e-01
  5.1672828e-01
 -8.3343081e-02
 -8.8984864e-03
 -1.8053167e+00
  1.7285458e+00
 -3.3458374e+00
 -9.8344815e-01
  4.7857622e-03
 -5.4733831e-01
 -5.7034053e-02
 -1.6430509e-01
 -3.0936155e+00
 -3.1573753e+00
  6.5198019e-02
  8.5725272e-01
  9.8381186e-01
 -1.3064657e-01
  1.8771726e-01
 -2.2734030e-01
  7.5617224e-01
  7.2577339e-01
  1.0990033e+00
 -1.2438699e+00
 -1.8533282e+00
  1.1186364e-01
  1.7858541e-02
  2.2870131e+00
  1.8897966e+00
  5.7413197e-01
 -1.6902144e+00
  1.9253038e-01
 -4.7713388e-02
  6.3397032e-01
  3.2810583e+00
 -1.0022463e-01
  7.5280219e-01
 -8.0847377e-01
 -1.5500578e+00
 -1.6169164e+00
  4.1038895e-01
  2.3604691e-01
  1.2499969e-01
  1.1956573e-01
 -6.5975182e-02
  3.9034149e-01
 -4.1937899e-02
 -7.0629880e-02
 -5.8655173e-01
  3.7774719e-02
  5.0975311e-01
  3.5796577e-01
  9.2052378e-02
  2.0943160e-01
 -3.7411764e-01
  5.0088316e-01
  2.2446611e+00
  1.4174355e+00
 -4.8547339e+00
  6.9403596e-02
  3.8436327e+00
 -2.8311751e+00
 -1.2876263e+00
  3.4682467e+00
 -2.4033871e-01
 -8.0352701e-02
 -1.3416911e+00
 -5.9662007e-02
  1.3187438e+00
  9.1326749e-01
 -1.0522017e+00
  3.8152263e+00
  1.5375248e-01
 -1.2037059e+00
  1.0315036e+00
 -7.5593017e-02
  1.7041078e+00
 -1.0300646e+00
  2.0578721e+00
  9.6663970e-01
  2.3119474e-02
 -8.9228796e-03
 -6.3913119e-01
  2.2331567e-01
  4.1017866e+00
  3.1703794e+00
  1.2924813e-01
 -7.2325304e-02
  1.2071378e+00
  1.0894136e+00
 -1.0921753e-01
 -1.1039879e-01
  1.2809211e+00
  7.5919844e-02
  5.5813414e-01
  1.3615155e-01
  5.4249890e-02
 -3.0211663e-02
 -3.4734339e-01
  3.2339832e-01
 -2.9407684e-02
  5.9842193e-01
 -3.2216492e-01
 -4.1038275e-02
 -1.4304302e+00
 -1.5942253e-01
  8.6395815e-02
 -1.0905536e+00
 -2.6387188e-01
 -8.3651161e-01
 -4.6780847e-02
  5.8779318e-02
  3.6971045e-01
 -1.4164194e+00
 -1.7427093e+00
  2.6085380e-01
 -2.6027625e-02
 -1.9889401e+00
 -1.4287603e-01
  1.3804205e-01
  4.0800038e-01
  1.3050586e-01
 -3.1375247e-01
  1.3734668e-02
  1.1067532e-01
 -3.3458557e-02
  4.5752910e-01
  6.1554761e+00
  4.9695772e-01
  3.3804080e-01
  1.3507026e+00
 -4.1688278e-01
 -1.5600413e-01
 -2.5911841e-01
 -2.1301854e+00
  1.6241974e-01
 -5.8837456e-01
 -6.9532990e-02
  4.4480371e+00
  3.8292181e-01
  7.2164327e-01
  3.5883636e+00
  1.4118524e-01
 -4.8514661e-01
  2.1526049e-01
  8.3256751e-01
  1.1148783e+00
 -2.0994945e-01
 -4.8601363e-02
 -4.9505639e-01
  1.6099530e-01
 -4.1856840e-02
 -1.4760117e-01
 -5.4271724e-03
  5.6220356e-02
  2.7552843e-01
  8.4200382e-02
 -8.6008501e-01
 -3.5533819e+00
 -1.7195991e+00
 -1.5869893e-01
 -5.8943171e-02
  3.1918019e-02
 -1.0210644e+00
 -2.4879907e-01
 -1.4450662e+00
 -7.9999445e-03
  9.4169691e-02
  6.2054977e-02
 -6.3478507e-02
 -3.9304075e-01
  1.3996822e-01
 -1.1293331e-02
 -7.2485733e-01
  2.8056395e-01
  8.7782703e-02
  2.8254692e-03
 -9.6582629e-02
  1.9286491e-01
 -1.2679084e-01
 -4.7594488e-02
  2.4777958e+00
 -1.5619118e-02
 -1.1238939e+00
  5.4068929e-01
 -8.4930539e-01
 -8.2768789e-03
  9.8725259e-01
  8.9126694e-01
  5.1030022e-01
 -1.6135349e+00
  2.3381100e+00
  3.3092454e-02
  2.0459776e-01
 -9.8835006e-02
  1.7301331e-01
 -9.9107243e-02
 -6.4212389e-02
 -2.4943359e+00
  2.1991599e-01
  2.3746112e-01
  6.4938277e-02
 -1.1543797e-01
  1.3674332e-02
  4.5108083e-01
 -7.1989857e-02
  7.5194097e-01
  1.5603662e-01
 -5.5894578e-01
  2.3841567e+00
 -1.0765347e+00
 -1.6340078e+00
  6.0094241e-02
  4.3481853e-02
 -2.0824388e-01
 -2.2561017e-01
  6.4062685e-02
 -1.2602434e-01
 -6.2963419e-02
 -5.8441989e-02
 -6.2309164e-01
  1.7711769e-01
  8.7426685e-02
 -4.4914149e-02
 -1.2936488e+00
 -8.0822922e-02
 -5.6746930e-02
 -3.6854887e-01
  1.8103915e-01
  1.7626368e-01
 -1.8324518e-01
 -6.2344325e-01
  1.3654593e-01
 -3.3447590e-01
  6.2591052e-01
  1.4050196e+00
  1.2901722e-02
 -2.0333098e-01
 -8.9903437e-02
  9.5803702e-01
  1.3455738e+00
  6.0566470e-02
 -2.9121742e+00
  4.5043263e-01
 -4.6664402e-01
  4.0415399e-02
  4.0110680e-01
  4.1180984e-03
 -1.0201852e+00
 -3.2440825e+00
 -1.6772563e+00
 -1.3426422e-01
 -7.8794539e-02
  1.1209358e+00
 -4.4807026e-01
 -2.3871822e-02
  4.6006138e-03
 -4.1505122e+00
  3.1271145e-02
  2.2886138e-01
 -2.4421790e-03
  5.6814060e+00
  9.3944687e-01
  3.5552263e-01
  1.1855658e+00
 -8.6474210e-01
  1.0176536e-01
 -2.8513045e+00
 -4.1026255e-01
 -3.7320673e-01
 -7.8033864e-02
 -1.9871961e-01
  9.7104800e-01
 -5.6250237e-02
 -4.2484179e-01
 -4.7689864e-01
 -2.6282641e-01
  2.0691502e-01
 -2.9601697e-02
  8.4140044e-01
  2.5116464e-01
  1.5680961e-01
 -5.0534898e-01
  1.0398155e-01
 -1.4647280e+00
  7.2895080e-01
  6.9644785e-01
 -2.8539300e-01
  4.1347799e-01
 -3.6921832e-01
 -2.6861703e-01
 -1.0252564e-01
  2.0125622e-01
  2.7587605e+00
 -1.9740327e-01
  1.5662731e+00
 -2.1871534e-01
 -2.0593561e-02
 -6.7491978e-01
  1.7577581e-01
  1.6346860e-01
  4.6631688e-01
 -1.4413635e-01
  9.0469666e-02
  3.1519949e-02
  5.1970445e-03
  1.0133044e-01
 -6.0141540e-01
 -6.1399512e-02
 -1.0080728e-01
 -2.1648084e-01
  1.4423695e+00
  4.1839316e-01
  4.3320638e-01
 -5.2357323e-02
  5.6564730e-01
  6.4889103e-02
 -2.2313602e-01
 -3.5112429e-02
  1.2529496e+00
  2.4548884e-01
  8.5708909e-03
  9.3056262e-03
  1.5625395e+00
 -1.6879071e-01
  6.0512595e-02
 -1.0037033e-01
  2.3721226e-02
  1.0705402e-01
 -1.5854248e-01
 -3.2390818e-01
 -9.1985482e-01
  8.8313401e-01
 -5.5729456e-02
  2.0386173e-01
 -1.0383670e-01
  5.1925927e-01
  3.5085046e-01
 -1.7442626e+00
  8.3788842e-02
  1.6620494e-01
  3.2264289e-01
  7.3136747e-02
 -4.0246684e-02
 -4.5145159e-03
  1.7550731e-01
 -1.1801940e-01
 -3.9685884e-01
  2.2860022e-02
 -4.7376469e-01
 -8.8628657e-02
  3.7503630e-01
  1.0724952e-01
 -3.4310979e-01
  5.5511951e-02
 -1.1662662e-03
  1.6520202e-01
  1.7396063e-01
  1.9230768e-01
 -4.5165457e-02
  1.1599832e-03
  2.0870924e+00
  1.3413192e+00
  1.7357076e+00
 -1.8117471e+00
  3.3165350e+00
 -4.9521608e+00
  1.8006059e+00
  5.3466516e+00
  4.6271510e+00
 -1.2241645e+00
 -3.5646470e+00
 -4.3601745e-01
  8.9485806e-01
 -3.0705020e+00
 -4.4495440e+00
 -2.9854372e-01
 -8.8054672e-02
 -1.3052628e+00
 -3.4764998e+00
 -1.2519895e-01
  9.7450358e-01
 -4.1975756e+00
  2.0622549e+00
 -3.2536113e+00
 -3.6165413e-01
  3.5388300e+00
 -9.9540287e-01
 -1.4095817e+00
 -3.2789123e-01
 -1.1338570e-02
 -1.7529229e+00
  8.0282524e-02
  1.3573357e-01
 -3.8699615e+00
  1.4288783e+00
 -1.9030337e+00
  2.4328987e-01
 -1.2487184e+00
  8.7906235e-01
  1.2227186e-01
 -1.8911849e+00
 -1.9736221e+00
  1.6831527e+00
 -3.6538091e-02
  5.1283026e-01
 -1.6077964e+00
  1.4307233e-02
 -2.3475422e-01
  1.5695105e-01
  1.4813426e-01
 -2.5918651e+00
  3.2740862e+00
  6.7813969e+00
  5.8841395e+00
  1.4763809e+00
  1.1862669e-01
 -2.6452348e+00
 -2.3993893e+00
  3.7618020e+00
  9.1187429e+00
  2.6384902e+00
 -2.6029673e+00
 -3.4775394e-01
  1.7638703e-01
 -1.0909954e+01
 -1.4492045e-01
  1.0389795e-01
 -2.2518847e+00
 -3.4248564e+00
  7.3639625e-01
  4.8065633e-01
 -2.7172692e+00
 -1.2479929e+00
  1.2713532e+00
 -2.1114113e+00
 -4.9400907e+00
  1.9661650e-02
  5.6119347e-01
  1.9581642e+00
 -1.6714157e+00
 -4.1307769e+00
 -4.8891616e+00
 -3.2880781e+00
 -1.0028785e+00
  6.5037996e-01
  3.0970352e+00
  1.8617334e+00
  7.9283828e-01
 -2.9549575e-01
  2.7667031e-01
  1.3387085e-01
 -8.6777039e-02
 -4.2062867e-01
  4.7125152e-01
  6.8444085e-01
  9.3386221e-01
  4.0517934e-02
 -1.6009723e-01
 -1.2023389e-01
  1.4437714e+00
 -2.2656607e-02
 -3.6838099e-01
  3.4566623e-01
 -1.4235784e+00
  3.1943567e+00
  5.8849317e-01
  3.1042259e-02
  2.3784736e-02
  1.2998440e+00
 -4.3247864e-01
  1.1256899e+00
 -2.7858290e-01
 -2.0629478e-01
 -1.6435552e-01
  8.1541055e-01
  7.6026440e-02
  6.9590986e-01
 -9.1056786e-02
 -2.2906050e-01
 -1.9683816e-02
  2.0059344e-01
  3.9666906e-01
  1.7192370e+00
  2.3180201e+00
 -4.4112010e+00
  1.9243104e+00
 -3.7829447e+00
  9.7707771e-02
 -3.6431953e-02
  1.2417632e+00
  3.8127336e-01
 -1.3028728e+00
 -9.8408902e-01
 -5.3293586e-01
 -2.1663189e+00
 -6.7764996e-03
 -9.6959054e-01
  1.0226010e-01
  5.6536008e-02
  1.3049742e+00
 -7.0186332e-02
  4.2098546e-01
  7.6294526e-02
  9.7451713e-03
 -7.9095447e-03
 -3.0654562e+00
 -5.5396289e-01
 -3.4126124e-01
  7.9310402e-02
 -1.3229166e-01
 -2.5249091e-01
  8.6291365e-02
 -7.1253359e-02
  9.8798677e-02
 -4.4826531e-01
 -2.9799781e+00
  4.0320709e-02
  4.2181239e-01
 -4.1599625e-01
  1.5240172e+00
 -2.5375776e-02
  1.2420686e+00
 -1.6611353e+00
  2.4077423e+00
 -1.2231436e-01
  1.0428385e-01
  2.0572588e-02
 -2.4925236e-02
  2.8298933e-02
 -3.6118707e-01
 -2.1628339e-02
  9.1757137e-01
 -3.3628326e-02
 -2.8315428e-01
 -1.4600644e+00
  6.8316162e-01
  3.2662383e-01
 -3.7268129e-01
  2.8190023e-01
  5.5181152e-01
 -5.3374428e-01
 -1.6959220e+00
  2.2602157e-01
  2.2570930e+00
 -1.2285213e+00
  3.6373922e-01
 -2.0034721e-01
 -8.0298662e-01
 -2.2039416e+00
 -1.0888600e+00
 -1.9151306e+00
  1.9730710e+00
 -2.3758002e-02
  9.6721850e-02
 -5.4980135e-01
 -7.9314595e-01
 -5.9368487e-02
 -1.8061525e-01
 -1.3098814e-01
  1.7844707e+00
 -3.2973204e-02
 -4.6921258e+00
  5.9753710e-01
  7.6610133e-02
  1.7287773e-01
 -1.4307721e-01
 -2.2799858e-01
 -4.5033664e-01
  7.7705593e-03
  1.7455672e-01
 -4.2566489e-02
  3.9786384e-02
 -1.5077624e-02
 -5.6623565e-03
 -1.7333657e-01
 -2.3588926e-01
 -7.6015347e-01
  2.9973340e-01
  2.8485304e-01
 -8.1999585e-02
 -2.1121989e-01
 -5.2062440e-01
  9.1639124e-02
  2.2179919e-01
 -7.0593849e-02
  1.6445812e+00
  1.0209410e-01
 -1.6725032e+00
  3.3822975e+00
 -1.1716962e+00
 -6.8504624e-02
  7.9966813e-01
  3.8576871e-02
 -2.0944130e-02
 -7.9208270e-02
 -3.2515910e-01
  1.6816877e+00
  3.8815463e-01
 -2.1275483e-01
  2.8538066e-03
 -2.7183421e-02
  2.5501378e-02
 -9.7383987e-03
 -1.2549548e-01
  1.1700179e-01
 -2.7589476e-02
  8.8562287e-02
  1.8670829e-02
  8.4018987e-01
 -2.6262966e-03
  9.7050503e-02
 -2.2412939e-01
 -2.1220553e-01
  2.4671927e-01
  2.8004488e-01
 -7.5034672e-01
  1.4126912e-01
 -1.9973350e+00
 -4.9387094e-01
  3.4735626e-01
 -1.8245807e+00
  1.2414643e+00
 -1.9058090e+00
 -1.0754180e-01
 -2.9195366e+00
 -1.3358852e-01
 -1.4916725e+00
 -1.9638072e-01
 -9.5631018e-02
  2.6153404e-01
 -3.0088851e+00
 -7.2367454e-01
 -1.8258683e-01
  3.4850087e-02
 -8.8807512e-03
 -5.2487880e-01
  2.0825198e+00
  3.4814537e+00
 -5.6323642e-01
 -2.0042581e-02
 -8.5636161e-02
  3.2092814e+00
  6.9820887e-01
  4.5579753e+00
 -8.2492024e-01
  1.5412781e-01
  2.2461227e-01
 -1.2600687e+00
 -1.9219954e+00
 -1.6587882e+00
  4.4258451e+00
  4.4226578e-01
 -3.8679859e-01
 -3.0868855e+00
  1.3883065e+00
 -9.3642592e-02
  1.2706992e-01
 -9.9238761e-02
 -3.9098126e-01
  1.6256073e-02
 -1.1950610e-01
 -9.6037954e-01
 -7.8111053e-01
 -2.1515128e-01
  1.8283706e-02
 -3.7774035e-01
  1.8255475e-01
 -2.0744400e-01
  5.7235229e-01
 -2.4065118e-01
  3.4088120e-02
 -8.5574575e-02
 -8.3876461e-02
 -1.5140714e-01
  1.0286309e-01
  1.0064504e+00
  1.2128280e-02
  1.1455335e-01
  2.3759091e-02
  9.3545645e-01
  3.5355377e-01
 -2.2485586e-02
 -3.0345023e-01
  8.3792403e-02
  5.2648985e-01
  9.6014850e-03
  2.8018433e-01
 -7.2639036e-01
 -1.6065317e+00
  1.9924496e-01
  6.9232024e-02
 -2.3232870e-01
 -5.6174415e-01
  2.8865436e-01
 -1.0131790e-01
 -2.1803682e-01
  3.4688550e-01
  1.3631687e+00
 -1.5762769e+00
  2.7446307e-02
  3.3250073e-01
  2.5905424e-01
 -2.0737476e+00
 -4.9017057e-02
 -2.0416172e-02
 -2.0983730e-02
  2.4238167e+00
  7.1997367e-02
 -1.7862515e+00
  4.2887694e-01
  7.3788679e-01
 -4.1223142e-01
  1.7990240e-01
  1.8224861e-01
  1.1866235e-01
 -9.1382045e-01
  9.5075205e-02
  3.9207467e-01
  2.3376268e-01
 -1.9847196e-01
  1.6192677e-03
 -5.8258158e-01
  2.0814273e-01
  3.1416571e-01
  1.7707614e+00
 -3.4776360e-01
 -1.0711848e+00
 -3.4927852e-02
 -7.7212405e-01
 -1.8537404e-01
  1.3890710e-03
  1.2846067e+00
  3.9025176e-01
 -1.2707359e+00
  2.3169112e-01
 -5.3717405e-02
 -1.4488617e-02
  1.0034373e+00
 -3.0741107e-01
  2.1155464e-02
 -1.8759121e-01
  2.4650273e-01
  1.0181350e-01
  3.3698283e-02
 -9.9158961e-01
 -2.1399607e-01
  6.8459690e-02
  1.7260261e-01
 -1.0371409e-01
 -3.9471120e-01
 -1.5202149e+00
 -1.8109718e-01
  4.9639806e-02
  5.6868869e-01
 -1.1818632e-01
  1.1446580e-01
 -2.8181127e-03
  1.1470579e-01
 -4.4104327e-03
  5.4474860e-01
  3.1782669e-01
  3.0468026e-01
  4.7739830e-02
 -5.3127900e-02
  1.3775666e-01
 -1.5666179e-01
 -1.4329334e-01
 -7.5783931e-02
  2.1873970e+00
  3.3271663e+00
  1.9962155e+00
  3.3976054e+00
  5.6205127e-02
 -1.2826337e-01
  2.1693425e+00
  2.1421344e+00
  5.8552071e-02
  1.3327157e+00
 -6.6263747e-01
 -2.4824321e+00
  5.3317428e-01
 -1.2952487e+00
 -5.6336737e-01
  6.3897258e-01
 -3.3710767e-02
 -3.5422653e-01
 -1.8245356e-01
 -5.3498309e-02
 -7.8054279e-01
  5.6016731e-01
 -8.5308486e-01
 -6.8082288e-02
 -2.4066150e-02
  2.6248121e-01
  3.1212189e+00
 -2.1918838e+00
 -1.8759550e+00
 -3.4626564e-01
 -5.2409071e-02
 -4.8326746e-01
 -1.4845911e-01
  3.2213960e+00
  5.5384880e-01
  1.4687408e+00
  8.0762094e-01
  5.7854831e-01
  1.8791053e-01
  5.7246351e-01
  1.8844519e-02
  1.2878284e+00
  7.8393847e-02
 -1.5737847e+00
 -2.1100733e+00
  2.4350570e-01
  1.4834845e-02
 -2.1558072e-01
  7.1541503e-02
  1.9191022e-01
 -5.0876576e-01
 -1.0794088e+00
 -6.6517228e-01
 -1.8908507e+00
 -6.6543736e+00
  1.1762503e+00
  9.3043286e-01
 -1.1097355e+00
  1.3496156e-01
 -6.1161299e+00
 -5.1997024e-01
 -7.2185814e-01
  2.9449680e-01
 -1.2283953e-01
  1.2392286e+00
  2.7625245e-01
  4.6460211e-02
 -6.3768011e-01
 -2.7368360e+00
  1.0375799e+00
  4.7821615e-02
 -4.5376415e+00
 -2.0090711e+00
 -5.4647666e-01
 -3.4180753e-02
 -1.2667224e-01
 -3.4407463e+00
  5.3443116e-01
  1.6427395e-01
 -3.7934920e-01
 -1.8618915e+00
 -1.9315970e-01
  8.0843461e-01
 -2.0642703e+00
  2.0152917e+00
 -4.0752249e+00
  2.8552694e+00
 -8.3897687e-02
 -5.0303727e-01
 -7.3695028e-01
  5.1383382e-01
  1.0885740e-01
 -5.7571200e-03
  1.0096583e-01
  1.3335477e-01
 -5.5779959e-03
  1.2213837e-01
 -8.5407915e-03
  2.6387817e-01
 -1.0152634e-01
  1.2210706e+00
  1.9614882e+00
 -2.7596313e-01
  1.3708323e+00
 -1.7744865e-01
  2.4128752e+00
 -2.2149771e-01
  1.2598544e-02
 -2.6032722e-01
 -2.4692256e-02
  5.3834313e-01
 -3.7186196e-01
  1.8195970e-01
 -1.9135268e-01
 -3.7116700e-01
 -1.0807247e+00
 -1.1610312e+00
 -7.7104658e-01
 -4.0840346e-01
 -4.7716787e-01
 -2.5201494e-01
 -1.2756701e+00
  5.6127850e-03
 -7.9517610e-02
  5.6430006e-01
  2.4079156e-01
  4.2809314e-01
 -9.8670326e-02
 -2.2429716e-02
  7.8155738e-01
 -3.6918971e-01
  8.6685739e-02
  1.0095064e-01
  2.1819925e-02
  4.1579667e-01
  4.7590208e-01
  7.8469418e-02
 -1.4384315e+00
  3.7488303e-01
 -6.9549286e-01
 -4.7675688e-03
 -4.5909397e-02
  3.8379397e-02
 -2.5503302e-01
 -1.6259423e-02
  1.8063436e-01
 -2.5243446e-01
  1.4235467e+00
 -1.5198231e-01
  6.3147031e-02
  4.6188015e-02
 -1.6094418e-01
 -1.0225806e-01
  2.2655241e-02
  3.5663000e-01
  2.1536615e-01
 -2.0692660e-02
 -4.4348866e-02
 -5.3892374e-02
  1.4872265e-01
  2.5510972e-02
  4.0393424e-01
 -3.2808166e-02
  5.4103326e-02
  1.2457087e-01
  8.7656174e-04
 -8.1104904e-02
  1.1839369e-01
  2.4328658e-01
 -5.5256855e-01
 -2.1530150e-02
  5.9397972e-01
  8.5028547e-01
  4.6936157e-01
  2.9533279e+00
  1.4217222e-01
 -5.3119794e-02
  4.5988176e-02
 -1.1635305e+00
 -3.4037076e-02
 -1.4090279e-01
  2.0110904e-01
  4.2373514e-01
  2.7906470e+00
 -2.2441579e-01
  6.5956980e-01
 -3.3752018e-01
 -2.1142423e+00
  1.2524939e+00
  2.6697820e-01
 -1.9177406e+00
 -2.6000564e+00
  1.5237439e-01
  4.3392446e-02
 -1.2863044e-02
 -1.3496362e-01
  3.1699419e+00
 -9.9164367e-01
 -3.1393129e-01
  1.2182339e-01
 -6.6260196e-02
  2.7938201e+00
  1.7184459e-01
  1.0735770e+00
 -6.6958815e-02
 -4.0991645e+00
 -1.5509812e+00
 -3.3902794e-01
 -2.5141022e+00
  1.3796939e-01
 -9.3903393e-02
 -9.7374904e-01
  9.7684078e-02
 -5.0355482e-01
 -7.5437814e-01
 -8.7702101e-01
  1.8601540e-01
 -5.6855965e-01
  1.7509187e+00
  4.4274431e-01
  8.4308249e-01
  3.7169483e-01
  1.5583874e-01
  7.6730162e-02
  2.7804250e-01
 -3.7160025e-03
 -2.8578353e+00
 -1.3349580e+00
 -6.0793862e-02
  2.3856544e-01
 -7.3545903e-01
  4.8559034e-01
 -4.1787076e-01
  8.9843020e-02
 -2.4300908e-01
  9.9134672e-01
  9.0185648e-01
 -2.8151541e+00
 -1.3663995e-01
  4.0668538e-01
  4.6342045e-01
 -3.3913866e-01
 -1.0742863e-01
  2.4131167e+00
 -1.0983738e-01
 -6.8125412e-02
  1.8976101e+00
  1.4531779e+00
 -1.1197026e+00
  9.8360464e-02
 -4.0395271e-02
 -1.1850219e-01
  1.5268718e-01
 -3.7997654e-01
 -2.7393442e-01
 -6.0661167e-02
  2.9535311e-01
  4.8600465e-02
 -5.7350302e-01
 -1.4710712e-01
  4.4319157e-02
  8.2380348e-01
  1.9546694e-01
 -3.0400214e-01
  2.2532403e-01
 -3.0657256e+00
  3.1780872e-01
 -6.0192250e-02
  1.8743118e+00
  1.0056093e+00
 -1.8006806e-01
  1.1671484e-01
  4.9210793e-01
 -5.8185774e-01
  5.4526638e-02
  1.8497784e-02
  8.8755369e-01
  5.9479173e-02
 -1.0066347e-01
 -6.6711977e-02
 -8.4692925e-02
  3.6721566e-01
  2.2438946e-01
 -8.6297430e-02
  3.1618774e-01
  3.5549376e-02
 -8.7963837e-01
  8.9482278e-02
  3.4181776e-03
 -1.9317402e+00
  1.7713685e-01
  4.6847217e-02
 -1.0034189e-01
  2.1651196e+00
 -1.0599993e+00
 -6.7869797e-02
 -5.1803496e-02
  3.3544096e-01
 -8.7919049e-02
 -1.1753809e-01
  1.0665477e-01
  1.0726845e-01
 -1.2751526e-01
  4.3522188e-01
  8.2161105e-01
 -1.1823168e-01
  1.3714713e-01
  1.8231448e+00
  1.9222180e+00
 -1.4854238e-02
  1.9022687e-01
 -3.4390876e-01
  1.2964011e+00
  2.0045409e-01
  1.5575608e+00
  7.2214991e-01
 -1.2524077e-01
 -6.6356117e-01
  1.6995567e-01
  3.9262578e-02
  4.6746626e-01
 -3.9138779e-02
 -1.4080651e-01
 -9.7736448e-02
 -1.3736606e-01
 -3.9871752e-01
 -8.5416621e-01
  3.6977229e-01
  7.4068415e-01
 -2.4925241e-01
 -1.7459804e-01
  1.9641192e-01
  1.5095044e+00
 -1.1854837e+00
 -1.5674984e+00
 -1.2810597e+00
 -4.5237342e-01
 -2.2539531e-01
  3.7474293e-01
  5.9135486e-03
 -1.7910439e+00
  7.9298860e-01
 -2.1479795e+00
 -1.9645399e-01
 -4.1955096e-01
  4.5603219e-02
 -1.3077091e-01
 -1.1923647e-01
  3.2209066e-01
  9.2336059e-02
 -1.5364965e+00
  3.0489394e-02
  1.0254051e-01
  2.1183433e-01
 -7.2290085e-02
  9.7568572e-02
 -3.5451185e-02
 -3.9931163e-02
 -4.0616740e-02
  2.5853837e+00
 -3.2588255e+00
  2.1379387e-01
  6.0986394e-01
  5.7149607e-01
 -1.5057322e-01
 -3.3689615e-01
 -4.0495270e-01
 -3.6451224e-02
 -3.3344157e+00
 -2.6590266e+00
 -3.6049426e-01
 -5.7097769e-01
 -7.7559817e-01
  1.3121177e-02
 -3.9760461e-01
  1.6743442e-01
  8.4352367e-02
  1.7305403e+00
 -4.1872892e+00
 -1.6168352e+00
  1.6800424e-01
  8.0932319e-02
  2.1541462e+00
 -1.3838087e+00
  1.0489330e+00
 -1.0004988e+00
 -6.1722702e-01
 -3.2456243e-01
 -2.8155300e-01
 -1.5073035e+00
 -3.3958890e+00
 -4.9697317e-02
 -7.2110796e-01
 -3.4032235e+00
  3.0944007e-02
  9.2723779e-02
 -1.1499389e+00
 -8.6217612e-02
  4.5081949e-01
  1.2054288e+00
  2.3138714e-01
 -6.9409430e-01
  1.2740231e-01
  3.2926317e-02
 -3.2364851e-01
 -1.7764705e-01
 -1.7041683e-01
 -3.5960779e-02
 -5.1002525e-04
 -1.6674976e-01
  6.5881586e-01
 -9.4896239e-01
 -3.4144666e-02
  5.9090700e-02
 -3.0728515e-02
  9.4794637e-01
  1.4006612e-01
  5.9261844e-02
 -9.1305919e-02
 -9.9643841e-02
  1.1816210e-01
  8.2584512e-01
 -1.4238521e+00
  2.0800366e-01
 -4.3022707e-01
  2.1691260e-01
  1.1567906e-02
 -4.9432546e-01
  3.7461063e-01
  1.7612128e-01
  2.6043400e-01
  7.2106481e-02
  2.8254920e-01
 -1.1601524e+00
  4.3961953e-02
 -5.5375937e-02
  1.7201711e-01
  4.2957164e-02
 -6.7239219e-01
  1.0695024e+00
 -7.5494044e-02
 -3.6209059e-01
  6.9017321e-02
 -2.7332330e-01
 -5.6618577e-01
 -1.4168047e+00
  3.1186524e-01
 -1.7696230e-02
 -1.9299580e-01
  3.2461444e-01
  3.2678130e-01
 -9.6910961e-02
  7.5569056e-02
 -7.2763294e-02
  9.5066549e-03
 -1.4621472e-01
 -7.7561170e-01
 -4.4631508e-01
 -2.2632921e+00
  1.5750411e-01
 -1.2307192e-01
 -3.1584166e-02
 -2.4418078e-01
  2.9495678e+00
  1.3397621e-01
  3.7995603e-02
 -8.0553502e-02
  7.6082319e-02
  9.3914144e-02
 -2.6408327e-01
  1.1764192e-01
  1.0745985e-01
 -9.3716912e-02
  9.6889980e-02
  1.1152768e-01
 -8.6702771e-02
 -8.9801306e-01
  1.6906437e-01
  1.1052624e-01
 -2.2780182e-02
  2.6313511e-01
  2.7455635e-02
  1.1723860e-01
 -1.7050597e-01
 -6.1540108e-02
  1.2595187e-01
  1.4031346e-01
 -1.5975900e-02
  6.0220502e-02
 -1.6824795e+00
 -3.7200335e-01
  7.0838430e-03
 -1.9977169e-01
  3.4891707e-01
 -4.4881646e-02
  1.8635105e-01
 -1.6269140e-01
  2.3076141e-02
 -1.6570456e-01
  2.4203932e-02
  1.0800909e-02
  2.8053591e-01
  3.6869982e-01
  3.3889285e-01
  3.7646154e-01
 -1.9839080e-01
  2.8097659e-01
  7.1443185e-02
  2.5986657e-01
  2.1710274e-01
 -1.1563720e+00
 -2.9988675e+00
 -8.3665627e-01
  7.1945202e-01
  1.8110174e-01
  1.3455139e-02
  5.2884072e-01
  9.8823720e-01
  2.8143618e+00
  4.1487975e+00
 -6.1492169e-01
  1.7414418e-03
  4.2268984e-02
  1.1682082e+00
  1.8126288e-01
 -3.5537515e-02
  6.2983811e-01
 -2.9149774e-02
 -3.9568952e-01
 -2.9215109e-01
  4.5906967e-01
  1.3168015e+00
 -2.0150244e+00
 -1.2533140e+00
  3.6546710e-01
 -4.9943319e-01
  2.4404626e+00
  4.2417708e-01
  4.0622550e-01
 -3.2299560e-02
  4.6656305e-01
  2.2354953e-02
  5.9275888e-02
 -2.1687363e-01
  1.2730606e+00
  2.8805733e+00
  4.9402036e-02
  6.6923350e-02
 -1.4319038e-02
  3.3776975e-01
  1.5262237e-01
  1.3540906e-02
 -4.2841397e-03
  1.9620068e-01
  2.1735544e-03
  7.8378376e-03
 -1.0750237e-01
  1.2808676e-01
 -2.1109167e-03
  5.2525448e-03
  3.8876996e+00
 -7.3781359e-01
 -1.9339865e+00
 -2.4117367e+00
 -4.4981527e-01
  1.8810642e-01
  1.0525451e-01
 -6.8500561e-01
 -1.3815577e+00
 -5.4447973e-01
 -1.5660001e+00
  2.0349035e-01
 -1.6326548e+00
 -3.9612827e-01
  6.0557294e-01
  5.3846981e-02
 -1.0510539e-01
  2.1941450e+00
  2.3763406e+00
  9.6068673e-02
  1.1557808e+00
  1.1392406e-02
  2.9791374e+00
 -7.5269453e-02
  9.3458819e-01
  6.0282195e-01
  1.9965196e-01
  6.6447802e-02
  1.4675115e-01
  1.1538022e+00
  3.4525037e-01
  1.3157740e+00
  3.2501706e-01
  1.2428036e-01
 -6.7498818e-02
  1.2238904e+00
 -7.4787122e-01
  2.8387281e-01
 -1.0415875e+00
 -5.7256293e-01
  1.8051571e-01
  1.3975118e-01
 -1.9635323e-01
 -1.6656210e-01
  5.0529653e-01
  1.2949646e-01
 -1.5779048e-01
  2.0275532e-01
 -1.1626599e-01
 -3.2849219e-01
  7.7530585e-02
 -3.8890874e-01
 -7.4474418e-01
 -1.6998105e-01
 -2.9054599e+00
 -2.4219522e+00
 -2.3621246e-01
 -4.6975054e-02
  1.1366313e-01
  9.0963140e-02
 -1.8663344e+00
 -4.1245263e-02
 -8.1728816e-01
  2.4418549e-03
 -1.5284869e-01
 -2.1910069e+00
 -2.4376881e-01
  3.2189363e-01
  3.1926483e-03
  2.2214981e-02
 -5.1490885e-01
 -1.3679309e-01
 -5.9001559e-01
  1.1577355e+00
 -6.5970474e-01
 -1.6195765e+00
 -7.6995175e-03
 -2.4591286e+00
 -4.8610128e-02
 -1.9390954e+00
  2.4290869e+00
  1.2632304e-01
 -1.1552367e+00
  1.3208589e-01
 -4.4541290e-01
  7.7139802e-02
 -2.3367891e-01
 -2.5130680e-01
 -5.7102436e-01
 -1.0102473e-02
  1.9095699e-01
  5.5364329e-01
 -5.7372928e-02
  2.1455956e+00
 -3.1963187e-01
  5.0511509e-02
  3.0312705e-01
  4.1640479e-02
  5.0593052e-02
 -3.6558080e-01
 -1.1436976e-02
 -1.5181020e-01
  2.3840584e-02
  1.3675015e+00
  6.0707408e-01
  1.7502936e-02
  1.5301400e-01
 -1.6177176e-02
 -2.8676170e-01
 -6.2446922e-02
  1.1954421e+00
  1.8656456e-01
 -7.5151242e-02
  2.1302879e-02
 -2.0425671e-01
  9.1385551e-02
 -1.5412824e-01
 -1.4223510e-01
  1.1533207e+00
 -7.2323555e-01
  1.0408171e-01
 -2.3616911e-01
 -6.2198486e-02
  3.2800748e+00
  4.0013060e-01
 -1.0137804e+00
  2.2818300e-01
 -6.5522090e-02
 -3.9521742e-01
 -3.0567792e-01
 -2.2043925e-02
  4.9642725e+00
 -1.7146009e+00
 -2.1003394e+00
  1.2524395e-01
 -2.3721254e-01
  6.5764949e-02
 -7.8241177e-02
  3.9081469e-01
 -1.4400733e-01
 -3.0180806e-01
 -1.6385405e-01
 -1.9946238e-01
  4.3155122e-01
  5.2396659e-02
 -1.0530132e-02
 -1.1309913e-01
  2.9340580e-01
  3.0594662e-02
  1.9497320e-01
  1.9745597e-01
  3.6130521e-02
  1.4893734e-01
 -3.9157361e-01
 -4.4241682e-01
 -1.1478415e+00
 -1.0775213e+00
 -7.5092049e+00
 -4.3455791e-01
  1.8127676e+00
  1.2980661e-01
 -2.5562170e-01
  1.4344714e+00
  2.4666834e+00
 -5.3214014e-01
 -8.8891052e-02
 -1.0649198e+00
 -1.3649437e+00
 -4.0201643e-01
 -1.5071430e+00
  1.9077499e+00
 -5.3599370e-01
 -2.6162815e+00
  2.4758071e-01
  1.7435212e+00
  7.1912542e-02
 -5.6976473e-01
  2.1152444e+00
  4.8627317e-01
 -5.2177459e-01
 -9.4228655e-02
 -1.1399531e+00
  9.9478883e-01
 -6.9417089e-01
 -2.5145313e-02
  4.0138664e+00
  1.2133503e+00
  3.9436114e-01
  9.6055502e-01
 -2.5871472e+00
  4.2114878e+00
  1.4301904e+00
 -4.9317056e-01
 -2.8025022e-01
  1.1719718e+00
 -9.9219143e-01
 -9.6703678e-02
 -1.5364532e+00
 -6.4277983e-01
  6.0715044e-01
 -2.8272516e-01
  1.3928133e+00
 -8.7269574e-01
 -1.1997602e+00
  1.1552969e+00
  7.7312052e-01
 -6.7273837e-01
  1.1720287e+00
 -2.3020561e+00
 -1.4774359e+00
 -2.8313074e-01
  1.2602980e+00
  2.0238943e-01
  8.2589269e-01
  1.5097300e+00
  1.1573201e+00
  4.7779493e-02
 -1.2111301e+00
  1.2545438e+00
 -4.9096677e-01
  2.1184168e+00
 -1.9344515e+00
 -9.9502134e-01
 -8.8178925e-02
  6.6778386e-01
  1.8595243e-01
 -8.6353052e-01
 -8.2514226e-01
  7.2017682e-01
 -1.3241732e+00
  8.4211516e-01
 -3.9362507e+00
 -8.0566257e-02
 -8.1567210e-01
  5.5929208e-01
  8.5678744e-01
  2.2079113e-01
 -1.5564990e+00
  1.3042266e+00
  1.8265872e-01
 -2.6054103e+00
 -2.2180228e-01
  1.3956187e+00
  1.4892700e+00
  1.1779095e+00
 -9.3352556e-01
 -1.5943416e+00
 -1.6723832e+00
  3.6129013e-01
 -3.5363484e-02
  1.3570127e+00
  1.7974101e+00
  6.3280714e-01
 -2.6543651e+00
  6.5405715e-01
 -1.4410338e+00
  2.7805293e-01
  6.5222472e-01
  1.2412640e+00
  2.7448490e+00
 -6.6394353e-01
 -1.9788301e+00
  3.1683128e+00
 -7.6882493e-01
 -5.9341770e-01
  2.1163530e-03
 -1.4412154e+00
  1.2514212e+00
  2.5870690e+00
  5.2779955e-01
  3.2855458e+00
 -5.9716830e+00
 -3.2395208e+00
  8.2390256e-02
  2.8307338e+00
 -2.6680779e-01
  1.1831490e-01
 -2.6080704e+00
 -9.0234089e-01
  6.3169515e-01
  1.0081154e+00
  7.0103902e-01
  1.2962219e+00
  5.1475990e-01
  9.9035008e-03
  3.0322630e+00
  1.4494294e+00
 -4.9811289e-01
  1.7928956e+00
 -1.5233626e+00
  6.3436351e+00
  1.2927295e+00
  2.2068906e-01
 -4.4935882e-01
 -4.7968942e-01
 -1.7606689e+00
  1.4956530e+00
 -1.9808633e+00
 -8.2389987e-01
 -2.8398246e-01
  3.6446974e-01
 -1.8275760e-02
  6.1630410e-01
  1.5030398e+00
 -2.0026250e+00
  1.3142480e+00
 -1.3704247e+00
 -1.4434452e+00
 -4.3262243e+00
  7.6847136e-01
 -4.8780093e-01
  2.3881495e+00
  1.0726840e+00
  1.8524595e-01
 -4.0129393e-01
 -1.0312622e+00
 -6.2940031e-01
  2.0792074e+00
 -1.5545887e+00
 -4.0817681e-01
  5.5064332e-01
  7.0734566e-01
  3.1574860e-01
  1.6857431e+00
  8.9088988e-01
 -6.1427325e-01
 -3.2864308e+00
 -1.5814166e+00
 -3.5923594e-01
  7.5850248e-01
 -4.3288097e-01
 -4.3634662e-01
  2.3555949e+00
  1.3346128e+00
 -7.0788711e-01
  1.6732407e+00
 -2.3326081e-01
 -2.2049322e+00
  1.7074139e+00
 -4.6600178e-02
 -3.8264821e+00
  7.6768786e-01
  1.8771611e+00
  5.0370860e-01
  9.0237403e-01
 -2.5539315e-01
 -6.0712826e-01
  1.4923795e+00
 -2.1000539e-01
 -5.0871745e-02
  1.2040019e+00
  1.1079098e+00
 -6.7103565e-01
 -3.5444951e+00
  3.1214631e+00
 -3.9278492e-03
  1.8050319e-01
  1.5679261e-02
  1.7037787e-01
 -1.2748224e-01
 -8.4950320e-02
 -1.3508898e-01
 -4.6725959e-02
 -1.3270548e-01
 -1.0370918e-01
  1.2645166e-02
 -2.7503355e-03
  3.4663853e-01
  1.6879733e-01
 -1.2848312e-01
 -1.6573289e-01
  2.2242565e-01
  9.2286319e-02
  1.0905119e-01
 -8.4676884e-02
  4.4254810e-02
 -3.1270687e-02
  4.6991389e-02
 -1.7407227e-01
 -1.5026481e-01
 -2.8542836e+00
  6.2861747e-01
  3.0688643e-01
  1.1596240e-01
  7.8617580e-02
  4.1461533e-01
 -1.7180407e+00
  6.6465273e-02
 -9.3825562e-03
  8.7057672e-02
 -7.6294281e-02
  9.9348426e-02
 -1.6472289e-01
  4.6884859e-01
 -1.6542517e-01
 -3.4399755e-02
  2.6119938e-01
 -3.9207342e-01
  2.9813465e-01
  1.2633204e-01
 -3.5502923e-01
 -2.6716635e-01
  9.3289018e-02
  4.5601696e-01
  6.5688765e-01
 -5.1743591e-01
 -6.8737453e-01
  5.5659842e-01
 -7.5944787e-01
 -7.2938842e-01
  9.8161322e-01
 -4.1731095e-01
 -4.8402295e-02
  1.1972793e+00
 -5.3865079e-02
 -7.7288239e-03
 -1.2840791e-01
 -2.0774366e-01
  2.8095067e-02
  1.0789263e-01
  6.0248967e-02
 -2.2868815e-01
  1.5898027e+00
 -1.3553864e-01
 -2.9709847e+00
  2.0913031e-02
  4.9609553e-02
 -1.1933544e-01
  1.6264226e+00
 -2.9114929e-01
  4.1763490e-01
  3.5892335e-01
  6.6428557e-02
 -1.0556372e-01
 -8.0644086e-02
 -1.2026778e-02
 -8.2401438e-03
 -4.9443778e-01
  2.9744010e+00
  3.1224757e-02
 -6.6755973e-02
 -2.2312457e-02
 -2.1353468e-01
 -2.1586075e-02
  1.0150959e-01
  4.6307895e-02
  1.7647924e+00
 -2.4467036e-03
 -2.5530517e-02
 -1.3861234e-01
 -4.7704600e-02
  2.5912753e-01
 -2.7310571e-02
 -2.8429229e+00
 -3.5539502e-01
  2.2149706e+00
  3.8096491e-02
 -1.9672226e+00
  8.1266290e-01
  1.7466381e-01
  1.9360956e-02
  2.3562434e+00
  4.5236376e-01
 -2.4576898e+00
 -6.0741603e-01
 -7.8935617e-01
  3.5700589e-02
 -4.3517850e-02
 -1.8117147e-03
 -1.3716732e-01
 -1.9175237e-01
  7.0192468e-01
  8.2675979e-02
 -7.5557262e-02
  2.8682423e-01
 -1.3327932e-01
 -1.1197533e-01
  5.2715319e-01
 -1.8863226e+00
 -2.2870155e-01
  8.0931765e-01
 -5.6303477e-01
  6.5861635e-02
 -1.1935554e-01
 -4.3783549e-02
 -1.0385884e-01
  1.3960667e+00
 -7.9443464e-03
 -1.7544222e-01
  8.5178339e-01
  2.4219406e-01
  4.1718292e-01
 -1.8567263e+00
  2.8600913e-01
  1.5690537e-02
  6.6260412e-02
 -1.0848104e-01
 -4.2594682e-02
  1.4646928e-01
  1.7165014e-01
 -4.2779360e+00
  7.3556643e-04
  6.2563285e-02
 -4.4568367e-03
 -1.6407754e-01
 -3.7173040e-02
  1.8454720e-01
  1.3798332e+00
 -2.2006469e+00
 -1.0839725e-02
 -1.3925316e+00
  1.2180328e-01
  2.8962642e-01
 -1.4424868e-01
 -1.6964220e-01
  5.4300271e-02
 -1.2062633e+00
 -1.1091977e-01
 -9.5885903e-01
  4.4464387e-02
  4.1144066e-02
 -2.6513097e-01
  1.3690585e+00
 -1.9154474e-02
  1.5759209e-01
 -5.1942222e-02
 -1.6576998e-02
 -4.5194232e-01
 -2.6262451e-02
 -1.0932860e+00
 -5.8373064e-01
 -2.1541889e+00
  1.9432232e-01
 -1.4037344e+00
 -1.4269347e-01
  1.5172154e-01
  1.3146409e-02
 -6.5795398e-01
 -2.0185914e-03
 -2.2332342e-01
 -5.2688255e+00
  9.2131400e-01
 -2.8539876e-02
 -3.3812684e-01
 -1.7913043e+00
  6.7091703e-02
  2.3168338e-02
 -2.7135551e-01
  8.8568494e-02
  8.1204720e-02
 -1.8342334e-01
 -1.2724212e-01
 -9.6309520e-02
  2.0771310e+00
  1.0158404e+00
  1.0757345e+00
 -1.9814974e-01
  1.4483300e-01
 -8.0005896e-01
 -3.9233496e+00
  7.9152381e-01
  2.2180921e-01
  4.2442277e-02
  8.7631774e-01
  2.5982494e+00
 -2.7658477e+00
  7.1199048e-01
 -9.1302089e-02
  8.3774477e-01
 -3.2324415e-01
  4.4842401e-01
 -2.9559818e-01
  6.1797661e-01
  2.5496531e-01
 -3.2468560e-01
 -5.8460420e-01
  3.9134938e-01
 -3.5700984e+00
  4.9710491e-01
  2.5314203e-02
 -1.0500187e-01
  2.4181902e+00
  3.2238781e-01
  2.5435004e-01
  6.2291270e-01
 -1.4837585e-02
  2.0569174e-01
  4.7943977e-01
  1.4645931e-01
 -1.0953941e+00
  3.8258454e-01
  1.9895369e-01
 -1.1847888e-01
 -3.1986070e-01
 -1.2363441e-01
  2.5714341e-01
 -9.4828539e-02
  1.2696609e-01
  1.8314289e-01
  3.5038826e-01
  1.7903520e-02
  7.8516483e-02
 -1.2780704e-01
  1.0101688e-01
  1.1095152e+00
  1.4485870e-01
 -1.7621823e-01
  2.8134551e-02
 -1.5501222e-01
 -1.9092252e+00
 -1.9726010e-02
  7.0277877e-02
  1.6420551e-01
  5.9933275e-02
  5.1321257e-02
  1.2007263e-01
  2.2689855e-01
  2.9216376e-01
 -8.8676920e+00
  1.8510808e-01
 -5.4112233e-02
  4.4548002e-01
  1.1480570e-01
 -8.9745931e-02
 -6.3466564e-02
 -4.2887118e-01
 -1.4313222e-02
  1.3085607e-01
  6.3281327e-02
 -1.2650315e-01
  3.9767288e-02
  7.4970387e-02
  1.0421267e-01
  2.2547506e-01
  6.6480637e-03
 -2.8058845e-01
  8.4176123e-01
  3.6662556e-02
 -8.8077649e-02
 -2.4676418e-03
 -1.1236316e-01
 -3.0942592e-03
  3.4959289e-01
  2.8846776e-02
  9.9347726e-02
 -7.2232082e-02
  1.0546482e-01
 -5.8509611e-02
 -2.3896821e-01
 -2.2902851e-01
  7.3791152e-01
  5.0034873e-02
 -9.9596262e-02
 -2.6669448e-02
  6.1587042e-01
 -5.8295406e-02
  9.4439983e-02
  3.4013171e-02
  1.8414840e-01
 -3.4936377e-01
 -4.6846099e-02
  1.4627961e-02
  1.0842105e-02
 -2.5686869e-01
 -2.6453194e-01
 -5.6430809e-02
 -2.9032242e-01
  3.4267563e-02
 -6.8194620e-02
 -2.5400562e+00
 -9.1674663e-02
  3.7381284e-02
  9.5467135e-02
 -1.8881123e-01
 -2.5866820e-02
  1.1754938e-01
 -2.1283768e-02
  8.7307177e-02
  1.7492929e-01
 -3.0857553e+00
 -7.7959001e-02
  4.6731278e-01
 -2.0617531e-03
  1.8084782e-01
 -1.1554190e-03
 -3.0886760e-01
  7.0748053e-02
 -3.5124552e-01
  7.8492217e-02
  1.3849704e-01
  4.3736151e-01
 -1.7387719e-01
  6.2948078e-02
 -1.2926058e-01
 -1.5042920e-01
 -6.0823869e-02
 -2.9720278e+00
  1.5439190e-01
  4.8850257e-02
  5.2120686e-02
  1.1340257e-01
  4.4349160e-02
  2.4420090e+00
  5.1001859e-01
  8.1027962e-02
 -2.7175894e-01
  7.4448824e-01
 -3.6857251e-02
  9.9217719e-01
  3.0148223e-01
  3.6472760e-02
 -9.6654695e-01
 -2.2131915e+00
 -1.9779493e+00
  7.3765418e-03
 -4.0690415e-02
 -7.7557737e-01
 -7.5751942e-01
  1.5042206e+00
 -9.2966503e-01
 -7.0007704e-02
  5.8573723e-02
  3.0582598e-03
 -2.7424446e-01
  2.2962327e-01
 -4.9362803e+00
 -1.4439884e-01
 -2.5360411e-01
 -2.2615085e+00
 -2.4884844e-01
  6.7584835e-02
 -1.6838834e+00
  4.1819477e-01
  3.5523689e-01
  2.2230819e-02
 -7.5102800e-01
  4.8520269e+00
  1.2823496e+00
  2.1287648e-01
  3.2011673e-02
  5.0979488e-02
 -1.0350432e-01
 -1.0813036e+00
  1.6558890e-01
  2.5798193e-01
  2.3784499e-01
  4.0153819e-01
  2.1942968e+00
  1.5259643e+00
  6.7393743e-02
 -2.3612370e-01
 -5.1430517e-01
  6.3092071e-01
 -2.0184839e-01
 -8.1727311e-02
  4.8516216e+00
 -6.7449284e-01
  1.3338010e-01
 -1.7801590e+00
  3.7199560e-01
 -3.8734048e-03
 -9.8832518e-02
 -1.1879652e-02
  5.5268312e-01
  2.8452478e-02
  2.3418331e-01
  1.5306170e-01
 -1.6474342e-02
 -9.6788973e-02
 -5.8952346e-02
 -4.1250505e+00
  1.5819433e-01
 -9.8231761e-03
 -8.0053337e-02
  6.0728274e-02
 -2.0500330e-02
  1.4482668e-01
  1.3748340e-01
 -1.4910640e-01
 -3.1682518e+00
  4.7837090e-02
 -4.8010680e-01
 -5.3908043e-02
 -9.0909198e-02
  3.9302897e-01
 -2.6045808e-01
 -1.6597477e-01
 -1.5582259e-01
  6.2743211e-01
  2.7869359e-01
 -8.0602027e-02
  5.2706182e-02
  1.5796673e-01
 -8.0397092e-03
 -9.9505587e-03
  2.9036838e-01
  1.9787675e-01
  4.0654290e-02
 -1.2686329e+00
  8.9389436e-02
 -3.1119195e-01
 -5.0648496e-02
  1.9766655e-02
 -2.4099679e-01
 -4.0839419e-01
  1.2984510e-01
  4.4323480e-01
  3.8624421e-01
 -2.4267163e+00
  3.3490655e-01
 -2.1303929e-01
  1.3420957e-01
 -5.9640255e-02
 -4.5585939e-01
  3.2758338e+00
  3.9157500e+00
 -4.8052466e-01
 -3.3405178e+00
  1.6840317e+00
  1.8311449e+00
  2.8145890e+00
  1.0321307e+00
  1.5204059e-01
 -1.6196889e-01
  1.4236417e+00
  2.4480662e+00
  8.7005429e-02
 -4.4306103e-02
 -3.0928189e-01
  1.1612432e-01
 -3.2843735e+00
 -3.1577715e-01
 -1.0230296e+00
  1.8079474e+00
  1.0578770e-01
 -4.1342500e-01
  1.3772662e+00
  3.8142481e-01
 -2.0433075e+00
  9.3404788e-01
 -1.2175871e-01
  2.0691423e+00
 -1.2622997e-01
 -8.4545523e-01
  1.8750980e-01
  6.4676672e-01
 -4.5809171e-01
  3.7926376e-02
 -1.7489919e-01
 -4.6885360e-02
 -1.1715195e-01
  6.1000284e-02
  1.6315209e+00
 -1.7855347e+00
 -4.2923182e-01
 -7.1057387e-02
 -1.1532760e-01
  9.0873791e-03
 -5.1397372e-02
 -1.2234827e-01
 -2.1434051e-01
  1.5833730e-02
 -1.0278225e+00
 -2.2644246e+00
  4.4887644e-01
 -1.1984317e+00
 -9.7508524e-03
  7.9424977e-01
  1.2567031e+00
 -1.8076439e+00
 -5.4207987e-01
  1.8829462e-01
  5.6752503e-01
 -5.7957840e-01
  1.9411866e-03
  1.1817987e-01
 -5.5980915e-03
  7.7447839e-02
 -2.0240500e+00
 -5.9198546e-03
 -4.6808254e-02
  3.6801845e-01
  3.3064470e-02
 -8.1969365e-02
 -1.2696424e-01
  2.4173541e+00
  8.5434437e-02
 -4.3648221e-02
  1.4260561e+00
 -7.6608568e-01
  1.4398537e+00
 -1.4573387e+00
  1.7265085e-02
 -1.7027247e-01
 -4.0395219e-02
  4.2795995e-01
  7.3028333e-02
 -2.5205132e-01
 -1.7896318e-01
  1.5335821e-01
 -2.1564275e-01
  5.8210980e-02
  1.6093113e-01
 -1.1740194e-01
 -4.6732169e-02
  3.9992612e-02
 -1.4131996e-01
  3.6081710e+00
 -1.1806304e-01
  1.7875624e-01
 -5.4699078e-02
 -2.6924738e-01
 -1.5413117e-01
  3.0813098e+00
  4.4355509e-03
  2.4018701e-02
  1.2258514e+00
 -1.4441454e-02
  2.6740081e+00
  4.0439735e-04
  6.4498144e-01
 -1.7257446e-01
 -2.5820753e-01
 -9.7091636e-03
 -1.3064025e-01
  3.3829588e-01
  4.1051149e-02
  1.9337240e-01
  7.8945071e-02
  2.0517783e+00
 -1.0347102e-01
 -2.6328912e-01
 -1.2408675e+00
 -9.3786143e-02
 -1.0453961e-02
 -1.4297698e-01
  1.7613210e-02
  1.5630893e-01
 -3.9789575e-01
  3.6127321e-02
 -1.2035128e-01
  6.1617855e-02
  1.0960843e-02
  2.3458153e-01
  4.8580185e-02
  8.1932050e-01
 -1.2370064e+00
 -2.4099852e-01
 -6.9219194e-02
  1.8590708e-01
  8.3876312e-01
 -7.4612331e-01
  3.4210449e-01
 -1.9589437e-02
  9.2784822e-02
 -4.1591483e-01
  1.7181592e-01
 -1.0879244e+00
  2.9897097e-01
 -2.6102372e-02
  1.3779747e-01
  5.6880567e-02
 -1.5295205e-01
 -6.3315071e-02
  5.5764522e-02
  7.6509327e-02
  1.7920663e+00
 -9.7280133e-01
  7.4246354e-02
 -3.9395595e-01
  3.1342983e-02
  2.1271124e+00
 -4.7853261e-01
 -1.2647286e-02
  6.4244175e-01
 -1.8958744e-01
 -1.4501844e-01
  7.7044360e-02
  3.1721538e-01
 -1.9067743e-01
  3.0039755e-01
 -5.2828944e-01
  2.7394632e-01
 -2.3314608e-03
 -1.9771144e+00
 -7.2137386e-01
  3.5543919e-02
  2.6985035e+00
 -1.5880761e+00
 -3.2387888e+00
 -2.1500524e-02
 -2.4790564e-01
 -9.6836782e-01
 -4.6416916e-02
  2.8764775e-02
 -5.6762612e-01
 -9.9698734e-01
 -8.2196698e-02
  6.1765157e-02
  2.0854577e-01
 -4.6339741e-01
 -3.2470492e-01
  2.8456679e-01
  5.1155742e-02
 -4.7501106e-02
 -1.1074867e-01
 -3.4601688e-02
  1.0508390e-01
 -2.2142424e-01
  3.8534306e-02
 -1.1502378e-01
  2.2798934e+00
 -1.1999411e-01
 -1.0289866e-01
  7.9979312e-01
 -5.2997623e-02
  1.9392483e-01
 -2.1245065e+00
  1.4809347e+00
 -3.5605937e-01
  5.5715594e-02
  5.0728812e+00
  7.6027721e-02
  4.6134666e-01
 -1.8936074e-01
 -5.2519494e-01
  1.2726660e-01
  6.7134440e-01
 -2.2699071e-02
  3.9815551e-01
  1.2827955e-01
  1.3663545e-01
 -1.0281938e+00
 -4.8139967e-02
  3.5605460e-01
 -2.7218926e-01
  1.3876435e-01
 -1.3311255e-01
 -2.5427505e-02
 -1.0284591e-01
  3.7804914e-01
 -3.5924664e-01
  8.3060908e-01
 -2.4371982e+00
 -3.7992987e-01
  1.6763739e-02
  7.1977057e-02
 -1.5210807e+00
  2.3096652e+00
 -7.0146775e-01
  3.8622215e-01
 -2.3146899e-01
 -4.6700332e-02
 -1.2995664e+00
  1.4184025e-01
  4.9893729e-02
 -2.5218871e+00
 -1.2642695e-01
 -2.4227742e-02
 -1.7568158e-01
  2.3035486e-01
  1.2110567e-01
  1.1740600e-01
  2.0750215e-02
 -2.3573686e-03
  3.1032865e-03
 -2.4255559e-01
 -6.9420218e-02
 -3.0409306e-01
 -2.4137321e-01
 -3.9642543e-02
  5.0538939e-01
 -2.1763613e-02
 -5.6746967e-02
 -4.3281406e-02
  4.9022374e-01
  1.5884192e-01
 -1.0698696e+00
  1.3087903e-01
 -1.0035933e-02
  1.3559762e-02
  1.4403418e-01
 -1.5459963e+00
 -1.8249820e-01
 -3.8884145e-01
 -2.3798518e+00
 -1.6594414e-01
 -8.3413148e-01
  1.7682596e-01
  3.1354966e+00
 -5.2317399e-01
 -2.5411791e-01
  6.4705849e-01
 -2.4610223e-01
 -1.0786850e+00
  1.7557555e-01
 -1.0357475e-01
  8.9345306e-02
  3.8022563e-01
 -9.2048168e-02
  2.9395214e-01
 -3.9579920e-03
  3.3682024e-01
 -7.5565137e-02
 -6.6052787e-03
 -1.2130607e-01
 -2.8015211e-01
 -9.1946963e-03
 -9.4642356e-02
 -5.1735337e-03
  2.0128335e-01
 -2.0667155e-01
  4.0343154e-02
  8.1184626e-02
 -4.0892661e-03
  1.9807182e-03
 -2.6690215e-04
 -3.6118844e-01
  2.5292161e-01
  8.5078746e-02
 -4.1247770e-01
 -2.0661364e-01
  2.6257002e-01
 -5.0945777e-01
 -2.5713265e-01
  2.3577352e+00
  7.0226053e-04
  7.9921834e-02
  4.8363991e-02
 -4.3551430e-02
 -3.3465075e-01
 -2.5737491e-01
  5.4346789e-02
  1.8371471e+00
  6.1907190e-01
  1.3935685e-01
 -7.7537291e-02
  1.4631887e-01
  1.6971568e+00
  1.4099108e-02
  4.1682878e-01
  7.0205607e-02
  4.7151926e-01
  2.8323081e+00
  3.3390004e-04
  2.5799552e-01
 -4.3465354e-02
 -1.6228163e+00
  3.1720787e-02
 -1.0541478e+00
  1.6441612e-01
 -3.9671633e-01
  2.1295459e+00
 -4.1415315e-02
 -1.2415820e-01
 -2.5328463e-01
  2.9064985e-02
  2.2413671e-02
  5.4111683e-01
 -5.6457710e-02
  2.3144954e-01
 -5.9236449e-01
  3.6129978e-01
 -6.2122364e-02
  3.8282937e-01
 -1.0976111e-01
 -4.7481281e-01
  2.8993753e-01
  1.0998591e-01
 -3.3086777e-01
  4.8597541e+00
  9.9210256e-01
  8.9051086e-01
  1.1972919e+00
  7.7542132e-01
  7.2198641e-01
  3.8038950e+00
 -5.9307039e-01
  9.8830134e-01
  6.5563190e-01
 -1.2756957e+00
 -2.1789791e-01
 -4.4071221e-01
  2.0134320e+00
  4.0455621e-02
  4.2767901e+00
  4.4024411e-01
  1.3205484e-01
  2.5591335e-01
 -1.9649811e+00
  2.2272871e+00
  3.0945468e-01
 -1.6635362e+00
 -5.0520176e-01
 -1.1766795e+00
  2.1970677e+00
  9.8421073e-01
  1.3636158e+00
  1.7175548e-01
  2.3513798e-01
 -2.7579236e+00
 -1.3847775e+00
  9.6464020e-01
  2.5737133e+00
  3.1399887e+00
 -1.8455079e+00
  9.1263382e-03
 -1.9070716e-01
  7.5643420e-02
  3.0768578e+00
  1.1906085e-01
 -2.8693923e-01
  1.3111608e-02
  2.0712359e-01
  2.1684697e+00
 -6.8830408e-02
  1.2537709e-01
  1.4438166e-01
  5.1970202e-01
  1.3542065e-01
 -1.8489367e-01
 -1.1460699e-01
  8.1249785e-01
 -6.3453931e-01
 -9.0635920e-01
 -1.4821428e+00
 -3.1644469e-01
 -6.4900357e-01
 -1.0239947e+00
 -1.2361597e+00
  2.1958675e+00
 -1.2379414e+00
  8.2912761e-01
  9.2311448e-01
  7.0611209e-02
 -1.6824523e-01
  9.1409093e-01
  4.4731018e-01
 -8.5909206e-01
  7.8678006e-01
  1.2000495e-01
 -2.4994355e-01
 -4.3420203e-02
  1.3556106e+00
 -1.3848456e+00
 -1.9601806e-01
  1.0548866e-01
 -1.8395561e-01
 -2.5864432e-03
 -1.9200671e-01
  6.5121323e-01
  1.7729170e+00
  1.8520167e+00
 -6.9030202e-03
  6.2833570e-02
  2.2420690e+00
 -7.6599878e-01
  7.4984068e-01
 -3.5086945e-01
  7.9412796e-02
 -1.0772087e-01
  4.2982888e-01
 -2.7472591e-02
  5.0262123e-02
  1.0732025e-01
  2.6076651e-01
 -6.3537225e-02
 -3.0040285e-02
 -1.5429965e-01
 -4.9287751e-02
 -1.8029166e+00
  3.3146419e-02
 -7.1441263e-01
 -1.0117944e+00
  4.7314648e-02
  2.9130304e-01
  2.9114622e-01
 -6.3310337e-01
 -1.3364926e-01
  2.3106534e+00
  1.2907489e-01
 -8.9560702e-02
 -1.3562816e-01
  3.7847720e-02
 -4.2719680e-01
  3.0283692e-01
 -5.5795652e-01
  2.0934288e-01
 -7.3908851e-02
  1.0481837e-01
  5.6054670e-01
  7.4061289e-02
  2.0881912e-02
  1.8960337e-01
  1.5311754e+00
 -9.0522014e-02
  8.1377961e-02
  6.8511711e-03
